function [y1] = NN10(x1)
%NN10 neural network simulation function.
%
% Auto-generated by MATLAB, 12-Dec-2024 22:52:27.
% 
% [y1] = NN10(x1) takes these arguments:
%   x = 13xQ matrix, input #1
% and returns:
%   y = 2xQ matrix, output #1
% where Q is the number of samples.

%#ok<*RPMT0>

% ===== NEURAL NETWORK CONSTANTS =====

% Input 1
x1_step1.xoffset = [0;0;0;0;0;0;0;0;0;0;0;0;0];
x1_step1.gain = [1.99987882817006;1.99904884420345;1.99970873619442;1.99915052788093;1.99829535968776;1.99825241299299;2;1.99846129817565;1.99869321873402;1.99838957183955;1.99839189143731;1.99832625717373;1.99817443594982];
x1_step1.ymin = -1;

% Layer 1
b1 = [0.13923109746135442499;-0.82577928592228277971;-0.87080149812716878266;-0.58708615108896522461;-1.3652583550081469621;-0.67068097298078743762;0.5734323818413021856;-0.12802224163928854761;-0.76777675320982208262;-0.2008544609287728766;0.028106523766606238135;0.44940821457686108698;-0.42942653908638017679;0.072157266895442551125;-0.29161096132594527264;-0.52258802975957741044;0.20820069829380077886;-0.64331280787137323784;0.47353346573730642488;0.57584783431658048691];
IW1_1 = [0.46283147825605741588 0.35377569735628400238 -0.92084143585181532643 0.697912480681207259 -0.26971807209886278223 -0.06820505068921636771 -0.09937782193227709393 0.55920271846123925652 -0.19191058312930292518 0.54498176944608167638 0.25563304701699146593 0.025065608305827141028 -0.092369329829392152198;0.44861255616495682164 -0.12075208368740274201 0.59145976933726873703 -0.48707543821749677004 0.13626925203469558712 -0.64452152395571571386 0.0019955806887322971588 0.94237265020352101175 -0.094039232135679981517 0.017265056981957904725 -0.127030784243351208 0.051761965818194005662 -0.064316515487877437551;-0.25668542643567104911 1.4537145432153097957 0.3540295204653872152 -0.23986576266581574601 -0.5154387162560694069 -0.24683052501414753932 -0.28303626532150027995 -1.2059910919166652032 -0.026350743305721565507 0.27780985381344974749 0.25130524051431529786 0.11591755538158127203 -0.10454201740782519126;0.10501358021022810796 -0.26508266896293003478 -0.43790921177324937386 -0.38944668570484503034 -0.90262135801356613296 -0.3981745463191719292 -0.46808266815049870413 -0.046181428195479538867 -0.47976448506632562996 -0.18246713797308317107 -0.48115052933845475769 -0.10966026687428534481 -0.11776343949904191644;-0.25776386506668808041 -1.3274269182877178608 0.26196911783189930079 -0.017434397265007776923 0.70306336877431196974 0.43802331132666239011 -0.94601765640841972704 0.98020200065108464837 0.019660168152511505596 0.70651070829931916784 -0.089517192449676111221 0.07881881525417622214 0.095590202293920720211;0.81104803675497583182 0.16323111094710543445 -0.97974792486632400479 -0.99023105155336821337 -0.094043007360752522983 -0.10223773150331906534 0.31969237054676652443 0.49276183695823505548 -0.21672138496307177813 0.21791649657687420238 -0.34379787753185464538 -0.16581021407427606884 0.39269868321338918804;-0.21474745262431862991 0.67484086875165194552 0.68973458942528831361 -0.78965795339972322253 -0.65352914626528046949 -0.46522106376432109665 0.30711335253479937757 -0.25757354182786107444 0.002425117627783288099 -0.21572683999545716471 0.33716250590409624355 -0.068014758543640557731 -0.14706139956912017697;0.05720026069135503155 -0.10202303302163741316 0.060918841190045279477 0.14660256645057601066 -0.25204412730183922697 0.01986278989455312477 0.25709542645242272618 0.39554900251743863038 0.029365085469705939913 -0.040125887460381481908 -0.07859958510345939342 -0.012065108826732713274 -0.036075259461589695431;0.28571710069097761009 -0.071049013112173445283 0.87190232115578336636 0.030332176449656040457 -0.16972340431802709904 0.1464079606680375456 0.17278036137463884114 0.98659989915711809871 -0.35096732628256310793 0.83061088285035511447 -0.38268097941608247847 0.23759438863200910141 0.33193308862893594613;-0.21357289747509872191 -0.11900269385203104955 0.18965334423901289429 0.2405391724387784258 -0.41166644509123967444 -0.60306160186160417958 0.33495307562760712194 0.52180037515278820948 -0.1393747229185088865 -0.37075329401021356324 0.026488194458265737485 -0.31782241315433840123 -0.071310119021888565549;0.23950212972539625111 0.12656587018945922307 -0.43414520649397009278 0.51104378597403576912 0.097350971401720109988 -0.011826226376446214925 -0.14089155554801757742 -0.1769333166892860798 -0.011127859342002256737 0.087921056323961271906 0.031469968779936144387 0.0079367825188221673843 0.02002623698022214585;-0.40548063741344447797 -0.48953558249740530828 0.057463437073565097613 -0.15357905629498241895 -0.086620887539059776561 0.074661306071044292176 -0.25000168485551532704 -0.17212471044948071675 0.074549140567791688516 0.46977789360737387536 -0.38602905221903760502 -0.034761717755692395082 -0.022973283430368293678;-0.37277378119995091543 0.92502849833691713766 -0.1824373225847761848 -0.11236248754142938444 -0.12347133008592317549 0.027031344705954342411 -0.28281361760139972494 0.11602100046483254658 0.0056358039781575939783 0.22221509731788854913 -0.0091867757825697428375 0.01980074472967162727 -0.074139913897047146629;-0.37442415773649206923 -0.92243645275375563131 1.0278341231848364679 -0.58232119791052361357 1.0730483874025475988 0.50203948857252755911 -1.3226596242129431413 0.19226268474928365215 0.025925211874017584091 0.59658907162148322456 0.18311077589584762171 0.2343187528584893542 0.04573803254392426465;0.43672426565052357983 1.3493212146174240473 -0.31823453017478259275 -0.0515011656786774491 -0.5770391791065861975 -0.61328608188659305966 0.94629932391531212943 1.2725019036274829443 0.047309311471662132687 -0.86077580019231825226 -0.21290905636619056329 -0.0048803126405470463253 0.017446619642626857993;-1.7439337530243299579 -0.67278617097610970976 0.38981715145632561681 1.1023004913908922564 0.062508432492272877901 0.4605221993468324726 -0.31587814915175443931 0.13715169080020747638 -0.10895672408600974579 0.57041260117877889968 -0.10508313802623843458 -0.15523852058469339577 -0.03270351758755438154;0.84764024790032144185 -0.50476495598035264756 -0.31282099159282883427 -1.3415428675043097329 0.061654369209116682837 0.48319957846712902061 -0.20231328271523485451 -0.11148665068183159776 0.046521484017707448455 0.16181261408125374723 0.19600552533183412951 -0.19671356282835439355 -0.072939326664452894255;-1.1463849381201849376 -0.25338267674378328609 1.1157043254509577679 -1.115055568414080156 0.054971744242085382459 0.0093473326873017154037 -0.23595006264402182405 0.27539426261348848302 -0.40176352496395234537 0.31993561388733232631 -0.35844148316149304634 -0.27790138058489860517 0.15416685937597512934;-0.71172709046061699567 -0.21672217136197066689 -0.20334963973707276264 0.8690819251625795383 -0.030465525525725789535 0.061030145665186490145 -0.071701561646767913993 0.13982723002420474612 0.0081886161520598188535 0.14044356030058727236 -0.040358888308958694446 0.015808988337683450159 -0.010894871020195394384;-1.1127370220215044849 0.50910018492692610259 0.69567321192543152275 -0.19267025213603400369 -0.26253382095216726277 0.22640202281819846175 0.68246907362985220757 0.28991431993294136671 0.37300130507854384332 -0.5920854977612131087 0.1647181517902638892 -0.011089325314179800802 0.030124362826664280446];

% Layer 2
b2 = [0.29756104683295725444;0.598278806964040899;0.15232294001934176819;0.26987559389091625439;-0.078760037151507589215;-1.5532548032288946427;-0.15207318091383323355;-0.24525041955582180253];
LW2_1 = [-0.35346648305082112307 0.17588873517668063284 0.18539565312778677475 0.019261661373112391044 0.15314913498825255544 0.0509160333694997011 -0.054209282952660288457 -0.10164165842135551576 -0.010670112997399869986 0.12233424050145465245 -0.90720331530908482343 -0.18339707826367060428 0.18250827658463883441 -0.17619698348902640417 -0.32791482916146252879 0.016621488430714762702 -0.039942636158137895253 -0.026776190350021975006 0.44554960084922917707 0.13113093419067209378;0.16385936792550973018 0.066937837046886189407 0.18731863404263382478 0.10014552844969032419 -0.27967670508933994977 0.22817060297376182132 0.0021554237732905358327 -0.17694355434414871242 -0.14579147286567228914 -0.28406085462396152286 -0.0065363710581311865178 -0.43843500090695858296 -0.2180062990390611577 -0.38450555225435023576 0.068514353641179803756 0.40973867152709292361 -0.15722462832186367976 -0.037502155964394059962 0.3301970825354725303 -0.13914488992926382638;0.22025685117123916523 -0.02684995109085756837 -0.11579734818653424078 0.0063029578205336077301 0.2945197383610529962 0.23577749649141327426 -0.28154849203257353851 0.17019591924210050737 0.10233491788431035852 0.2650995114088579574 0.21320663330242073386 -0.21703800550293880778 0.62046099115082786746 0.69711799733042656424 -0.16925902645523693835 0.070769499849424002957 0.069871193090928679359 0.044287846246615261703 0.0027579561149032533543 -0.23238358326358704575;-0.2536285493980763861 -0.028580806241087722969 -0.011733668358484656072 -0.045368781621074785737 -0.14067105040890698353 -0.25674762240401938218 0.060147655429543318839 0.023829578361072037418 0.15666293456026059161 0.15558578604953984814 0.18956852925719289149 0.051023923338985074927 0.070979849931009073027 0.13561184749967114538 -0.49713101675465276585 0.20573905382979384981 -0.10777317058527330351 0.40267883752393973662 -0.38703628912717774613 0.094416909798878720372;-0.0024632200909658510772 -0.14450596081806388327 0.27475437137535424492 -0.11802789419992809616 0.44130989271968895649 -0.24701038437150610316 -0.0056572672134989291509 0.59942521694608574823 0.11597781160754593033 0.18939434124480405974 -0.11706240526747167807 -0.032265329214376727018 0.19239468780044610696 -0.15764646687176983586 0.18382379270317569797 -0.21855995505955819191 -0.051372083289628882319 0.39532103883696095847 -0.10552477415250362258 0.20914318401748921428;-1.5755583860664850171 1.1064947744440460919 1.3307116048703422351 -0.19069256883281762716 1.703184346918532599 -0.95479181446943750533 1.7063277935416856224 -0.80193326586544322332 0.60676899726846245109 -0.8596390648550685798 -0.12319768890300751563 -0.024029267885719785697 -0.47679281116838495569 0.15376203370925939362 1.457511492327862701 1.5669999378069103813 1.1060271621647053131 1.2939910195675641269 0.18825566478693142591 0.99483450410253126961;0.070267040422059473537 -0.25268119080746215266 -0.19635887362568893444 -0.12756465268694655579 0.27142226707416627907 -0.24309469486820745043 0.027656347651176721447 -0.30299641820542083659 0.22546463904145511159 0.21058580384424574472 -0.048840412130122648482 0.14595280742729158097 0.43508822893539284005 0.34869209530426681365 0.032845013565797678834 -0.096480126676157559884 0.043779900450726862149 0.36895973642134394233 -0.014996007708139863154 0.075365391814000370907;0.12431212228731031155 -0.20439777000472328372 -0.2103150601656572638 -0.080319533911701393447 0.20009277381852613731 -0.17240500905454100855 0.046350889697083036411 -0.3705161507138614585 0.14796619483577425069 0.1674568953669959559 -0.14133793145328016339 0.28453955155278509714 0.16845178218058895481 0.33066784808573379539 0.047391019948248638838 -0.11642810827748190095 0.03760998300281169493 0.1673778976172001498 -0.04978989503551595891 -0.030785460535987199671];

% Layer 3
b3 = [-0.39789554378357538944;-0.37411223049530223372];
LW3_2 = [-1.0016455211940913372 -0.65301118976333438759 0.42103728902371073683 0.47267132643189690988 0.41305734653932968392 -1.116959517863601814 -0.30790739141084905173 -1.219492997195736006;-0.8296466786119491843 -0.46513019779629616313 0.36460938237997442268 0.45730052043004343343 0.56156735742483732121 -1.1327243044227244262 -0.82791644469717251553 -0.3345185829930114596];

% Output 1
y1_step1.ymin = -1;
y1_step1.gain = [2;2];
y1_step1.xoffset = [0;0];

% ===== SIMULATION ========

% Dimensions
Q = size(x1,2); % samples

% Input 1
xp1 = mapminmax_apply(x1,x1_step1);

% Layer 1
a1 = tansig_apply(repmat(b1,1,Q) + IW1_1*xp1);

% Layer 2
a2 = tansig_apply(repmat(b2,1,Q) + LW2_1*a1);

% Layer 3
a3 = repmat(b3,1,Q) + LW3_2*a2;

% Output 1
y1 = mapminmax_reverse(a3,y1_step1);
end

% ===== MODULE FUNCTIONS ========

% Map Minimum and Maximum Input Processing Function
function y = mapminmax_apply(x,settings)
  y = bsxfun(@minus,x,settings.xoffset);
  y = bsxfun(@times,y,settings.gain);
  y = bsxfun(@plus,y,settings.ymin);
end

% Sigmoid Symmetric Transfer Function
function a = tansig_apply(n,~)
  a = 2 ./ (1 + exp(-2*n)) - 1;
end

% Map Minimum and Maximum Output Reverse-Processing Function
function x = mapminmax_reverse(y,settings)
  x = bsxfun(@minus,y,settings.ymin);
  x = bsxfun(@rdivide,x,settings.gain);
  x = bsxfun(@plus,x,settings.xoffset);
end
