function [y1] = NN100(x1)
%NN100 neural network simulation function.
%
% Auto-generated by MATLAB, 12-Dec-2024 22:52:30.
% 
% [y1] = NN100(x1) takes these arguments:
%   x = 13xQ matrix, input #1
% and returns:
%   y = 2xQ matrix, output #1
% where Q is the number of samples.

%#ok<*RPMT0>

% ===== NEURAL NETWORK CONSTANTS =====

% Input 1
x1_step1.xoffset = [0;0;0;0;0;0;0;0;0;0;0;0;0];
x1_step1.gain = [1.9983901017535;1.99985128573779;1.99935308292293;1.99928908045321;1.99831803693636;1.99954088126316;1.99868324900565;1.99812758863997;1.99823445582404;1.99873434124079;1.99825777476512;1.99934643530087;1.99867784324401];
x1_step1.ymin = -1;

% Layer 1
b1 = [-0.29421905995779695786;0.048071737215111799701;0.033978533230666845;-0.44757710475880974066;-0.070346114003345380783;-0.27999045912030134931;-0.11014249574136451837;0.20807462177410288029;-0.11358376280602293373;-0.33331466313613383745;0.82400837174735153123;0.029867175037604960092;0.18361879314529397367;0.15361108846210250189;0.66247131416489823952;0.40714121202354353057;0.76369029942009014622;0.70982662819255681885;0.34575996824128096829;-0.049605399061372006109];
IW1_1 = [0.22506470645219733839 -0.24214088328440014353 0.50827597375954236547 -0.2028816526004037224 0.43140378253615352389 -0.072903696604498191558 -0.38209450650535276006 0.29525736447955824859 -0.12778400171378445638 -0.12730927102746816826 0.045095472358499207044 0.11956197912630867064 -0.0071864269746334660457;0.17571090697769478628 -0.1109849341355185065 0.18127659532182371915 -0.34809237348786159494 -0.24937871462967664549 -0.1316306685165761492 0.64333827758786732431 0.0083354608905344095005 0.036811375486136638235 -0.4326016021781108889 -0.040756822930809510908 -0.0065322387366707583556 -0.050238585020022256955;0.34525464861247384674 -0.19157536379265727167 -0.34829014363804489118 0.39008416469705703422 -0.094356122608682965747 -0.25391580409260905427 0.071220652715575344383 -0.41002493648808702176 0.097312985362876983086 -0.13379739450860772543 -0.21809942121432943085 -0.060736828141449934748 0.0099839982203594399013;-0.10703787506028074328 0.16106320253371253504 -0.39841590274078075851 0.055963193642740237388 0.1128673770083461203 -0.13963490612286139081 -0.050794607220490256561 -0.034413984607681150085 -0.038846238735228216798 -0.084891998305004989778 -0.14127394528593079093 0.037783482548267161016 0.017693626226033251636;0.11763824597899941171 0.44125634253533035922 0.36042177407361858377 -1.1018351413738043387 -0.28968089374153938031 0.082095615455415701933 0.48254950638865934387 -0.19539447442937024624 0.36681255338971791025 0.026604147099707781826 0.36440596208285580548 -0.085267349751799753621 0.033273255265633641664;-0.48116486006591929758 -0.28405030201125169853 0.12680367148934884591 0.16593024310529769227 0.32783429988327361659 0.33831737006805012724 -0.62703610511997398547 -0.11208390455314841405 -0.022714577773444551145 0.43119361296111863302 0.064144533758138944091 0.0020017944754515894397 0.058184305266720366678;-0.38664806120312189552 0.034225723847994923843 0.10085234342124028972 -0.21233769979378749881 -0.53475729282521622387 -0.022045379268640009907 0.43875255411680236239 0.10409463442278428513 0.082331455756995630679 0.12082694797882372051 -0.042708344551030827385 -0.10500207001603791002 -0.0021503680697117924861;-0.07425024865939774954 -0.055599798659744910367 0.54525989105010486124 0.064970855917036093863 0.23661104951548125874 -0.10732926848373137985 0.12869760689206166671 0.0939653667731450426 0.085055008000029436177 -0.45306788580270185296 0.32229011867995654983 -0.35527759951340093236 -0.75846906964202132073;-2.0013980925264216459 -0.3320883080057973058 0.31429155345087506079 1.9619704826899311279 0.0068001444636135825739 0.051844971748695838076 -0.13343583381390722309 0.27171237965182798435 -0.013881337710978850983 0.062278181619028941118 -0.003534709625566755109 -0.034491409588825086563 -0.076857365209007988405;0.033880875952751257629 0.1993815814299975675 0.50809993614301296461 0.1254049302659303311 -0.19135165807505483127 0.088436829881534811948 -0.36057522297272570633 0.3448599181784557377 -0.24101923840424074874 0.1994009145527803617 -0.30562252053987987166 0.35473294602889710037 0.18406921312931512347;0.21764598510499194584 -0.57132578362279240469 -0.54258802317477650146 0.21726700081294281208 0.2333563458704431548 0.6932265979885338103 -0.34115797154871180252 -1.4961263996272509136 0.19512337982034339001 0.21202370277656881759 0.13624021496225682815 -0.012418198339838353722 0.016311365628324817068;0.25854289370990629626 -0.19593768466730268618 0.2688454778535971923 -0.44810745536774154729 0.12866468635440589385 0.42950213022003724816 -0.37574887627837910697 -0.94218805618051082451 -0.12611423826661419256 0.50869154839343966312 -0.023854444706516559488 0.1395198792445576097 0.079967504873286382461;0.095205708290995103016 0.47597124846684424337 -0.099798451568275825529 0.257086744847951576 0.55130665106820397892 0.080064010385533040948 0.46557893041322911953 -0.18735824229430839138 0.24154370268349256712 -0.30191114662675139213 0.14052837546051058504 -0.47716079587356213798 -0.29964580322427342152;-0.18788537912419583931 0.89848615852729940556 -0.37076862834762053245 -0.47848296310775273454 -0.26707970350789828062 -1.1648450155491067992 -0.0088954870114753368388 -0.20688585898297842669 -0.49801620566899695852 -0.48281582645396353692 -0.295956127227093857 -0.23583132512009447046 -0.026360261725713256264;-0.13666899145188377007 0.66317365056358512643 -0.0013293784501986725954 0.5885923270086013126 0.31308272849961354956 -0.50917429678555925499 0.30539232904392660251 -0.7411514220481660864 0.15381369441354247884 -0.37512908667838612553 0.32769778656843839837 0.45780794342997216395 0.24490492592120113868;0.10376925368363902613 -0.01864092369362029683 -0.30879884994105133433 0.33265049516233691218 0.16311139350960540684 -0.20102210282015112175 0.22097780754545204296 0.69385425349434104447 0.09020941159521525532 -0.5698217481499308068 -0.13862408655543712044 -0.026649213304296599791 -0.0228533576880165408;-0.58073253253605827684 0.16551166028370420391 -0.15205360877981630163 0.13961147726279976578 0.17535234861008017204 -0.11542838682358100288 -0.56315684490987272248 -0.055458560872113968343 -0.091356532879897645039 0.12676029787650561209 0.064664443635172777491 0.039821226483079216751 0.062082460519972675062;0.087001044218658910023 0.7534003389957683039 -0.22342256594082193777 0.39209040056592681101 -1.0852609314183105926 -0.51731675284739719878 1.440138713741003551 -0.37134838160014610464 0.080193409365868675853 -0.75608213545380875686 -0.024483059462881606033 0.0086981916785610294968 -0.19470257122786771564;-0.22811716360428160866 0.40891078280828480063 -0.16800604292569912279 -0.39244276045354309357 0.23787490006211955973 -0.27702192444730006082 -0.01313531456606357832 -0.70829455088511750205 -0.12682489354424128503 -0.055296151394380745059 0.43396301282063176608 -0.040009773111017749025 -0.15596133479460730364;-1.0135206701546244368 -0.48352443869417516265 1.740877578696953476 -0.85311228082632528658 0.34313908539008475262 -0.045801224027183874699 -0.07237470774543756924 -0.20131740016874749566 0.091627329051439346252 -0.56002446624778323692 -0.32824826592286576732 -0.029600652742834413639 0.065913492826412803383];

% Layer 2
b2 = [1.100247466490289483;0.29553036817685551796;-0.49330980747197167302;0.19111018683409142227;0.008052264868594193048;0.020491800768121841425;-0.26223614593545724327;-0.23541346166284410346];
LW2_1 = [-0.25958287826802062259 -0.3418282652465701732 0.26142258543162044671 -0.34965013028596458877 -1.5253253943253970437 0.26095386322867963891 -0.80281154452648040287 -0.42705802207966048201 -1.5560989934952063063 -0.60932017696653406613 1.9198843472150017853 -1.0867064171314655407 0.53506905643257318683 0.660038151775338644 0.70116553341727472226 0.58645556792349473607 0.69436866229051119603 1.6651564587314968691 -0.77025992054188208158 -2.0712417291436366895;-0.12457012729056912703 0.29286937839708160336 0.29192503008925874131 -0.39025009380554076532 -0.057357597196415074925 -0.212418771672959944 -0.12151822956037029722 -0.0096931962093382041667 0.1225185237770279878 -0.085563004425693436894 -0.20849126031463630082 -0.10395282439273481612 -0.029638685244098645494 -0.17682892350894791056 0.097968219813007129115 -0.29628063243791735726 -0.14408629199646480479 -0.19541976667226867992 0.024986943572726995344 -0.12210167997244851523;0.1515477863601089048 0.01646742394563088796 -0.15813712002332530604 0.26177360271358157684 0.32093258728423018633 -0.010230205454014144884 -0.34318854996214959163 -0.013847622681097022934 0.38370686021173072699 0.047208073552184211252 -0.018881262824990370508 -0.48217056845810890575 0.065176747056629708021 -0.37029512052766333507 0.077402583236652805487 -0.13228003273964297759 -0.077697915595010685896 -0.10584720765928964936 0.42507760070068123515 0.37858021621957982372;-0.073945879711126358269 -0.25565760996393782634 0.016811436951069499979 -0.04242023619015675151 0.012634721389723215304 -0.16327843451396059637 0.093168614716059486303 0.16332264976392441014 0.19935351540051654551 0.38359350814426690368 0.49752523262397169157 0.003289084535997162731 -0.037952525138938097982 -0.0870304070455483747 -0.077773999887144215637 -0.59078678889009861308 0.15126812301052128262 -0.60095648992588823756 0.33221723876040692991 0.58739361552652635812;0.33535803205739211919 0.0028057389883179421376 0.23118882762120734897 0.15459125155220351799 0.072885733330006391428 0.60194317641380079564 0.46724122863513567472 -0.12791086387730934981 -0.12422795082217077955 0.1018384442985437871 0.1643640803513904125 0.1528648961311765142 0.030556912788513506535 0.13918079711801353837 0.062756657174495522611 0.080686035521975951745 -0.054440104615373068053 0.32210865042805675307 0.23686616525965087376 -0.020176333318338231931;0.29293481931018139353 0.13568855617746508613 -0.18646917979663546472 0.51458015661648293104 0.13860081220848849415 0.28384852120913461881 0.2161306048945291769 0.28808581488235379675 0.04325839551647175929 0.36053529391160732409 0.35725625178953590577 -0.13911241750580558008 0.0057130630975601092922 0.19617625310156536211 -0.22078928088279897723 0.22091559989393980135 0.40536633785298464838 -0.3283660874635511151 -0.10605151159264770977 0.26468137320945850366;-0.0029334611519660647866 -0.43256081821025538225 0.13656831915056311111 -0.21026297306341343307 0.064590302277766187267 -0.1240345904520385456 -0.24918737175710517495 0.10955557978447691414 -0.013008038789121488185 0.20469403616719053507 -0.012388511301750997073 -0.21678612077756670429 0.026360696924792322016 0.083935682481299664359 -0.10155635395111010932 -0.1984278912076336554 -0.23319448337121406745 -0.044953701580507404723 -0.11216057281700676784 0.13815428425781403621;0.067068208013443750271 -0.016087619306772910077 0.17323856586862948492 -0.053866484596838078158 0.15178832931363711589 -0.39672152423365425467 -0.11987138170024599915 -0.13792779764036169898 -0.18814604867086526241 0.20659782926537431647 0.31854692615059354566 0.14930560257899630483 -0.013134089636044749688 0.27469618464718059681 -0.061230372272444391624 0.15992084322526134432 -0.29928193748716758193 0.060615645362773952487 0.22150094224889363415 -0.12473340381236935892];

% Layer 3
b3 = [-0.73387915117477653393;-0.71139928057236878622];
LW3_2 = [1.146731475369137998 -0.069087500864399728484 -0.12761334945325442103 0.30393227284810464539 -1.1600276444267831888 -0.66281728097200687255 0.83391632784831803971 0.6396400404178372856;1.0956213000273904434 0.48577140490754244784 -0.15107648189248684689 0.17626880991945084731 -0.75196842999935875618 -0.29674635323840420353 0.68368878304410218849 0.5889931596220308041];

% Output 1
y1_step1.ymin = -1;
y1_step1.gain = [2;2];
y1_step1.xoffset = [0;0];

% ===== SIMULATION ========

% Dimensions
Q = size(x1,2); % samples

% Input 1
xp1 = mapminmax_apply(x1,x1_step1);

% Layer 1
a1 = tansig_apply(repmat(b1,1,Q) + IW1_1*xp1);

% Layer 2
a2 = tansig_apply(repmat(b2,1,Q) + LW2_1*a1);

% Layer 3
a3 = repmat(b3,1,Q) + LW3_2*a2;

% Output 1
y1 = mapminmax_reverse(a3,y1_step1);
end

% ===== MODULE FUNCTIONS ========

% Map Minimum and Maximum Input Processing Function
function y = mapminmax_apply(x,settings)
  y = bsxfun(@minus,x,settings.xoffset);
  y = bsxfun(@times,y,settings.gain);
  y = bsxfun(@plus,y,settings.ymin);
end

% Sigmoid Symmetric Transfer Function
function a = tansig_apply(n,~)
  a = 2 ./ (1 + exp(-2*n)) - 1;
end

% Map Minimum and Maximum Output Reverse-Processing Function
function x = mapminmax_reverse(y,settings)
  x = bsxfun(@minus,y,settings.ymin);
  x = bsxfun(@rdivide,x,settings.gain);
  x = bsxfun(@plus,x,settings.xoffset);
end
