function [y1] = NN13(x1)
%NN13 neural network simulation function.
%
% Auto-generated by MATLAB, 12-Dec-2024 22:52:27.
% 
% [y1] = NN13(x1) takes these arguments:
%   x = 13xQ matrix, input #1
% and returns:
%   y = 2xQ matrix, output #1
% where Q is the number of samples.

%#ok<*RPMT0>

% ===== NEURAL NETWORK CONSTANTS =====

% Input 1
x1_step1.xoffset = [0;0;0;0;0;0;0;0;0;0;0;0;0];
x1_step1.gain = [1.99953266851387;1.99845268908387;1.99917053242331;1.99888497074855;1.99850628464234;1.99804525173324;2;1.99834102450603;1.99905497567801;1.99855859390146;1.9982296081192;1.9999745329549;1.99929148488332];
x1_step1.ymin = -1;

% Layer 1
b1 = [0.11127807027741856705;0.37953687923165280171;-0.35344285717000695213;-0.15401315323545058944;-0.84911329202575924757;-0.091222012089967732806;-0.64977840960004895621;0.091063799810875464824;-0.46847337231779756506;0.11439508318303186207;-0.10921301824330403862;-0.56068336349784475559;-0.14552957075627184769;-1.306405703258562534;-0.33876847346284327811;-0.34680449829059373235;-0.9620474452077512062;-0.15129507405204095649;-0.22374286049759528616;1.5386720936317985764];
IW1_1 = [0.54664702804395337576 0.42498918337281010871 -0.51438244370889574242 0.099582568129150603187 -0.28861052842817747077 -0.36916998338159623394 0.66330822531685074139 1.8265863770589738646 -0.09388535858060509387 -0.29752569234606535131 -0.13475566273970202014 -0.030029083507799207015 -0.055875670152226775134;0.73394551362762994184 -0.062423312779262100924 0.058800218893494834993 -1.281172171776287394 0.099421611969563852829 0.1887934157913136457 -0.11408101330149686414 0.092826128485081496611 -0.16468130394775346015 -0.038490419329606007093 0.16884115031509716598 -0.28233302714331554029 -0.13691320603876505624;0.46258444954094357637 -0.53865729651774107989 -0.80316741160015669987 -0.34786489190934521964 0.18356661269766749722 0.40392031627162600094 -0.1998846755273397946 -0.55208875630330966899 0.1262975241097660517 -0.022093392793839611993 0.23332737205455197915 -0.08039872075055583267 -0.20573005133274077649;-0.37659670600722205958 -0.43071508158897398033 0.35444813391278734427 -0.12963256517172946913 0.32368471595087500159 0.037711978613363568436 -0.4249940613366832709 -0.266084127212782795 0.016966942767663400343 -0.24222954046572883757 0.019629720647215805063 -0.021560330354787944629 -0.076818950340624761464;0.19085359896834108717 -0.18061923184405567766 0.34871852675282666301 -0.22905945993787077408 -0.030317639203659069169 0.23895024077481866187 0.094751222601555426528 0.12540731254727990884 0.12191405536374745611 -0.092071074901602031892 -0.11294776156347584306 0.076486242043133229052 -0.090387207839348227001;0.2063757582227324916 -0.75842827550806879433 0.55741019210147924046 -0.21678855784135547813 1.5263027656844845303 0.66505269910769715391 -2.0117804190885069104 0.66711173574614324178 0.14913944839670700837 0.74676111022695901287 -0.07281020554837862313 0.26439264961143132959 0.054228382669502868396;-0.43118038849883666419 -1.1605598788208417727 0.18848822179595806081 -0.13415311819509712077 0.60563953738554954231 0.38817484238114013939 -0.21951194096126661059 0.01833898232927969052 -0.046363045220147142134 0.10774148393565750881 -0.43186901188822868214 0.10968782481737690548 0.22353869800280459779;0.64201827202695116448 0.13282597235226278887 0.16932122761817072765 -0.690989719831536231 -0.007244044819857099575 -0.018899546365594422498 0.15445213883131134192 -0.32666761029322688437 -0.0109551245887955645 -0.083939336822494992063 0.023699630023123322009 0.043732474522924627558 -0.0010409698495245469415;-0.3009488378012278309 -0.48025770202351431015 -1.1376067936397824543 2.0632053713150964036 0.20916829293713032345 0.13346605196681893268 -0.17907489972126861 -0.3296621466135801759 -0.088554626219195825554 -0.065168083380364477675 -0.07191957872904217175 -0.011701029958342651707 -0.05083091089551212971;0.13615792578791369172 1.1198706927618289342 -0.47770453623999792336 -0.044964714434570077217 -0.82152089708830344783 0.37340588325908380396 0.2816527876190161872 -0.91194815622650882148 -0.13677960450164000639 0.78385642891407247834 0.72659235741988892343 -0.037234514549107915193 0.039947968449532134105;-0.11200084787300279565 -0.003116200978526505877 -0.088800848169981905222 0.42076986803969740336 -0.11714774665262919773 -0.079895983451316460178 0.025395910653454711187 0.12197782424622992392 -0.019254921451712318087 -0.024939006331569982949 0.00035454290275438102298 -0.056267682885699311923 -0.023944376782507638401;0.36314164987897618042 -0.12800609366893325736 -0.42868765788083873503 0.60391107074915650887 0.46949423317523819588 0.18024573617908587475 -0.62830803180718464152 0.4081926317620542255 0.10418308497170108984 0.10519900282903221767 -0.024456865696007620836 0.015968093317885640597 -0.00036159029938563332172;-1.3547875014594679133 0.30340950220713408525 0.92700201313222374555 0.35319620520611494374 -0.14873041813379664355 0.15431569765548616702 0.42936483123841739928 0.14852095858930530747 0.063898910961067853509 0.044075500595446653884 0.41646361646468410544 0.030939117405594466353 -0.16635971049491055096;-0.11872996416352804561 -1.316242266703029129 0.102407010097854273 -0.46262597453261172786 0.083665786362319222169 0.12244612238198775145 0.47516252493709948412 1.5251644668796975335 0.01909257377190521146 -0.10660571766715269681 -0.27010001279706508104 -0.06118515195636740206 0.14139031487815120758;0.14204386281405248504 0.42571082448787067598 -0.10570284246299573028 -0.53078675195266900033 0.19244831278472035452 0.66185757012471435612 -0.59252412265762111065 0.045574935568270205644 -0.034988346542897716396 0.35439756679043477039 -0.073939581811284918467 0.1141349515930729086 0.066406840656359877872;0.63140749648037686192 1.3694976831507281734 -0.35742208934524721808 0.14434835960708689018 -0.60599576146851275027 -0.49687586049171306168 0.74744225902672423167 0.19262057556927572599 0.09864246161155713899 -0.53020825047744513103 0.11413572208377645301 -0.0098981176170253801216 -0.045255903196929916921;-0.86037854899706533995 -0.018648507793287256995 0.16620316226109668745 -0.076523772350475055548 0.27425397370454945856 -0.087090344475778583289 0.013921460950757785086 -0.61864848184636733741 0.030376274775772843517 -0.44983163065196402064 -0.35034131722220662741 -0.040222459968791181295 0.061890185159326219222;-0.4413469916779821367 -0.82835045760507330925 0.19794630970911050727 -0.073406215150394610314 0.029220427720076443123 -0.0019381076550026412122 0.65632540838862274413 -0.82119625068283963465 0.0067788465401266090674 -0.68400664425864188267 -0.18464894731702474751 -0.080050228803456607851 0.13562664937829110867;-0.16370237410520230292 -0.34023621148152038973 -0.25927441438560977494 0.27896510400304286303 -0.0031932731805981457579 1.0498830899801390171 -0.36171071675950428048 -0.41449179265325891697 0.30896134686925441626 -0.22260522983352837301 -0.092857816341814156114 -0.50394953150487131754 0.21326296333739075406;1.3456344020870403266 0.71861601941900343782 -1.3236765801731666947 0.34526919063184657865 -0.18931643869707498462 -0.3030663058066870863 0.85395557800363830481 -0.83583417843452245677 0.1567988765709090182 -0.71360042854836269743 0.011207301006767502599 0.088757710314002299934 -0.040501747429996522165];

% Layer 2
b2 = [-0.23569785141710253296;-0.074237083385157817683;0.19711276865041546524;-0.042927598142353126653;0.30562328536972488413;-1.0341210745327773513;-0.20531741319709420623;-0.0235094199139877294];
LW2_1 = [-0.15831122560748217554 -0.092183903796108690454 0.19547557085245911845 -0.0056500184949191071399 0.047745556262007556036 -0.18147755780552585203 0.12964835491617074381 -0.50510038638254606269 0.52564642200859701404 -0.49447133803059584167 -0.06289102559279532989 0.21882695322227177503 0.21406746896597958485 0.11761091880233358331 0.40338216601018378471 0.089246239332363586083 0.055493937308241231277 0.49557159642464848615 0.43770872017091672079 -0.093719894261938455071;-0.053495145086785773902 0.14049907794721733234 -0.51716289294280959332 0.11021852142863110269 0.62830336709487710767 0.10635586039370224787 -0.24449680187033029366 -0.31138528957975353251 -0.60542654868644607546 0.2637061973970488693 0.30459313244330421533 -0.37333401143031974545 0.046512936130341908658 0.081492336271013321447 0.014862086263636772182 -0.83161210588999934235 0.54287558352993714461 0.014199127708952584762 0.00029885962660310062995 0.30562679843423185;-0.14161337734907819552 0.07643727588159011932 -0.14355195732084244375 0.95437576334817308954 0.018790818675087920392 0.71382933374398183091 0.36163446603518945022 0.31246178016713188619 0.049044543872732659917 0.26137222125776687909 0.80871114211769057345 -0.31661109252287095162 0.27193532330808328767 0.032617753300524396365 -0.062958320918233445784 0.69985462052334079797 -0.80500842575411835078 0.41771168561860738677 0.037392603708749222458 -0.02564876567454556569;-0.018054512573961012389 0.16162341675613250969 -0.076744182078877190567 0.54632630821504701846 -0.09313164095630663275 0.24968911382744124472 0.079379382850612564826 -0.43574530615126894073 -0.27268709398291113288 -0.21227823527032721462 0.1817030962167917596 -0.0070430138932807261759 0.24758404574571224455 0.05046661053925586421 0.19994022370710584635 0.020590158411470216304 0.59150303305693918698 0.050772626157616206066 -0.073674570550195619956 0.94260173618639819804;0.10360661340534649266 -0.12282909066586854274 0.46334055949519387108 0.31579364432868584078 0.29895184429329568765 -0.15713450034470424765 0.24238972897527891193 0.19095138490090099448 -0.082714287749649964554 -0.36525283222565829711 0.64888525211485292843 0.37423001127253907594 -0.2426129847301071174 -0.038220921045569372643 -0.21880418808887230897 0.014032510178767113734 -0.18672149727616102477 -0.10980104442325105962 -0.18185638991764790928 0.48720532437678987225;-2.0080665692921866317 0.86731334991867370388 -1.0281628229033885624 -0.19580701057467234105 0.31304164250483162979 0.81275914833564966155 -1.2780564376198315646 -0.61721753204182128183 -1.5254456931962778743 -1.0209018002849257201 0.22963551899209230789 -0.4567540944241072487 1.6002340281780809139 1.0792376888047470196 0.92409076257945743649 0.7970622937341214076 1.2376059704253696836 1.5116526369015625963 -0.32584244583174021281 -1.8683708223434354334;0.020442170655610276964 0.091423002359732247202 -0.098010242323516044705 -0.6033958899712762447 0.059089094111681964017 0.057355294266709405671 -0.27780469273531277485 0.54108263412108859036 -0.097565914962622041218 -0.09829630058940655446 0.80294311780009275381 0.12881547539516524647 -0.061260517895116946285 -0.04140878886555066779 0.062986050227255049871 -0.70223412257752915178 0.61388153430573666469 -0.12337686606052956917 0.0014507328711783101967 0.30168299197120845845;-0.054402907201413212845 -0.082010304867846439691 -0.25025057989544230441 0.19480066313466529171 0.2738098759333820742 -0.38148596002897844359 -0.022465734287884373682 0.20638524748835604394 -0.21186932046031428656 0.17506943936324695366 0.31603998214282413848 0.35037024550817313928 0.1349027464117120434 0.37279399151670949975 0.21739308668503759536 0.34434243891581334251 -0.22904769677668718186 0.15080934244193522353 -0.075629435126485122787 -0.032393184628332988284];

% Layer 3
b3 = [-0.65668754316743538357;-0.59356821279208338282];
LW3_2 = [0.019688030368423675709 -0.46622740096238401986 0.51043063351328354926 -0.29059943458015052853 0.11125281594984305633 -1.1503150722167618802 1.2186289528151654782 0.57719510051423572605;0.020883004551798409199 -0.25916326080286755662 0.4809236963218175287 -0.37415792395143049331 0.24681999779595736877 -1.1177715024234817776 1.0002256131746192214 0.5306453836054297879];

% Output 1
y1_step1.ymin = -1;
y1_step1.gain = [2;2];
y1_step1.xoffset = [0;0];

% ===== SIMULATION ========

% Dimensions
Q = size(x1,2); % samples

% Input 1
xp1 = mapminmax_apply(x1,x1_step1);

% Layer 1
a1 = tansig_apply(repmat(b1,1,Q) + IW1_1*xp1);

% Layer 2
a2 = tansig_apply(repmat(b2,1,Q) + LW2_1*a1);

% Layer 3
a3 = repmat(b3,1,Q) + LW3_2*a2;

% Output 1
y1 = mapminmax_reverse(a3,y1_step1);
end

% ===== MODULE FUNCTIONS ========

% Map Minimum and Maximum Input Processing Function
function y = mapminmax_apply(x,settings)
  y = bsxfun(@minus,x,settings.xoffset);
  y = bsxfun(@times,y,settings.gain);
  y = bsxfun(@plus,y,settings.ymin);
end

% Sigmoid Symmetric Transfer Function
function a = tansig_apply(n,~)
  a = 2 ./ (1 + exp(-2*n)) - 1;
end

% Map Minimum and Maximum Output Reverse-Processing Function
function x = mapminmax_reverse(y,settings)
  x = bsxfun(@minus,y,settings.ymin);
  x = bsxfun(@rdivide,x,settings.gain);
  x = bsxfun(@plus,x,settings.xoffset);
end
