function [y1] = NN19(x1)
%NN19 neural network simulation function.
%
% Auto-generated by MATLAB, 12-Dec-2024 22:52:27.
% 
% [y1] = NN19(x1) takes these arguments:
%   x = 13xQ matrix, input #1
% and returns:
%   y = 2xQ matrix, output #1
% where Q is the number of samples.

%#ok<*RPMT0>

% ===== NEURAL NETWORK CONSTANTS =====

% Input 1
x1_step1.xoffset = [0;0;0;0;0;0;0;0;0;0;0;0;0];
x1_step1.gain = [1.99933339578637;1.99935722297316;1.99873614379145;1.99916327253521;1.99810111957412;1.99822123569082;1.99959729508633;1.99852509744436;1.99952690167044;1.99812347998324;1.998056877012;1.99887143734354;1.9992306161371];
x1_step1.ymin = -1;

% Layer 1
b1 = [-0.21256319436771237141;-0.011867235080657336996;0.34711955853127002269;-0.7221171325106028327;0.34843173160913920583;-0.23287934322053971403;0.51057614602467205067;0.14442426395776883363;0.4083266615983487946;0.37495478718058344869;0.48540599298497533187;0.33675451679766582602;0.20428845556959496221;-1.7864314217504722038;-0.015824775546939291726;-0.44426463191392984164;0.30178721588816542765;-0.30888645856330576578;0.35347509888952494128;-0.33775575799749613104];
IW1_1 = [0.14560442938504561394 -0.14382922525141539349 -0.2185525776831193645 0.0087748833092123439126 0.27462501813823442243 0.29749138300991795347 -0.39133568255797385183 -0.20092928017866865109 0.014199371433357720063 0.23005666105968039514 -0.12998374169626014663 -0.060362168926889017695 0.043386137600082051724;0.01691214809773170652 0.22797453355405308817 -0.25064173570293046822 0.158453640842174448 0.43925728328250546184 0.083050120249643949455 -0.28744264691584525684 0.12864583958459510638 -0.13448851611998202671 0.0056157098211666745674 0.11208097637721806117 -0.07534058014366147582 0.14423890826330351689;-0.24343873947830640958 -0.31594045611362941983 -0.010886884030216578689 -0.039298244281237668107 -0.10324840643295582487 -0.27697242829211010662 0.33435396478023926559 0.12178480307972026908 0.085713752128354289694 -0.39647577361392855044 0.057954512032020087664 -0.0062148902488731970484 -0.16238025914289339058;-0.42046303713734012319 -0.33257474763850425337 0.0086497853947456564139 -0.37559829709739112058 0.38873583037988201916 -0.16401001995319122728 -0.1205337800103692264 -0.10867540512824500065 0.078259795775663956729 -0.61579891346706772115 -0.14472994686079154736 -0.12684399300492929519 -0.1414418265280731335;-0.47870544763801786692 0.0027114272107268610687 0.1327739832348174831 0.34408679021251803443 0.33025229407622314071 -0.0411586768144512824 -0.46119487170008299781 0.33710103456390716481 -0.042046649792839903281 0.097464089574838611019 0.17180256095304205499 0.14238793481684838826 0.039456034781330716343;-0.76330179786350382809 -0.25831091619803658865 1.5602234142043807097 0.79855703197975502761 0.95178108199543487444 0.17052930010075204037 -0.62650858531188757805 -0.086863403336149697109 0.34311520573592091399 -0.47404071035281969415 0.91214582898038254477 0.097896151025117741917 -0.2112232858744517161;-0.27493005601638825786 0.16322020994803018712 -0.067936813885186922435 -0.079598028961854111474 -0.086842024711525772629 0.15770844311660003889 -0.72738811688767790464 -1.1131733709296767199 -0.11674167905569245163 0.79750197247001652912 0.12387512031483285946 -0.013949712457903303345 0.00085064537265318448597;0.037966147933932214986 -0.043474838694533689265 -0.19376642801748000799 0.5094812107314129479 0.24900498011893196226 0.04861536878750646884 -0.19705162824015609591 -0.13285046154007143504 -0.011856320792973858505 -0.051717279524415300795 -0.0058354764547961278723 0.042733760924774426282 -0.033661480973901772296;-0.24304335518618352951 0.50141389891917942379 0.44718376858490421766 -0.081754949068900004128 -0.3731356857356290524 -0.23855675559925951235 0.360384106025485762 -0.21459393747216373716 0.050525038552386818125 -0.23400183167486712787 -0.031603161686184939871 0.042192707053786068783 -0.074524162786608047493;-0.45347788523278981243 0.59086157448918508184 -0.22151998311081666504 0.80022899741012565311 -0.44393600138320443715 -0.45858934279219915053 1.1593461168771763692 1.0976234961646027521 0.042870348079656325768 -0.99166666914046064374 -0.076483227464108766158 -0.11831083364646825806 -0.060672528666109934448;0.70868370909707711913 0.39946258916664090233 -0.35679573364917760436 0.80154985575839499123 0.096571278183626096947 0.001795185820050066404 -0.15119423679637422619 -0.32725242264843340534 0.96015607703892813518 -0.26626472623349251023 0.35162843418480099755 0.44257423810312279677 -0.26470384008914893403;0.21337071131257628887 -0.40593554703180345644 -0.13834331775902838912 0.2115027930077921503 -0.27177590005178192678 0.437514382978623384 0.13871680355768647996 -0.66080409022007979836 0.24248045067583964829 0.069016715964969180264 0.02521407700311686928 -0.41874561900558887606 0.23304501242793934646;0.40335211749859017916 -0.30170315293245847377 0.10116929013764069945 -0.38770309412058012732 0.4169409439827465591 0.89816162542745747732 0.57325668580180155764 0.59017521803809813719 0.44800660424658705905 -0.13492137262859968394 0.32620273950430095367 0.045846431484756464125 0.040861605311424825659;-0.95134077049704501849 -0.94627013660685044272 0.73411377431075208744 -0.18711414230308576201 0.5141676447490531876 0.56235983126386168696 -1.180283314624258173 1.3234113154971769433 -0.051608652506806240723 0.87927011013729072797 0.0056181471984558207719 -0.12200074890246223602 0.07094351768183111695;-0.46822658425800317561 0.32278128524111776576 1.1950902238018430435 -1.6289054993533251814 -0.50243116205810856023 -0.17944230532115726384 0.13559349710611809381 0.12962465506706463692 0.011246009954252421392 0.23890664062251973365 -0.22190276154213847692 -0.16602259025871615727 0.053500587155354502322;-0.32592174878548196837 -0.43043974466476453422 -0.39038371560920825942 -0.35322767712828567754 0.11922606660524225075 0.10918992175078527651 -0.31094959895952795081 -0.061480491750018240182 -0.21482166873609734314 0.37843882768927317173 -0.37812704385732676116 0.12596730195397992658 0.00037195649399198024362;0.48664770054107214792 0.76428247088852174773 -0.97516665253387924128 0.75994552730560549492 -0.52165572941315008215 -0.49783631185245935669 0.15571926692304177697 1.7309546803191337982 -0.16469686576401898481 0.23543311972784292108 0.32041652707537343625 -0.14007847554687141711 -0.030590099700245884651;-0.39538188804443036295 0.26954858662107039624 0.46869888233296352897 -0.11395224613826199223 -0.20499869597763029083 -0.22235971140275886948 0.29818302043323358097 -0.081163688687022866874 0.0099678011734274443723 -0.30028728547939892435 0.14533406385541575156 0.0046546663102001485657 -0.0023342803395665812256;-0.37666866968129075754 -0.32292549619793187166 -0.15214724221814046601 0.23713404216900418886 0.38351352173098240961 0.19524944674842059644 -0.41629704620795232595 -0.019029314597721391777 -0.054880839289153882099 0.21281129162818893108 0.012714116087785276576 0.023589692491469173297 0.0061990889952865703416;1.4628689786152968555 -0.12497813927377937615 -0.2949333881246412048 -1.707037502086344416 0.25026153542407747477 0.13864647062387669418 -0.3539521673768466492 -0.20726708036025315307 -0.023498312774341684889 0.090858133488433273639 -0.32348146178675896145 -0.002531155117774029021 0.025755060363722045297];

% Layer 2
b2 = [-0.13887483167383538052;0.086461558462093440758;0.15906869939561335547;0.48327442780541118861;0.10909314166679491553;0.49001002083905748075;-0.64750321582146908028;-0.14332824822670328646];
LW2_1 = [0.46010983110822739617 0.26950436181353215614 0.053480420605656435462 -0.20545710911613296323 0.19740148301870530378 -0.12114835517774859286 -0.18752719052416458312 -0.012746659867573466654 0.30522463834721746956 -0.037439587684227337849 0.17016431534665993341 0.28796485820331962913 -0.11765355657935777645 -0.31839543497534444905 -0.27209221329969751624 0.34652008831320146864 -0.18316944138271015752 -0.2307451130219862756 0.389416514740559494 -0.092182231710932441282;0.19196593737608019792 -0.37001970809945405883 -0.089473502908188187743 -0.027363352740564738513 -0.26083114875678065081 -0.21680135911346806732 0.007038472604596478395 -0.87290056657767134407 -0.08804810245949903913 -0.012497789189497909151 -0.031715524195267068286 -0.13391906412132786874 0.084614207351774495258 -0.38193989725959170967 -0.059181491050592241465 -0.10827175229498897657 0.25516703166086229793 0.47684996753918534873 0.37634725503853050377 -0.19545423130214514829;-0.12155336072909414535 0.13809906819330697303 -0.063674384753712051643 -0.36531745304969909238 -0.30045273159138624619 -0.34208595104746675197 -0.18675189515319748357 0.5951136151504803351 -0.6468738607619309855 -0.16244398740794258051 0.28711684012082572259 0.13438126955084517267 -0.28599515928936070086 -0.71913959338492272622 -0.40391202611276866286 0.1590616750937001167 0.024199536529734354262 0.19719931237383966915 -0.13740434193031436649 0.21382654949243440345;0.050726611354063276538 0.14665698560948095541 0.45634406278653855127 0.35501377140425449674 -0.31523227150607568969 -0.45605172354172268667 -0.02327661594619024471 -0.12929327103926979703 -0.57631317464634634895 -0.19648212162155800908 0.26359822837868523981 -0.65137886680534884398 -0.27109179031966507134 -0.46819536230210739847 -0.58908923806370994125 0.78626303339265546377 0.11382385758019561428 -0.63146803867464063043 0.080820877095300655557 0.23229340618884328218;0.29532063497469174251 0.30988235509282879843 -0.0067468744429319497252 -0.33728428960934370151 -0.222118732657829554 -0.30353317097733861774 -0.10913667636793798754 -0.37247398045633611785 0.052213949488402223997 -0.15842415847213525693 0.18128024258340399988 -0.039641910355313947356 -0.16741940975676170011 -0.52147753298444798897 -0.57245941889838647398 -0.04937040109752594691 0.024383347826481931164 0.18315766206218520029 -0.14415031386992910312 0.20629124349637317781;0.46624002912010470423 0.41576144912035251089 0.098374066888256006536 -0.14505170225414334984 0.64089711557645590023 0.58281094972212310612 -0.22933358218827920583 0.0613933129807096023 -0.1594191319105496274 -0.20707859570758296863 -0.053887020886129059771 -0.092333416851818062021 -0.20156792061124287341 0.80207034185862835507 -0.090194811124628196386 0.23566034322242096488 -0.79252683327074435748 0.29917226741307956228 -0.30200267028398486424 0.16388965343597364233;-0.090964350619487877037 -0.21994169195962798291 -0.15972330904135498275 0.63982851052184341878 0.17349943031907397173 0.74904627212310137541 -1.3069281313954463908 -0.41398250374564021792 0.83780699241637424102 -1.169367512834099454 -0.64599749453729249371 -0.83749190280454166579 0.78255721772955066928 2.2295420610206653222 2.1707007990145790188 -0.089386340987531537339 -2.3003661276095099808 0.84100664771641231443 -0.3530111487313773444 -1.7097255582240995508;-0.13420724136837744456 -0.40249752148921713601 -0.39400124357685401 -0.32110394176237938568 -0.32819088641545968166 -0.03999644106714887043 -0.2315460987012447347 -0.17010528905620755924 -0.21845361981939812046 -0.22294188187364286091 -0.12160398898494868825 0.0082121677267337142569 0.13363777631828435699 -0.16370993869263836262 0.10749341405353826651 -0.099034645148604397158 -0.055068841972317351952 -0.36911832360386503948 -0.41049295210843494974 -0.53757429812891521781];

% Layer 3
b3 = [-0.6917071404976868898;-0.6495583097811608031];
LW3_2 = [-0.76952071468385652153 -1.4960940594887188748 0.12046921948368677358 0.050251133897907404591 0.46700297456782147165 -0.4600740165435935336 -1.1534633121248998311 0.5788256805790220616;-0.83100996787904024554 -1.1225475609660864329 0.53556354170969966422 0.02051182582407859098 -0.020132701305454504814 -0.31029985186760083993 -1.1894662638701070101 0.50222648683386006407];

% Output 1
y1_step1.ymin = -1;
y1_step1.gain = [2;2];
y1_step1.xoffset = [0;0];

% ===== SIMULATION ========

% Dimensions
Q = size(x1,2); % samples

% Input 1
xp1 = mapminmax_apply(x1,x1_step1);

% Layer 1
a1 = tansig_apply(repmat(b1,1,Q) + IW1_1*xp1);

% Layer 2
a2 = tansig_apply(repmat(b2,1,Q) + LW2_1*a1);

% Layer 3
a3 = repmat(b3,1,Q) + LW3_2*a2;

% Output 1
y1 = mapminmax_reverse(a3,y1_step1);
end

% ===== MODULE FUNCTIONS ========

% Map Minimum and Maximum Input Processing Function
function y = mapminmax_apply(x,settings)
  y = bsxfun(@minus,x,settings.xoffset);
  y = bsxfun(@times,y,settings.gain);
  y = bsxfun(@plus,y,settings.ymin);
end

% Sigmoid Symmetric Transfer Function
function a = tansig_apply(n,~)
  a = 2 ./ (1 + exp(-2*n)) - 1;
end

% Map Minimum and Maximum Output Reverse-Processing Function
function x = mapminmax_reverse(y,settings)
  x = bsxfun(@minus,y,settings.ymin);
  x = bsxfun(@rdivide,x,settings.gain);
  x = bsxfun(@plus,x,settings.xoffset);
end
