function [y1] = NN25(x1)
%NN25 neural network simulation function.
%
% Auto-generated by MATLAB, 12-Dec-2024 22:52:27.
% 
% [y1] = NN25(x1) takes these arguments:
%   x = 13xQ matrix, input #1
% and returns:
%   y = 2xQ matrix, output #1
% where Q is the number of samples.

%#ok<*RPMT0>

% ===== NEURAL NETWORK CONSTANTS =====

% Input 1
x1_step1.xoffset = [0;0;0;0;0;0;0;0;0;0;0;0;0];
x1_step1.gain = [1.99842575687876;1.9988744466345;1.99939247595005;1.99977326396157;1.99806261423199;1.9997525726502;2;1.99850405654924;1.99828937590365;1.99906703273656;1.99803971744082;1.99864351621153;1.99820309294854];
x1_step1.ymin = -1;

% Layer 1
b1 = [-0.55747730790664862255;-0.19386512419740895008;0.73415766563784390364;-0.39885287231147836806;0.55563298784870074343;0.090652822633120230811;0.62448150782006162096;-0.011014927876543068042;0.010210691572882365716;-0.21000741044317605688;0.10995924117107026829;0.61643218791888876318;-0.38121521730086088686;1.1159860019139327125;-0.30389772364413242256;0.28176801301835208147;1.0483327206401851228;0.44122059350553904933;0.13971910179629479232;0.2371612712692191538];
IW1_1 = [-0.7246544470408026184 0.087829965118782729605 0.56021616752494718394 -0.30557386178399659205 0.06640431309135184923 0.092263172241090929404 -0.10648804162690429786 0.71325545494821274151 0.020455331026631801139 0.4390151104312003949 -0.33151096764379039961 -0.27995963790623129563 -0.039590695667866396268;-0.54125502757617593996 -0.32905541350284450708 0.22076935025149224678 0.4070380148729758063 0.051681218689933722255 -0.07206655011867635352 -0.81756810364500731581 0.21077668230791038462 -0.37018627006988774619 0.46055906082423908598 -0.16901804867278880096 -0.30614732334770511368 -0.14026284817962825224;0.00024726759088562061395 0.61870336789584590154 -0.064816916061357268686 0.10853901866201257076 -0.15836539794867907083 -0.16976541852560877999 0.40090425272831053949 0.053252733751604656998 0.17274026727764110745 -0.5307538670561566807 0.14405838685142569044 0.022833109734421892095 -0.057232616297200181177;-0.20952190289457289785 0.16925750691237276269 -0.028567265989864247533 -0.080894222502610302339 0.12735681828568473639 -0.065033173753094142278 -0.0059170655453616837621 -0.11695848677943018745 0.066265390705783591696 -0.30957106936932843322 -0.3011453554505511554 0.01090649164480036841 -0.012484236864585874366;0.67831160765843812044 0.78591326137276673602 -0.59591303249396010422 0.54008799941142016099 -0.48525652572904887094 -0.43215549200330938273 0.50234998173823453005 0.53345062143385812981 0.0050033209913958025944 -0.23373913621366260163 -0.057626661590619555897 -0.021405151804076514438 -0.02687751372568810207;-0.031412356378664067769 -0.14320969630834504138 0.073059758876089786472 -0.19402016105351693742 -0.46913327834848916886 0.010755268565624660076 0.6775263010992411683 0.25794957104114163426 -0.041062290540488093071 -0.059070674498318535839 0.027156656088827876849 0.0066270379411055352001 -0.015188079709177699367;0.95419146713038749397 0.43800107079876032801 -1.5555345695948019635 0.94249181216988076049 -0.19094295842379588324 -0.062770478395449941234 0.0039672087613802729106 -0.32784811946422914852 -0.052602711938923227275 0.12038102943687940816 0.14704383807068591161 0.092100355759284061041 0.038253671770980997302;-0.31328666144677891348 -0.040655386692966845319 -0.12918350365104047661 0.18341117314157637241 -0.38053574014761087918 -0.21867659662210142679 0.21454099360163042531 -0.34863062484391360574 -0.015694180842090489636 0.03543509382603385327 -0.023583279573946944185 -0.081239547644478438126 -0.067584334753304095567;0.15774174427872050819 0.44227732375575823376 0.06268799486969217627 -0.1930203881037127478 -0.19939226098455029024 -0.37908719922711464623 0.31138770087784045648 1.579866489397328877 -0.082276504950275428096 -0.1823535338205626577 0.026833706085236042754 -0.032204356507873121984 -0.046246724161577427992;-0.32707661464990733791 0.55000129912110229391 0.26115571345011545645 -0.020162800981252223392 -0.21185947256225870494 0.10090010042272105906 -0.38412032484905633822 -0.20779958208911211703 -0.07431538921466387948 0.64090989108841578403 0.33768315563479855967 -0.013092069988461223912 -0.0033882120616233121768;-0.228423802214884758 -0.83261774725213721915 -0.51558339090992288956 -0.26946457670127627049 0.33999378806538654851 0.19520876596936367897 0.12149447943095957603 -0.69536612162778388413 0.45734267977184311915 -0.31081639764590895947 -0.20155521431264972199 -0.27132756494562382255 -0.21728203798088116527;0.84277501287896350313 0.10363397939165533423 -1.4761863360481037866 0.67847865736822787763 -0.18600543864461580035 -0.035993912381835906078 -0.01371301753039211313 0.27252152675269514237 -0.072707363846614872505 0.29016412484590248244 -0.14653395944055513933 0.03047373093932125715 0.038818720232223914712;-1.5243691516151864906 -0.19483090263230190553 -0.11175547404050763245 1.6647764661228010574 0.0064908053305301150956 0.03398925827239761277 -0.13042728356608421225 0.21637087371893096166 0.0027750902883319694334 0.13254979559524884825 0.35254605391282439752 0.0021097079832325948967 0.01943429567304858635;0.14999188817412736907 0.96459787815657249688 -0.70150192588780724279 0.62091567879049269774 -0.91910459392794696676 -0.64721480416869370256 1.3728813209883967694 -0.84325451454850941513 0.021116925847549618961 -0.86796777552413340029 -0.032526475751856631646 -0.015583406995963574801 -0.15042125959503707677;0.076459991042440306197 0.025253558209818449676 0.20636890319338621613 0.080106276799951720013 0.28838840189867565034 0.071559922502183348492 -0.36936775324605558568 0.16865118390214964283 0.23955721092368098546 0.013347531871240733356 0.33545032613287040224 0.089445824522927874778 -0.11083993924407749276;0.25231853596316927701 0.070120775095505974428 0.017173649427615025886 -1.119748893955488267 -0.26588170916724546133 -0.42715248330418076339 -0.071683409838587092144 0.45913684985137909189 -0.19163569405405081469 0.065806215182715316336 -0.0035322022881094749906 0.012143145078533368331 0.13613269774880593088;0.68543404009549036005 1.0001078293846514811 -0.41934768549483386613 0.20823052801408292733 -0.080881558970228015215 -0.25171262013108969269 0.17710766155155346913 -0.67973038054425549692 0.15721425602459529469 -0.31609202277905851242 0.40824320203906566684 0.065199680588644781665 0.032891202332803036457;-0.0090594979556676245858 -0.065059146819256313821 -0.10363968227063534433 0.49599242968165302425 -0.058191691384165536438 -0.53377352696326318959 0.015558034432190417234 -0.21304463738209705737 -0.11124487518582761025 -0.19622707920176526986 0.21013745853547305398 -0.47332676220055996952 0.083705701717846192622;-0.26304695913130665685 0.33152286163790911644 1.4722593313292018369 -1.5465953308925119991 0.027224657150181338916 -0.11294719235708587657 -0.037614872997251053155 -0.14182157898935099372 0.0558543614560275542 -0.045683717408471616328 0.33008175091374880594 0.0050884670932891378631 -0.0075907186242970695403;-0.18022092217622659449 -0.24197244578019333483 -0.10122591949199677419 0.082143956167433848647 0.46866369463370549653 0.14650029069847692043 -0.60120916052421158327 -0.085357403657043390277 0.03341182058193822163 0.15381282632914841657 -0.0087520872587552485389 0.028360962277974889612 0.0097321998294484235448];

% Layer 2
b2 = [0.11713240252421835974;1.0431282167724644783;0.18061794918019202782;0.12968697818312691084;-0.35200732173197990527;0.46623903974611979883;0.042164239613350917857;0.54612487975201517987];
LW2_1 = [-0.035740055580470768415 0.0091724239016344535913 0.039608113117506317524 -0.21996317582604227314 0.18989999293439821515 -0.48011940488067755828 -0.18009782383492212166 0.35851434387916591984 0.17438994947368785526 -0.33717750876870095089 -0.069586284557928229644 0.0731408461955100897 -0.018231676459697178372 -0.023631436963606391316 0.024805416960811378646 0.0099579393476370483412 0.058689156848847054415 -0.10705925624896146797 -0.1271635351597421304 -0.61401088573316675578;-0.96179491252988646988 -0.40174572022601534593 -0.372216471291544726 -0.2340150866604931712 -1.3912354951563576932 -0.44882279895033022621 0.1564582414960145329 -0.16729060498084571962 1.9287478684352015179 1.1753802589027446679 0.367635934133281439 1.5872524082699979164 -1.3640670765237081774 1.1842124303057492973 -0.088002869995114127444 -0.89036317805886311394 0.76386179728464820293 0.6087053627882536011 -1.6713813189635913226 0.37924398274683751575;0.19239754076906817604 0.34877928600342261722 -0.01698860436061886206 0.056221169193950606968 -0.17752049873963363091 -0.077159452032617148465 -0.019362067976444897327 0.17984434851374836439 0.069000775821431506452 0.058537351748844494714 -0.15680352255817600615 -0.16867318524004998315 0.41105085928314483157 -0.14587182686496411033 0.20857313877122779511 0.10286254698553841391 0.025615848196880685456 -0.15339744220717119183 0.051369849343540267828 -0.0068688120608044979029;0.23579756780079330625 0.081803851890208459374 0.35128551319156359201 0.53424075433905393595 0.39238922149056282285 0.51659422970574109257 -0.18676426405505136552 0.087068477103587976762 0.18147593541659742811 -0.11130683803130118903 -0.14380708186499313594 -0.1135344657425853554 0.10572296703880752766 -0.096571746569359684376 0.071408499827298591023 0.2081876025686328624 -0.097698598680214090995 -0.029333689304772626871 -0.12700952044244945283 0.63751616183858594855;-0.097187913655797847357 -0.092362986864413076926 0.024420779709423759418 0.075795151466137980489 0.1923219317980418841 -0.16991567307841731749 0.21560149524510199837 -0.2815741377971003323 -0.038224257202112914278 -0.014115567371143078815 0.015949067387404008977 -0.015518316768594209859 -0.18072064530220791068 0.22417175969816827141 -0.093323967314418748709 -0.12791725650838314809 -0.020961146330660006265 0.03111191772541558459 -0.013872027804208656582 -0.27869670563037368671;-0.40608852746329993089 -0.26613056103199211888 0.45427579175905841158 0.16879045288821156734 0.68490215499516604591 0.0048593354414793073215 1.3777740539443847911 0.049458847729805056892 0.51709879499826771898 -0.24926510221181905069 0.5430926531776928412 0.3825184129967026947 -0.48297218294908234038 0.69135401228348991598 -0.48932065502651866939 -0.71395199478837301221 0.16666763763798589371 0.24948652505183552264 -0.42409579699121874308 -0.045585217714542873579;-0.20301087149204019577 -0.016161426479414042756 0.39842370961062473222 0.22747151639029730696 0.15381747507218482274 -0.21109865879029701685 0.56886106739999031667 0.56966280264368052144 0.04371671054568300463 -0.12796185097146725584 0.0011113446856122906857 -0.24420027349562281604 0.17900803334323003857 0.25651593260167804278 -0.35699766073378058628 -0.19424069442469862889 -0.23874153486233684607 -0.096903391115660375554 0.39167529093070613255 0.00039401752722151902469;-0.31193505094075818507 -0.30585516837287429759 0.85005206265220589756 0.024436558924753992716 0.61084142819642972544 0.31923138617421586982 -0.082460460444042010808 0.1076995164611081468 0.27965208358847981618 0.25187391909449713401 0.19483542900690301036 0.54583922014880903451 -0.51866607545512299904 0.72241991112648573647 -0.22234115879362467694 -0.34272617137470157145 0.14375947029207736261 0.29930782278402545682 -0.88803988136363054551 -0.034888911997357441308];

% Layer 3
b3 = [-0.90029312163736885388;-0.94789180676700335315];
LW3_2 = [0.92290571072487714854 1.4251744154983649882 0.46651359704536021766 -0.75277177711708354035 0.83558805992556428599 -0.52974800917672870693 -0.78405280655258902112 0.75005275935211623839;1.1421047512976887361 1.485322934306650966 0.29241263508643816627 -0.81414843786386215108 0.35033986807202266434 -0.65985285238119373297 -0.65660719142821011296 0.81055413221347327735];

% Output 1
y1_step1.ymin = -1;
y1_step1.gain = [2;2];
y1_step1.xoffset = [0;0];

% ===== SIMULATION ========

% Dimensions
Q = size(x1,2); % samples

% Input 1
xp1 = mapminmax_apply(x1,x1_step1);

% Layer 1
a1 = tansig_apply(repmat(b1,1,Q) + IW1_1*xp1);

% Layer 2
a2 = tansig_apply(repmat(b2,1,Q) + LW2_1*a1);

% Layer 3
a3 = repmat(b3,1,Q) + LW3_2*a2;

% Output 1
y1 = mapminmax_reverse(a3,y1_step1);
end

% ===== MODULE FUNCTIONS ========

% Map Minimum and Maximum Input Processing Function
function y = mapminmax_apply(x,settings)
  y = bsxfun(@minus,x,settings.xoffset);
  y = bsxfun(@times,y,settings.gain);
  y = bsxfun(@plus,y,settings.ymin);
end

% Sigmoid Symmetric Transfer Function
function a = tansig_apply(n,~)
  a = 2 ./ (1 + exp(-2*n)) - 1;
end

% Map Minimum and Maximum Output Reverse-Processing Function
function x = mapminmax_reverse(y,settings)
  x = bsxfun(@minus,y,settings.ymin);
  x = bsxfun(@rdivide,x,settings.gain);
  x = bsxfun(@plus,x,settings.xoffset);
end
