function [y1] = NN26(x1)
%NN26 neural network simulation function.
%
% Auto-generated by MATLAB, 12-Dec-2024 22:52:27.
% 
% [y1] = NN26(x1) takes these arguments:
%   x = 13xQ matrix, input #1
% and returns:
%   y = 2xQ matrix, output #1
% where Q is the number of samples.

%#ok<*RPMT0>

% ===== NEURAL NETWORK CONSTANTS =====

% Input 1
x1_step1.xoffset = [0;0;0;0;0;0;0;0;0;0;0;0;0];
x1_step1.gain = [2;1.99806908764833;1.99895617731248;1.99829557897772;1.99829215068811;1.99909263208473;1.99838900503833;1.99827603680963;1.99879642514586;1.99851414228074;1.99823763003834;1.998305472559;1.99959496845522];
x1_step1.ymin = -1;

% Layer 1
b1 = [0.34267730685780711797;-0.46019789435055052929;0.14667833529546350779;0.28539837209803459173;0.19533813844966499418;-0.54934153249597228452;0.15773369921726335119;0.69557626855343135386;-0.29398119289156993128;0.28338914788147107071;0.16887888908657741616;0.83568479387651106727;-0.34769112104480204284;0.1014084724096483564;-0.0049049341268229129653;-0.50321916953635548175;-0.50738667559663575002;-0.35882822448103512958;-0.061709182866238547482;1.0255989776991569773];
IW1_1 = [0.13551881940886625899 0.037044467224297515651 0.045502954992294210312 0.33696585096070180709 0.32232675623149259492 -0.013688842240394677799 0.23858157541279620406 1.3444849031615873081 -0.11639172141169917829 -0.17834405094270688874 -0.11746997653676004292 -0.070459838766576923796 0.44908731111394484259;-0.12977596005365873988 -0.29931943026200874547 0.2744444659641525619 -0.56787162633751187002 -0.21297390199905513741 0.030169447315991446829 0.41269933458867236187 0.13866010275416540409 -0.15100650720582095565 -0.14772059251940161673 0.26502145962409440205 -0.13342566439106645637 0.064737608014645856014;0.45658045614665659917 0.37721429817279822361 0.25773217700497080829 -0.77637458477758614084 -0.25269950964276255423 0.41643247893216245314 0.63390711952974831966 0.18581059239755320922 0.1124554696537110321 -0.26062009301621946733 0.28162928334879316905 -0.059767927604684661924 -0.10837090108179028847;0.78967659842133175463 0.23582404050670069395 -0.62513695633935650875 0.73108633679786960702 0.65663227640644072913 0.25699250414789354124 0.39843585416252791376 -0.69277215414492732126 0.41679784642980355347 -0.019651104129320331321 0.38636276260773250169 0.06878200092627879958 0.31556224751907113735;-0.36453340549567686546 0.35376278265145133517 0.77912897952951665204 -0.50279218972972783419 -0.040450821758555952079 -0.27409418767542786943 -0.16671204635928135729 -0.00052172008284547509438 0.015387210626286958182 -0.11516129039331404749 -0.095214621887874148487 -0.050510159911991474313 -0.024153293091677390664;-0.082288744163351232319 0.52637795067369175239 0.24154889210795599253 -0.060973092010441681809 -0.42225834384493604601 -0.52543917247273297377 0.3944821136049658783 0.73944583073082326141 -0.0011730890974657231986 -0.52221075610484823937 -2.370078068445022508e-05 0.0097904853272952480081 -0.2012505706390004534;-0.58157057642994525182 0.66868482998311606913 1.226406237180938108 -0.28935660636890825348 0.039727236180514713393 -0.5254426437053223431 0.083478253718542921868 0.54690872005059920635 -0.23719555858367427637 -0.062481075128404145458 0.33144146399782292711 0.17211187495044077966 0.36028980789860576284;-0.38816855719027737459 -0.22016227709965641157 -0.32283293280780450685 -0.19791676874850683276 0.23506968603042305288 0.046783873534904138469 -0.19955938331931322161 0.32664618870834660758 -0.002976739515246789626 -0.1241292413280709328 0.050339076902969001615 -0.16564186018506837916 -0.07501656733920769593;0.32026161988902657196 0.24903525301828730032 -0.1808765886844017623 -0.25862036384523545696 0.20410408474521479771 0.28199459336490234618 0.041882130765451192067 0.3163938846717152531 -0.069936728231663025657 0.47099585622805772989 -0.10545397835441427947 0.27526380905199365756 0.047019853181785996321;0.24305090845696059043 0.0012536557873531455759 0.17707649228427616017 0.20044274752805035789 0.41962352714556527822 -0.082690133707049764955 -0.53333573797902367186 -0.066717287816649317733 -0.093108500921155926133 -0.24737400769690268132 0.42116734304754294138 0.12420653845461432363 0.027164782902113784879;-0.65014788817232571638 -0.71955636806513534331 0.89331254768942913724 -0.2861981875833757849 0.4958185033932955843 0.25918165258480246882 -0.15869683523328281805 -1.2795584773618067231 0.15016630608157091609 -0.15621253675096183344 -0.27688249293280553509 -0.083407395326980646177 0.087160894923021703384;-0.23516254822919571699 1.0112255079775067657 -0.27393092295878262998 0.76135958557152993986 -1.0775246088543941614 -0.57867197024955552287 1.2113251426874431793 -0.63661708160444108184 0.094899870451243692471 -0.75215183654425821214 0.084579776413355331477 0.10555409233331400354 -0.33833991949439495839;-0.19887176972343023618 0.32022701704475947659 0.0929983448171518845 -0.13135638109644823257 -0.17312974721423676772 0.47127586729154985479 -0.27571376722469742582 -1.0787796086305709853 -0.046327473581736167141 0.31306635043895147952 -0.10329902346519347078 0.035345790167492861789 0.21454057262841622067;1.0246434748723085573 0.21143299204252419266 -0.014689847807502296601 -1.2632277006065977254 -0.005421387589992268316 -0.080135803748638725907 -0.015671293201329632855 -0.047849130652540684816 0.028768575401362864175 -0.091818943544566197779 -0.38695261769311534161 -0.044339627034388325033 -0.056477153374295395449;-0.21309267933199108058 -0.20775498140204154418 -0.26653472978242548352 1.1323546446715693214 0.29343244278361946265 0.15450052987864265619 -0.0044528662600161455359 -0.45306527488785114377 -0.22238062662990740193 0.044244248458427205828 0.011132437948845250869 -0.049315690815961987781 -0.026022807762983532487;0.11707496946547822636 -0.19512091565352082667 0.33422791246734850912 -0.26686965752558966525 0.16972950823947685617 -0.1595799164864535602 0.24703447405035400264 0.55505355252152532852 0.026846754717855744049 0.40076622836559194774 0.12331760200154406881 0.090315903208113390566 -0.41478311680714269327;-0.048905192471376833507 -0.056443090103063864316 -0.43271911960558190335 -0.31609738905577722257 0.24502013851488044227 0.0097200689365566153577 -0.32422723887363191775 0.10198423102739140322 0.018518846233171591675 -0.1197798479240040348 -0.22300719784989730954 -0.094366729139510427404 -0.055713050163135345583;-0.25397423635625138161 -0.74289644561361511954 -0.48773533255160783639 0.030684764880770140638 0.37297334613414601101 0.33382028948534159252 -0.69285820592845459576 -0.75845800449308065083 -0.017109038152001515565 0.88917127486757097099 -0.28662529829869798359 -0.13094404903905429438 -0.35094065953673764247;-0.15450751736493165134 -0.11890088376911257806 0.23089053984194754521 -0.253424180624130857 0.13738960008862305395 0.10945603415070533082 -0.024661803014631052816 0.0086582909921509090823 -0.030000294559408807737 0.14930067277888578459 -0.021059569982208533462 0.19489535909620883669 -0.028551746921006787572;1.9136330067710178859 0.52905711479955452869 -1.3249963101506607721 -0.61130791755019109335 -0.16828752945364952587 -0.2406308284379370388 0.25351748595509798756 -0.84505139833872788824 -0.08222492085141390461 -0.15309406159260643965 -0.094359664744922217006 0.010697220987570768558 0.039990128714546172017];

% Layer 2
b2 = [0.22516717999651697513;0.24685527851359745366;0.84391666383459928991;-0.23631620744562534253;-0.40748869403440451942;0.073067594777882008406;0.15447464046987227637;-0.082143431915817632927];
LW2_1 = [-0.13507903301478751956 0.38434876253467131768 0.0052393007483029835 0.034499192197100195245 0.24510438225120706468 0.030508694401010651165 -0.0071597649637667850134 0.28745989894029122524 0.26561353583014996049 -0.040520767047505970582 0.017632501914209567501 0.03455461197407349444 0.046319749963299350348 0.06368731085056032748 -0.2281289029913733668 0.057615102550790754654 -0.034579185921001238946 -0.12272345824653299595 0.077516982381389626378 0.10732221780993442262;0.27832529642896680633 0.0077451364620056105392 -0.16902873721581568311 0.011242222359919225999 0.49781496339650255223 -0.33437828183758033784 -0.35004522487964750965 0.01831368158470479679 0.23682261044167535191 0.71516400677316938062 -0.11030523677249476355 0.09819234519964732677 0.1110820240108313095 -0.13102254286391407101 -0.075207804566358227305 0.096377897287203667664 0.4670881694596109579 0.21854797593006886069 0.11806147940418200426 0.16446070098958559536;1.0631209694498822138 -0.62576949333885667492 -1.0684404237915230418 0.96255353412819066872 -0.98006071779485981477 -0.94164049848235720219 -1.4621872285072214925 0.66545404966033072647 -0.27688486192784811379 0.31940990342089597975 -2.3489667259418482992 1.6399533804340085119 -0.83473321581601434005 0.54484169466606213739 0.98113424397904980268 -0.83224911701086701221 0.040869664475300881978 0.079790313466690854227 0.35063441933990419086 1.8343277817359970872;0.026356296167061865621 0.04225443588841656245 0.073715465647746281075 0.003657194466328342157 -0.10391226422529691031 -0.33807539959469290469 -0.3212529034261263905 0.045156506397032177003 0.25767380592355748625 0.18630772782540988564 -0.20924805867164300577 0.33858130519278589743 -0.36747859206277461164 0.554127251025438472 -0.49528165005505830898 0.30378736721758869965 -0.3007877073136449031 -0.49129801591543886818 -0.40063220023203993669 1.0685059294182046585;0.048496843000067152429 0.30801145256511058834 -0.26719952118461126611 0.13351891260990925159 -0.17065864867897587165 0.073246098868793949044 -0.30977702265781664748 0.030697752473919450583 0.48583747851787723038 0.40193730195366322855 0.025437130563301831032 0.30314612293354697981 0.091626145471264075493 0.48884007745616597784 -0.097115244549755785908 0.12730376244644997508 -0.15557348790773034564 -0.25828448073599935553 -0.50554889142242909195 0.10216788250167940788;-0.085438502883318667713 0.03943057259990878638 0.28020965624308741271 -0.076341339801082874761 0.49474033700303132743 0.01353247336481577974 0.23886892919463798002 0.26515441494728231309 0.16289380392448185586 -0.12722080827696294336 -0.021728398989775271621 -0.1560507566069903318 0.14607290898870065043 -0.18408997905637902726 0.014634061515270949463 -0.039680464731445964921 0.10479930416269217508 0.12207091840199352228 0.042267409151394583211 -0.1398575378974256378;-0.040887188399066860811 -0.28212446559117759781 0.22785434249410557728 -0.13191599708842138838 -0.068106940249504366314 0.031810561014439936445 0.24853717575754968871 0.01677176202868304114 0.16905656936235166632 0.53743593971932979159 -0.055186480870243234675 -0.63923357362152832817 0.074537210234349310367 -0.16052155177340052261 -0.15184656237668908707 -0.06117179794304692525 -0.26878418023611994059 0.85937032139736768688 -0.20309497967237746807 -0.0079259746759766779717;0.073758492352557339378 -0.23176573930934754597 0.21082215290969102961 -0.15399006307028831331 0.43955672064005807398 0.019045805789950971676 0.18626161544468877729 -0.20436062200107180109 -0.058048393937437263446 0.23660311164400379957 -0.14308339067175351866 -0.29723534367731396788 0.18729958195525259201 0.13297973658002329445 0.22784160718152965397 0.01935151810779481632 -0.1304093537888867671 0.29937726405872461255 -0.046381777855953196243 -0.26118411752607423315];

% Layer 3
b3 = [-0.38236204382268990098;-0.47814994889633488651];
LW3_2 = [-0.83007157698004330193 -0.64127030301353504793 1.3209197818792970391 0.21989974438374471077 0.97275241414598689893 -0.16123072227440060633 0.34190327960797656237 0.4577778762364186349;-0.19969231294521325171 -0.62943502892389080472 1.3266651250113650207 0.12918910523500337639 0.56631075173370926112 -0.72483414307677629385 0.27129546197578247035 0.6351228109807448563];

% Output 1
y1_step1.ymin = -1;
y1_step1.gain = [2;2];
y1_step1.xoffset = [0;0];

% ===== SIMULATION ========

% Dimensions
Q = size(x1,2); % samples

% Input 1
xp1 = mapminmax_apply(x1,x1_step1);

% Layer 1
a1 = tansig_apply(repmat(b1,1,Q) + IW1_1*xp1);

% Layer 2
a2 = tansig_apply(repmat(b2,1,Q) + LW2_1*a1);

% Layer 3
a3 = repmat(b3,1,Q) + LW3_2*a2;

% Output 1
y1 = mapminmax_reverse(a3,y1_step1);
end

% ===== MODULE FUNCTIONS ========

% Map Minimum and Maximum Input Processing Function
function y = mapminmax_apply(x,settings)
  y = bsxfun(@minus,x,settings.xoffset);
  y = bsxfun(@times,y,settings.gain);
  y = bsxfun(@plus,y,settings.ymin);
end

% Sigmoid Symmetric Transfer Function
function a = tansig_apply(n,~)
  a = 2 ./ (1 + exp(-2*n)) - 1;
end

% Map Minimum and Maximum Output Reverse-Processing Function
function x = mapminmax_reverse(y,settings)
  x = bsxfun(@minus,y,settings.ymin);
  x = bsxfun(@rdivide,x,settings.gain);
  x = bsxfun(@plus,x,settings.xoffset);
end
