function [y1] = NN35(x1)
%NN35 neural network simulation function.
%
% Auto-generated by MATLAB, 12-Dec-2024 22:52:28.
% 
% [y1] = NN35(x1) takes these arguments:
%   x = 13xQ matrix, input #1
% and returns:
%   y = 2xQ matrix, output #1
% where Q is the number of samples.

%#ok<*RPMT0>

% ===== NEURAL NETWORK CONSTANTS =====

% Input 1
x1_step1.xoffset = [0;0;0;0;0;0;0;0;0;0;0;0;0];
x1_step1.gain = [1.99965557127291;1.99880355118344;2;2;1.9983485331986;1.99882312021389;2;1.9984430404265;1.99917493612643;1.99830281615432;1.99826107091795;1.9986231769034;1.99868345405484];
x1_step1.ymin = -1;

% Layer 1
b1 = [0.6442867480264512503;0.14755505332814597419;0.54423671028720721488;0.25036963506666026769;-0.78978187280579170704;0.097734162112474362583;-0.068234862694206740996;0.022401672168969918864;0.99310565565522579412;-0.05557400526736057389;-0.12956130117036690486;-0.50068972735776284821;-0.29887814786443928083;0.11942952262980277567;0.066168058799518328361;-0.29123405474988339758;-0.26353565611356244425;-0.16818513172544152789;0.26608686941538767234;-0.45145572477140200052];
IW1_1 = [1.1104204150938592477 0.4694021891685286052 0.18831646494236625733 -1.1657726112983171074 -0.22195467784969596936 -0.22391425707425954839 0.3104247208638526434 -0.08129580266783656417 0.05028831094851571315 -0.26654347410304302102 0.90825999330682993804 0.064499812352572433172 -0.0052436780834918608751;0.76080878581189848031 -0.075799731737198533521 -0.57231739520220903383 0.1575238075697051876 -0.16948403245273502282 0.18224473934568219402 -0.11044742611167179813 -0.0060599140802694738059 0.069398830140148304313 0.083103055079432192054 0.0063357601729453517925 -0.0069137385208703858869 -0.047265795693926207499;0.088976631975230827121 -0.26308993354928489339 0.047172170315898119541 0.056782866264119706556 0.13804978110716323303 -0.10212825816055562389 0.42557891333231895326 -0.77269953010867020726 0.21905828262140986107 -0.66635389527033928037 0.31182165878223705446 -0.087379310226507814208 0.018400552881215035544;-0.0021671118450523850496 -0.0020326460151402631071 -0.025359391780620060136 -0.17531786619381900527 -0.27809876796661764375 -0.050349141892038082324 -0.030598527471069329742 0.12360200269141866092 0.010497982624511516606 0.075714847157758835561 -0.14102433105311631967 0.01586807209370881197 -0.010163152176413382116;-0.94546574271265859668 -0.36244397490297808329 0.35463301247867234922 0.68771775765185250151 0.055664245608371180907 0.28982112741410942514 -0.20515739301276358919 0.25279534951975607404 -0.031047476172594578453 0.25146107455493282856 -0.23081432218267877721 -0.012566635246768877512 -0.012832410185384736032;1.0827449014750427647 -0.0063838119148321740767 -0.28006139907347565865 -0.67402045350762962439 0.30768360069077604901 0.058595686789286241525 -0.40104555998914914738 -0.23095237232482462852 -0.023285460883055945219 0.15628090277968248456 -0.20226991427282836611 -0.023407647594532905722 0.039763576370314156205;0.90511652982838275427 0.21511865734948026896 -0.15813687928754116552 0.31527466923577307512 0.83304817982731238502 0.73336514837109911813 0.55817448058686169876 -0.16505804634198720238 0.46029324557397133244 0.26542560269230586201 0.039338948156053384075 -0.055899013714026182797 0.28779297255633834451;-0.02803294536469292525 0.24558469375135547064 -0.056044204149183492192 -0.069490301650887015272 -0.588006022979663312 -0.001881694401473742867 0.57163531946740675505 -0.8454181407797647374 -0.10915317725846948593 0.15811589201168857466 0.065641390310320152368 0.0066732706018019678773 -0.0083380295246967117001;1.5699725071923815722 0.9488010808546644137 -2.317133760050401392 1.362748086911563794 -0.42584413986803471008 -0.46333661418907684526 0.75447419398908632804 -1.1652429495172007545 0.0069244580316751222493 -0.45751049416731465191 0.98401267458632846186 -0.060165392551942808996 -0.099301322992697643732;-0.00029514305415283211042 -0.65990473128342808096 0.14152605437797349808 -0.4226917936503249984 0.51873598627722117271 0.56921421380960457448 -1.318946223885506086 -0.77564826371020068052 -0.29722518756810745177 1.3300609841050587967 -0.53622789712181018196 -0.01434203829098268726 -0.042269959118787975294;0.42679290957416310404 1.030037493118516112 -0.18856939993408583511 0.24932338137337095585 -0.50257497674703810464 -0.87933208963576836581 0.51947468472300406539 0.24417135148561230906 -0.037953031331477149468 -0.35690583684600224457 1.2232026140612566323 0.058022641563061451431 0.10909083001307319505;-0.040874936869153111196 -0.093914049729692070101 -0.3778795274626075007 1.1290198000350850638 -0.0094585062439853529598 0.1678918252142835299 -0.058189685053579950913 0.15781416354494529064 0.03710993185479494888 0.024356378614362916152 -0.27962381118433077276 0.023896701695942199062 -0.0016090117995572873841;0.44772246863499037817 0.8013564427423468528 0.083703877547798177794 -0.19990561434580580991 -0.35529759868887639263 -0.58216826186526593467 0.35325524979467592956 1.2018918324053760038 -0.013204543894382018976 -0.20153501038546484114 -0.41705998010914635543 -0.11758713108410487336 -0.20219659798070974133;0.080749340017388232527 0.049822750272518402659 -0.06515295596765340036 0.096120550546218902488 0.29837044970492510032 -0.48418475821058082342 0.29610491860303234102 1.7212907765485550016 0.024319300161533052851 -0.59764184402690034847 0.17397336810391400563 0.089466190350196858616 0.083101633481943187887;0.11291755750090282095 0.645218306152802068 -0.030985223668749384968 0.64217995111274939202 0.70671349723585508151 -0.99583461626447833392 -0.094248957912791336833 0.029770350770304036814 0.15879409859900639468 -0.44209644400403308451 0.60627371204956159723 0.69182853734072946583 0.62793231258486215118;-0.24873677976298816383 0.28114558631226371777 0.32448827576232469605 0.036212043557821475825 -0.55108449750673638157 -0.33235560556720677994 0.68576135922630254704 0.15590814484303494591 0.023578480912230564276 -0.26259964818644221385 0.3862992868196828411 -0.012357543466599923976 -0.023120640506407271614;0.51098702465953826923 0.52936139202169052442 -0.37778390557677482553 -0.0047145232021096588476 -0.26219803368892985462 -0.18932024156273724591 -0.04756355267393758135 0.80896887494306257693 -0.1003086593544977867 0.21429000207860887661 1.1289082450127598811 0.021651196422143421938 -0.053725713363885783946;-0.26404471975493531977 0.47839976907257314442 0.057194729197479504679 0.022914286415250294943 -0.099382746291052273535 0.099121653202537157723 0.17221565763373575253 -0.34164064862044057902 0.14008275595365549115 -0.23460273730955777394 0.21810818948080248902 0.0037496394871700464146 0.065123210291964550578;0.023549459273761445821 -0.49020085997668799704 -0.44066170149111155707 -0.049830857480820493766 -0.09035902332557460559 -0.12860520226874119776 -0.4938675806609691965 -0.49191182894476048748 -0.14342415177913400703 -0.12341121296308485422 0.00098619453758934860418 -0.075493318383877391908 -0.24441162418572340287;0.3586912422665016198 0.040600763029668807125 -0.60687105844212341221 -0.064197033144150511541 -0.18498852577643865036 0.019315664637582496965 -0.0035032109998559945313 -0.23114902647861265694 -0.094331014825137074475 0.32137686515248853336 -0.12318767221154432179 -0.049111391734825350641 -0.040412190793905941599];

% Layer 2
b2 = [-0.091660905790471897125;-0.25414092932147303028;0.23295086487561625366;-0.12549373717727235755;0.91209934016659821587;-0.62674271340775133954;0.24159185830292825847;-0.39904694877701341049];
LW2_1 = [-0.28170666451152320819 0.25194115954533419233 0.22930768721125407983 0.033408980858671333269 -0.02607930282660454388 0.33157307662092999623 -0.035236185143111060925 0.18649197006397230658 0.18171302076040563023 -0.0015267168441285006164 0.18968824581693130571 0.15142764682087683781 -0.12395528664098387495 -0.07960432667103166382 -0.011051756998615151761 0.35009011465302569688 -0.24642204201983600176 -0.36576934539187855311 0.13953377752164639047 -0.18086021679287883623;0.47850547246554631098 0.24474699680296221893 -0.27220594598731839842 -0.21823675951200419143 0.41845780789403386191 -0.28841407508124572434 0.049203740034838572281 -0.77335764603469092648 0.87502207085474581483 -0.12920138471165462657 0.33793687552276119312 -0.45262109370616721016 -0.5929809755988492137 -0.070642568858109586194 -0.0003666569252724302154 -0.28549893828089145664 0.18225425618064136635 -0.38162072459871876351 -0.031783366847933265664 0.21881706293163194488;-0.45966124054945628474 0.36650408375409815331 -0.13189822483585200708 -0.49794504582267395953 -0.38064217499619495966 0.28507973692892796258 -0.013452144009160187446 0.1187147764709296921 0.17393117590331474975 0.01183088273131160939 0.08228649337861713986 0.20428750322294034203 -0.12983423665295840133 -0.017468404353850788824 0.00063029349949801660204 0.28583327224032745173 0.13149866413622920969 0.0052433511305535049005 0.019538865864447824833 -0.35244535783866637324;0.019757149094488189733 -0.098099806382099447033 0.37343629390280186353 -0.14811522194018794663 0.15677973914479811923 -0.17267578119206092313 -0.092481611087000342719 0.15759900489902953225 -0.24946574823856182412 0.065953987905197075658 0.084167931066933515671 -0.12991747241960566184 -0.0044807056253327367384 -0.14039154145423365927 -0.045134148991321863809 -0.26015387520777993879 -0.23423560123080050532 0.4341104408600334752 0.15769080984863664829 0.19739657445589345319;-0.199919755304596658 -0.4508483037080524003 -0.10602363173343899716 -0.13033564612320033826 -0.061028943679141592349 0.15084214585372640594 0.11907152393085225495 -0.88225626881550844871 -0.1525170330950641473 0.82255622997023780663 -0.48173062080505435478 0.15495284782387822031 -0.0065789685241185898168 -0.15790019904183583144 0.049258246717017235838 -0.21166642695507842387 -0.0051325304501827666639 -0.27445986682810086243 -0.31888130887789273293 -0.42565781567495419857;0.71064398085990843068 -0.75928728553862967487 0.5498324623186735538 -0.1252191817607258284 0.26947661214836005072 -1.1670880638043290567 -0.50571871100257126397 -0.13759723698723483332 -2.0685290303418599756 0.5429867785004658387 0.49452103134242064719 -0.89666555734547970236 1.0310169403017115375 -1.0266139324711160974 -0.4004408150141853806 -0.29210994023181668933 -2.0587327378560194013 0.012289840583827899012 -0.86521781632489991321 -0.83256531913219666841;0.12299176631869779275 -0.11092960623221859162 0.28455306791717921433 0.025996383417855137288 0.16189387714192599033 0.017650106661613564757 0.092146915861800252068 0.6341055775042736542 0.46513456934827812628 0.17467021655293948901 0.16041773057264058222 -0.15358204747164530546 -0.023004592375179953867 0.015298635499201542615 0.15871856508732765101 -0.5144215328572132595 -0.15517447108698967373 0.43065805947102947515 0.36301107992974923633 0.27007683109854541126;-0.62650514203998886043 -0.10259494112064701521 -0.61916327945886318052 0.24509400954332638545 0.033721466706460936913 0.24769697095947726395 -0.097998399217019860341 -0.19803820247178799407 0.59734877339360215043 0.24309466407310989511 -0.45853367193966237947 0.014391915700021590957 1.0667598679645857729 0.42592440139054543735 -0.061213747757779483905 -0.054281609312997948502 -0.14707169227041999582 0.068476600110677396382 0.31835718149404840238 0.3406181959000331716];

% Layer 3
b3 = [-0.2794911131485347533;-0.11552173815905258936];
LW3_2 = [0.2099550372820981059 -1.1501047262472792188 1.5947252226128934005 -0.24586862321570795986 0.18624443877523313984 -0.99697172385067378553 -0.25242908003445202469 0.081466628854883246791;0.46625943415084314392 -1.1768099401931764181 1.1556769001655939899 -0.35030885505805198221 0.17855841571402134016 -1.0267900954423681004 -0.24388949557084088626 0.033554901566623877851];

% Output 1
y1_step1.ymin = -1;
y1_step1.gain = [2;2];
y1_step1.xoffset = [0;0];

% ===== SIMULATION ========

% Dimensions
Q = size(x1,2); % samples

% Input 1
xp1 = mapminmax_apply(x1,x1_step1);

% Layer 1
a1 = tansig_apply(repmat(b1,1,Q) + IW1_1*xp1);

% Layer 2
a2 = tansig_apply(repmat(b2,1,Q) + LW2_1*a1);

% Layer 3
a3 = repmat(b3,1,Q) + LW3_2*a2;

% Output 1
y1 = mapminmax_reverse(a3,y1_step1);
end

% ===== MODULE FUNCTIONS ========

% Map Minimum and Maximum Input Processing Function
function y = mapminmax_apply(x,settings)
  y = bsxfun(@minus,x,settings.xoffset);
  y = bsxfun(@times,y,settings.gain);
  y = bsxfun(@plus,y,settings.ymin);
end

% Sigmoid Symmetric Transfer Function
function a = tansig_apply(n,~)
  a = 2 ./ (1 + exp(-2*n)) - 1;
end

% Map Minimum and Maximum Output Reverse-Processing Function
function x = mapminmax_reverse(y,settings)
  x = bsxfun(@minus,y,settings.ymin);
  x = bsxfun(@rdivide,x,settings.gain);
  x = bsxfun(@plus,x,settings.xoffset);
end
