function [y1] = NN42(x1)
%NN42 neural network simulation function.
%
% Auto-generated by MATLAB, 12-Dec-2024 22:52:28.
% 
% [y1] = NN42(x1) takes these arguments:
%   x = 13xQ matrix, input #1
% and returns:
%   y = 2xQ matrix, output #1
% where Q is the number of samples.

%#ok<*RPMT0>

% ===== NEURAL NETWORK CONSTANTS =====

% Input 1
x1_step1.xoffset = [0;0;0;0;0;0;0;0;0;0;0;0;0];
x1_step1.gain = [1.99931846722096;1.99979782673764;1.99933443106326;1.99988948734571;1.99806868005788;1.9998988648471;1.99860010548765;1.99881172053822;1.99800322185523;1.99930606604355;1.99828652354813;1.99807430559631;1.99897069215534];
x1_step1.ymin = -1;

% Layer 1
b1 = [0.23871401380948439885;-0.39003696030736928479;0.097411048228786087377;-0.15696661902017985946;0.073167506168888701845;1.2477373622045062618;0.74323484863903876985;-0.11077848681027877009;-0.32582983885435268245;0.29172689920571293065;0.14562864579821008237;0.10127342284940135664;-0.47133544081071887533;0.053932568911212896978;-0.6389158686308645807;0.05155148795707154008;-0.49476280260909938358;0.62581817910764292456;1.1598780664665602202;0.098008656993954515468];
IW1_1 = [0.13074372384081250908 -0.76739504479778797297 -0.97342098643197283447 0.16338103009413565414 0.11707109009645373654 0.10056276621925944181 0.37961863052559474685 -0.73512118203663934235 0.27989798282175953892 -0.2707227686491054941 -0.17352112452417323141 -0.13345023703207523069 -0.21279492816569969826;-0.050931202183424006957 -0.071726518338015674003 -0.50389072585147287597 0.81278948678277018747 0.82380297483022868477 -0.01653953230619613704 -1.1631417449016649979 0.40562110805383572165 0.0086015891320471594278 0.21835509881510814512 -0.34906752274672481207 0.00064230094974830273524 0.047458922903130085214;-0.42095114462321880922 0.34124330452817241977 -0.47955428457451382274 0.13187059086260072283 -0.25064356364671019906 0.19718823416020012096 -0.18420510351063240639 -0.43704242380404911827 -0.031529511513110890231 0.2343957189951667297 0.083893167370000271132 0.052824496186485964122 0.055206184580340947332;-0.1266219709750524558 -0.13314581584752901988 -0.14450949084521405585 0.57716939731195504582 -0.21625589716969048637 0.014004582182678960295 0.33036779490753259703 0.027755437637143668544 -0.0017014609395798068782 -0.073235994071358070934 -0.036623220072243146961 -0.0022819094527453693405 0.015201618162906056775;0.55491325944940428361 0.18592944462121796523 0.2047909851858036312 -0.72617047428064684933 -0.067284421315621956161 -0.065488094008641278831 0.021273881029083258065 -0.28823607981295790159 0.013398469043999310796 -0.028333294385420395439 -0.12788081148487714933 -0.00029970480880433256546 -0.046855078694848402432;-0.68051896827548929991 -0.87444442833948488047 0.57611559052710492601 0.11266713415835506729 0.33784203434132376032 0.47934934977239829212 -0.94505124362829029394 -1.8662087529333537539 -0.075595394550750052987 0.70562721859695787252 0.41628791477228133111 0.025227644458108277464 0.00028040424566065039885;-0.54302116816929402177 1.067896590041604421 0.90268473229642842703 -0.35724533130422603255 -0.40249408698112515426 -1.2636902201532937973 0.31678662982279848226 -0.022015713777999431494 -0.21340670853958573772 -0.19941465025410318179 0.50425631958912353614 0.099482861000649319694 -0.11718373688650850217;-0.4911772601959695228 -0.31935596441625485609 0.28599737912560974085 -0.21287811008684884295 -0.56653092626392076436 -0.067290771383818753781 0.61610526556621136862 -0.05992798909511689448 -0.1180676428666330019 -0.49239503235257847669 -0.25779713498026191054 -0.1913794396780777729 -0.20570500583681416984;0.81649187192567740379 0.37283690235563965443 -0.7460684610442402942 0.11926329476933561491 -0.098990419821916642018 -0.31829698457146654578 -0.24009153246010611626 1.4281885156621620947 -0.21076421690384281038 0.35102768582493187877 0.30538632872534299256 0.029624870744479486068 -0.082473145473436537678;0.13709526706318914124 -0.1037933972810576172 0.28962220723251858034 0.12866556135738510536 -0.14470490066979854737 -0.07490331199923402905 0.26577055482374528639 0.28869495595258937159 -0.01119810937101955832 0.035523847599219227078 0.5777874972022650768 0.02335842665691072878 0.042157871726442572302;0.52326651009889013633 -0.19037783564722324248 -0.50426533953790197984 0.91474881460863721738 0.12829911558021134255 -0.12051388451381571387 0.0645233278571636093 -0.2324094054696315137 -0.32750833216143665494 -0.17661466030364017521 0.34853853059967254691 -0.097782478701647579378 -0.2328467089147850666;-0.91718552295795596763 0.26046085069879848506 0.75830545238617863557 0.16898082864953961613 0.091774265814173666689 -0.081642528309431222633 0.053128671744609279326 -0.016977484671757914203 0.05814892076272298177 -0.22205849666102403517 -0.16854045212329737957 0.099426016214283499672 -0.056160360851890668565;-0.48594302033180442058 -0.33996625864302804088 0.36682491856903276517 -0.43067121591574591966 -0.27710709333690131118 0.33419144587798332857 -0.62372338059709775404 0.46976768582579414568 -0.38702411624651789079 0.62827268373028044568 -0.67772764078398362031 -0.31563764727195808835 -0.23720129140588461225;0.083988238993312147596 0.66648123178902363151 -0.093455038342527413375 0.41171628965297929481 -0.76644268702324935827 0.20215170515750577329 0.26617106034514120827 0.018633965282918947548 -0.21452851837086939213 0.40678200151900245629 0.3203566184727624222 0.05448657931409073979 0.10139340429853589687;-0.10557314519417715371 1.0333627321647416153 -0.0035729584125628694943 0.19810658688690357954 -0.49155480482387492458 -0.035054499554180350296 -0.31164673673874249138 -0.89335347688359956209 -0.10021774131629308802 0.47474796314286982213 -0.24668723261157196602 0.053223704665444446227 -0.017931873981211227803;-0.04113714849303178045 -0.18643375429096453733 -0.083917809280842012298 -0.087264606104990302682 -0.3402385754821392605 0.0050551457979803125081 0.2496713201728101017 -0.20599924069297725904 -0.051625122479783111529 0.091063581357773759617 -0.01222675511230222542 -0.043431592853893370709 0.0054514703166496560754;0.45503590038738234158 -0.027353150369817644944 -0.57541553528535882567 -0.29367956444861048615 -0.87762331173649044125 -0.76924424915162925576 -0.066153300018902641555 -0.24100442226961799053 -0.57283279832611355697 -0.16253360085756612952 0.018702984572008030106 0.10123009232391884382 0.028541653338681933355;1.7429105628463188449 0.691655909459518492 -0.66388493111659885315 -1.2960850458488455406 -0.2460874855035519726 -0.32000635253304615668 0.61692527308280242782 -0.093789449680023298517 0.046839346617010356455 -0.43400287625432959482 -0.32005237180860168777 -0.04906200133926478385 0.010962121921847067449;-0.22986736632002649494 0.80543363632160525079 -0.82848896249399262004 1.4128072390214250209 -0.69521868834634514833 -0.2625486763585711536 0.98812821923681870562 -0.84785006022840092577 0.08155814173088249408 -0.56537333304974812798 -0.34798668935787613332 0.017497262864787567482 -0.092050752834431301408;-0.37809005699878600604 -0.16047420559001329687 -0.036001103216697430409 0.17308991081308547355 -0.55155954860594802458 -0.017261051798990342115 -0.014036023776400445573 0.36170928965392168397 0.15443168330260739762 0.097773804982369719174 -0.10719166026824383797 -0.13634220458552298583 0.27277002333618316499];

% Layer 2
b2 = [0.16296132443190938788;0.32047198335044541073;0.81849513324958267368;0.21153491432373050518;-0.018036101170062799476;0.19438697023567730326;0.063624553007815151662;0.0070954143164035036323];
LW2_1 = [-0.33515978516454691949 -0.23524206252638552028 -0.10647603612113185068 -0.23599361365266430246 -0.21667387241885210925 -0.068266774931633925072 0.35635579216737395258 0.52914233267497901014 -0.026500964276862951086 -0.1847155691103911368 -0.51400694338725250176 0.12127187358104560277 0.28499732600357996493 -0.022951419808175103909 -0.10684307120102153055 -0.31536337373262612882 -0.2534122407650636899 -0.24642678336979120801 -0.37613898190351552353 -0.15584220498491810347;0.026926066582547179135 0.19035977599491088474 0.23570426361440988128 -0.2941034801835632484 -0.076577456055820752878 0.19310906920991710578 -0.073774237593162872439 -1.0287649626248407397 -0.09616222607949853618 0.080422864060427909361 0.12071639461566043006 -0.010483214664186351131 0.54129215667707708537 -0.31789418974554212172 -0.015921282385370716383 -0.1384709015543598154 0.036516789530752456761 -0.20157275600650340075 -0.71707577297696611929 -0.41175839725050905615;1.1225185867316198607 1.2325289310574369939 0.67304377984811858404 0.43137580098694905395 0.30628981380935393908 1.5345750865621501369 -0.63418815557052443665 -0.41300420870095821968 1.6574132926265390253 0.41101284078223804253 0.85897537903630627465 -0.71508770735203142088 -0.89443289360040334479 0.8355118936125525142 -0.90202007146683149674 -0.043513555896435608672 0.46133108865176586377 1.9960088281277035271 2.1780445845320763887 0.056543958647560926822;0.16902669600825007135 -0.47951798834722447751 0.30546369595980998879 -0.027446755654257234958 -0.19023454448945911754 -0.29147636793623427076 0.47165915829660093328 -0.22904464629783297114 0.26947255154200122629 0.23111624326916596628 -0.001133197597508304403 -0.28056256649214889043 -0.40546654073216753522 0.89245450581869711915 -0.041185444969741052956 -0.010215704268754843831 -0.028446293878791235193 0.073660532956964439033 -0.17850391641267734921 -0.20590587520655648235;-0.20016251570040702323 0.030554580685688247088 -0.035002761966264270277 0.9365255303741095716 0.77279962846101057927 -0.002094853812104598232 0.1832064251677649469 0.2596337554874814102 -0.0079493794843446038273 0.24130898837092970566 -0.23155569503968037592 -0.18722521854448506695 0.14206737931453369828 -0.02216785610329485498 -0.063595355422324445493 -0.45887745748755720543 -0.12146514840089152332 -0.1560387586756642464 -0.23046774730751401483 -0.09120177639610013709;0.085303924894151339497 -0.10942511597064845386 -0.084989553468685169468 0.2920484709687475311 0.27124116616553090031 -0.6397985724329614543 -0.28465640822780391428 0.45921133879626524488 0.099205053530971198938 0.18449255757564539393 0.1150405336638380821 0.57564436872896873609 -0.35121224161654190921 0.075103901575180029293 0.40415881600666758722 -0.16964410915328506646 0.14667657781822202034 0.033603352982884290845 -0.044414194050106825529 0.30511263616705686097;0.27110816344908822417 0.48344601924908736645 0.100220797487920385 0.08279753075819278052 -0.24551239956555295785 0.51690312427528306571 0.47395343611818779861 -0.27592768608628170934 0.39781503250568661656 -0.052859229003030284988 -0.22777259209514125193 -0.475650587559823812 0.21274856073324685535 0.3145640579002385584 0.17771801063106276719 0.12452526724943964453 -0.25380530178381205397 0.49286670162376050586 0.35504164575889829436 -0.19838841693590744675;-0.061873417724696400111 0.015683485328101699069 -0.0041276402897542311538 -0.23041501264211680655 -0.087543773443733985395 -0.014433842419912816871 0.082798679385170506628 0.10394207564850949099 0.072457270595785258638 -0.022101042771779703944 -0.11557177599150346425 0.29397451233650456759 0.075146642354785686546 -0.10733286419744884899 -0.048821576012289126523 0.45887752242959006788 -0.071077605192379419985 -0.054620634994726517675 -0.16688614814962104971 -0.018672736335481051467];

% Layer 3
b3 = [-0.78839351715276395627;-0.65890654171267604156];
LW3_2 = [-0.291083077876041596 0.19194298517280580785 1.2637542481196339939 -0.11039731841660943568 1.1127432674965298531 0.33934153397451494172 0.25675710756278508073 -0.84215422395293060287;-0.55496748218189928537 0.13537374253350209496 1.2887160764095999532 -0.088141362978745071977 1.2216550825678136327 0.29185935085545711143 0.18193840988876699982 -0.12022940872724421912];

% Output 1
y1_step1.ymin = -1;
y1_step1.gain = [2;2];
y1_step1.xoffset = [0;0];

% ===== SIMULATION ========

% Dimensions
Q = size(x1,2); % samples

% Input 1
xp1 = mapminmax_apply(x1,x1_step1);

% Layer 1
a1 = tansig_apply(repmat(b1,1,Q) + IW1_1*xp1);

% Layer 2
a2 = tansig_apply(repmat(b2,1,Q) + LW2_1*a1);

% Layer 3
a3 = repmat(b3,1,Q) + LW3_2*a2;

% Output 1
y1 = mapminmax_reverse(a3,y1_step1);
end

% ===== MODULE FUNCTIONS ========

% Map Minimum and Maximum Input Processing Function
function y = mapminmax_apply(x,settings)
  y = bsxfun(@minus,x,settings.xoffset);
  y = bsxfun(@times,y,settings.gain);
  y = bsxfun(@plus,y,settings.ymin);
end

% Sigmoid Symmetric Transfer Function
function a = tansig_apply(n,~)
  a = 2 ./ (1 + exp(-2*n)) - 1;
end

% Map Minimum and Maximum Output Reverse-Processing Function
function x = mapminmax_reverse(y,settings)
  x = bsxfun(@minus,y,settings.ymin);
  x = bsxfun(@rdivide,x,settings.gain);
  x = bsxfun(@plus,x,settings.xoffset);
end
