function [y1] = NN44(x1)
%NN44 neural network simulation function.
%
% Auto-generated by MATLAB, 12-Dec-2024 22:52:28.
% 
% [y1] = NN44(x1) takes these arguments:
%   x = 13xQ matrix, input #1
% and returns:
%   y = 2xQ matrix, output #1
% where Q is the number of samples.

%#ok<*RPMT0>

% ===== NEURAL NETWORK CONSTANTS =====

% Input 1
x1_step1.xoffset = [0;0;0;0;0;0;0;0;0;0;0;0;0];
x1_step1.gain = [1.99824389297522;1.99898573719818;1.99887410983903;2;1.99825225451932;1.99858018040057;2;1.99850486607459;1.99910620903833;1.99940213981682;1.99805938481093;1.99953951736803;1.99867528409042];
x1_step1.ymin = -1;

% Layer 1
b1 = [-0.69174845936272022495;0.24016919719295248825;0.16317715087662526541;-0.033647222643977098278;-0.023787396873377560091;-0.047520293992905332514;0.06645137288000162179;-0.61271348508212353234;-0.1304002951865712856;0.28037159836715730421;0.52141996115658106881;0.26532173267207637135;0.0040448225921204082611;0.51980179156537054119;-1.3625382331250228685;0.4673417367241245457;-0.29135536223749042284;0.29136060708048538981;0.18755001752641184409;-0.24609586484808745888];
IW1_1 = [-0.52603049261209755549 -0.29579837112903129004 0.23629320922569727048 0.14626170059686138814 -0.21190364721730911568 0.25741992235850874593 -0.25783959098295949897 0.084602974612917908326 -0.12738217287436098824 0.77778530360492226237 -0.25314735969334378751 -0.049496168719304581285 -0.10597695049579596016;0.1344291193948708163 0.66048236194644993624 -0.33258211042014784731 -0.24422511873515700964 -1.092726586121726573 -0.91767117508770912337 -0.11101900299204711664 -0.7841366764117734256 -0.41752236532165293292 -0.24209575644175093667 0.0033567769884427930104 0.082485828086373655377 0.027458525467915984725;-0.36264934550396565882 0.62060607766724029677 0.30607115378317600873 0.077633030648484091518 -0.10697764075378438098 -0.14100375681079335699 0.1661363579062298812 0.43696558148023645352 0.033877514692616170211 -0.16994313401566862876 -0.1268174497202624873 0.12077130764933895202 -0.062155892034345662511;0.25364126339378739727 -0.17369004316269623378 0.15974996377166053585 -0.63315574810393171479 0.58191174743703910632 0.46509640135482693823 -0.53344428233015728225 -0.35941080444679268657 -0.002065814030497375043 0.26740909287306813269 0.11947811453430791373 -0.0042698968764773581608 0.14330134883560419201;0.25354302510235943169 0.32472408242475853113 -0.41424106532871762809 0.44107990788690248918 -0.13901716382540912909 -0.33621041461213946322 0.25400371287418366251 1.855771016117013561 -0.060993901423427657194 0.045061952233922501765 0.051525573886752704111 0.027506681468856611361 -0.10241724834139029343;-0.18427623652300195722 0.13786515062086751593 -0.032396472129346008673 0.52318144322945681068 0.39673697865394763618 -0.21209303984804186993 0.051883214562947331527 -0.33483402200736356313 0.45132922090770416501 0.12959204742738072991 0.31114939616294706726 0.37084956380268119247 0.36658076459164884442;0.040130584968774245247 0.055884700670489229068 -0.54619713059600050187 0.89300610635157984252 0.22673373846980651725 -0.016263916655336812384 -0.28507078748465713991 -0.22553092118503015318 -0.071444023619118182666 0.16560597137775984189 -0.08068776283821926798 0.010090731925482236339 -0.038861972106048164877;0.12934298576106553758 0.33833436156894619584 0.65709857979609365142 -0.47868865142453409511 -0.29153074211507018498 0.073165430676607204341 -0.16000669814783824441 -0.12480580067654901966 -0.017460861073893604173 0.35743531390006250126 0.11554574801436283404 0.10625847365832047364 0.055810634811428720681;-0.93432751252830970046 0.30556214241402884779 1.1197665034551731456 -1.1407358467932915413 0.17103434626550356734 -0.34667289456286792815 0.38200434759902995863 -0.302906521803475548 -0.033088830650929913768 0.27234360410812052944 0.55487889994613026623 0.15827195581329006613 -0.11802938595327644444;0.18519821867890781664 -0.21237671842640906683 0.11371875507716054654 0.13069154555686998687 -0.066577917690651355898 0.18549028562354383243 -0.15866191337737708955 -0.017373794709611506404 -0.010999557136085993253 0.008353569742466692219 0.20630362370270918793 -0.044566687156039952455 0.0062710754775059020932;0.23844924563332905998 -0.10293104759386093039 0.15597557588833285691 0.084477705150377432886 0.31481101923336263226 -0.25130767650240287692 -0.010402124009902428275 0.10521412617325795469 -0.13466960136365596634 -0.33111968614201769956 0.36976561809360791733 0.050261685495452776418 -0.12732880586000031031;0.88019653599092917418 0.57199024076646109993 0.27778876024631371511 -0.48873086953359307083 -0.38056583905789803657 -0.53771179703120819404 0.12605273871410810349 0.43365903595069987819 -0.068835331243881220376 -0.26816367144404551492 0.14380516197854611993 0.0037268656075082591886 0.21411933748301600899;1.2417298306192079416 -0.43741166401975234423 -0.80029515324437583423 -1.1502618782580322776 -0.11501570195683959164 0.22415831961498489111 0.023990227647801891375 -0.7564635505748389388 -0.059107503080321151245 0.0838663390765532063 -0.30416184388252504034 -0.27063852085551948212 -0.040704238879126421191;0.71162764285648327789 0.69320835315929085763 -1.1816106235258507784 0.76664911869686114265 -1.1583971130391554905 -0.4558979683246004444 1.5237265562280120079 0.088150633931333127746 0.094766714997647286123 -0.98581567111400381087 -0.079807248954712667333 -0.1283708614759425104 -0.088004461863699590118;-0.79617388640888619999 -0.81195028108171107828 1.0857849337866876116 -0.66615036038181130174 0.61899155477508993606 0.40877583473167400374 -1.1637824804693450709 1.3617362000661228372 -0.021433974508049076502 0.65122604989900334527 -0.42016526364737977195 0.010418900348150145901 0.083833468077243358807;-0.57316949232554392779 0.91376165351502114387 0.89752942941909641394 -0.25203551000471358101 -0.53545351209696800954 -0.91284778236857599953 -0.44595557321246226401 0.052177559994802738541 -0.11300330242827172356 -0.025047098439087058658 0.083412796644094039378 -0.060403242250009564485 -0.39535363917435462078;-0.25626351454049151046 -0.24302365402944964279 0.077476727844051948568 -0.21999833761857917613 0.20302863662671144507 0.072907819953940480873 -0.12786768093250491796 -0.39296137276547160599 0.051337685825317530552 -0.24892937604609749469 -0.16163968872518563735 -0.072959726324473103687 -0.02111943143323667671;1.2723060404774606535 0.35298949666812984294 0.40295643835421668388 -1.7695344148313127963 0.0818214784681641355 -0.13541045271182625132 0.0030090833136656078804 -0.29648360314211014144 0.036423521052565993594 -0.13466436558276773106 -0.31252777030292439031 0.050093553608014207423 0.017645748722716840529;0.0020828375640024269361 -0.69053313685459027926 0.77635714053503790399 -0.48579276510147573198 0.18210137889054492377 0.055887083577944141055 0.40645633685292492654 0.14648449705917990227 0.16749400881103249095 -0.76704724231517884547 -0.3014722453995876128 -0.088106922149310540338 0.052734961931931952084;0.30445725626402247999 0.01846072817967159968 -0.17648002400189596872 0.1251657502352330753 -0.13719454957306095877 0.038728457871176652505 0.22563933792009990831 0.1625337098661295554 0.021918798730110065909 -0.010335409487073426993 -0.028153288207219170913 -0.031532572062612528041 0.0071490333128468109072];

% Layer 2
b2 = [-0.17473584016486623516;-0.16631678868114019298;-0.066119527525422203129;1.4535511531629830007;0.063506389979474636709;-0.070342637339204386326;-0.14825828195679452426;0.22713577378178870236];
LW2_1 = [-0.31493863898868240669 -0.1113197688611992503 0.74218620813067126551 0.052091607281342142133 -0.32938445978713426499 0.3991525422938084211 -0.17721670837442066171 -0.77712090362636532248 -0.334896870538109237 -0.40540408940804134597 0.84137688960154066731 0.13350855335210085051 0.24984997268280303984 0.59136368901136360243 -0.10995494758755529341 -0.18354324334049582079 0.19418395991013515101 0.1846559447998132597 -0.22063060038408777164 -0.69306824663268784548;-0.0081224299226677360714 0.13720836112245363148 -0.36253322605832677406 -0.28139342487628976608 0.15975039478845279306 0.055356310082423865193 0.29151991276873945313 0.14382236254804528497 -0.025233837806277369803 0.08555608419565989553 0.031927804787394077624 -0.15808841119100605632 0.070019061744482788412 0.049719505200758448704 -0.18521672343858583409 -0.11368507848811533478 -0.15143329757757517662 0.16888971959462384387 0.12517926270888460327 0.099836505817274573404;-0.0023685297815895555232 0.066331936279055300765 0.19079228407133708156 0.061725810091326792362 -0.55005040334597998797 -0.13792300123442507997 0.056814504979031170417 0.033052354993537494399 0.12605847506439515904 0.32362965887158268163 0.38768436227941482919 0.031850873371489583918 -0.35967794179839202018 -0.27617209514947760329 0.82191376162782581183 -0.06500507853128031921 -0.015786369382104994963 0.15991163235947927768 0.16120918780734963538 -0.079734976295795359502;-0.71301503615583405882 0.46560820243856854139 -0.39749451264833562947 -0.98463868771144225089 2.3148296267545940275 0.79917343214805935947 1.1620102356091510654 -0.95814733080864944448 -1.5783227831621751136 0.59716764719492820834 0.28308641178538607175 -1.1780127554370725118 0.98817633418870642892 -0.19233591442060182786 -1.8321120385414155773 -0.60486460604072267433 -0.56604716249962094832 1.9853123671162566932 -1.7259225797978208217 -0.056202035928509919138;0.035982940156124174069 -0.090794747268448203203 -0.0098116238231711373763 0.4996673914102544023 0.048808507324419811435 0.034316210694777526946 -0.0078848660040568563367 -0.19641993784239802912 -0.069291338079825182117 -0.018545774741890827531 0.22638419133636231151 0.05081695647965681073 0.099236824000156820258 -0.14258333222925664852 0.31007763203694521659 0.20978148320420580974 0.22996770870098756645 -0.051710438656265435287 0.069231736146485520211 -0.45706329126968592291;-0.18878577207005403649 0.087830730185348079853 -0.013644786522035236981 0.26716643625056119005 -0.089919719153184488047 0.057098791521141042948 0.58878585943714800699 0.094014044705080623832 -0.053215866302810242716 0.13584797424391989451 0.38331197106879166814 -0.13380390640835909677 0.038048436024144670353 0.1114434184083380186 0.31830609263682146937 0.012330205708447380952 -0.13612947813182155188 0.22941486732352731059 0.18556799961710407354 0.033079073020875017497;-0.097737859132776785942 -0.20600603489969615545 0.23296586525443446769 0.30107839165794164638 -0.15789204354359195892 0.0098039249758676959984 0.23783514634411581645 0.046839472931562424474 0.091062883274210498774 0.2675388915829396419 0.20286185075443333159 0.20550502501250095255 -0.04880229985137563703 0.093311210934431787489 0.49191007919586748898 0.26244098780433061657 0.12768725301406183559 0.051861143368257062169 0.078038912511706512443 0.25707640750086790948;0.12863789498169245218 0.16227173271545602962 -0.0051430429067672893059 -0.015421907936147994517 0.19891583209461963233 0.082378454849299578844 0.47694436761744207764 0.79602049825359555424 0.28622357760491945466 -0.097382423892933500653 -0.27609401870870348139 -0.14727683086251835975 -0.052595749702742999876 0.98564282190280261275 -0.18475715716418750212 -0.040504016840239361053 0.027478785532410652387 -0.13924734776663233449 0.25209632280822064088 -0.31826161568019112336];

% Layer 3
b3 = [-0.84274407496448822119;-0.6903719793411210448];
LW3_2 = [-0.24084182906715823069 0.085106637511451699307 -0.42993404855913541773 1.2663381395735504586 -1.3093295533445061807 0.93055879008298525434 0.69406438343269860614 -0.55090664845149506235;-0.15198067343096230419 0.63213768982759865889 -0.20896540103720828707 1.2772073325251755982 -0.9722280941181149494 0.45121215131082853533 0.73102183407632614909 -0.45371400347699664124];

% Output 1
y1_step1.ymin = -1;
y1_step1.gain = [2;2];
y1_step1.xoffset = [0;0];

% ===== SIMULATION ========

% Dimensions
Q = size(x1,2); % samples

% Input 1
xp1 = mapminmax_apply(x1,x1_step1);

% Layer 1
a1 = tansig_apply(repmat(b1,1,Q) + IW1_1*xp1);

% Layer 2
a2 = tansig_apply(repmat(b2,1,Q) + LW2_1*a1);

% Layer 3
a3 = repmat(b3,1,Q) + LW3_2*a2;

% Output 1
y1 = mapminmax_reverse(a3,y1_step1);
end

% ===== MODULE FUNCTIONS ========

% Map Minimum and Maximum Input Processing Function
function y = mapminmax_apply(x,settings)
  y = bsxfun(@minus,x,settings.xoffset);
  y = bsxfun(@times,y,settings.gain);
  y = bsxfun(@plus,y,settings.ymin);
end

% Sigmoid Symmetric Transfer Function
function a = tansig_apply(n,~)
  a = 2 ./ (1 + exp(-2*n)) - 1;
end

% Map Minimum and Maximum Output Reverse-Processing Function
function x = mapminmax_reverse(y,settings)
  x = bsxfun(@minus,y,settings.ymin);
  x = bsxfun(@rdivide,x,settings.gain);
  x = bsxfun(@plus,x,settings.xoffset);
end
