function [y1] = NN56(x1)
%NN56 neural network simulation function.
%
% Auto-generated by MATLAB, 12-Dec-2024 22:52:29.
% 
% [y1] = NN56(x1) takes these arguments:
%   x = 13xQ matrix, input #1
% and returns:
%   y = 2xQ matrix, output #1
% where Q is the number of samples.

%#ok<*RPMT0>

% ===== NEURAL NETWORK CONSTANTS =====

% Input 1
x1_step1.xoffset = [0;0;0;0;0;0;0;0;0;0;0;0;0];
x1_step1.gain = [2;1.99802693947723;1.9984797513314;1.99843923792115;1.99809567884804;1.99868525670956;2;1.99849486853985;1.99812253589002;1.99825224148298;1.99836904335073;1.9982075357803;1.99869720816206];
x1_step1.ymin = -1;

% Layer 1
b1 = [0.043918608490728906768;0.071278565956827091843;0.013756465062388631426;-0.32840890068277522884;-0.43511125517188242728;-0.29928992470818455152;-0.049293217296859502541;-0.42304490161709262797;-0.28626434351594975958;-1.544003787671322403;0.56450983054990289123;0.52845073855324065093;-0.41623943842982452646;-0.28772872175999625322;-0.44935677139666746482;0.13598951556222618753;0.3030013558404991425;-0.16818738493101606513;-0.081172716268758229874;0.19145507625035368404];
IW1_1 = [-0.59497072084069058118 -0.30453609027369471507 -0.14426095600235411265 0.15314537363403923909 0.07049144373627169724 -0.065121783705779603957 -0.11795924531585158523 -0.18234339241411043342 0.12260750373703656335 -0.090140766575244946068 -0.27122720842759856508 -0.015310901894685565242 -0.099226273461175434898;0.30355560775296752674 -0.10130999549731044274 -0.44784994367118280412 0.093712221903100467735 0.048196590293973218255 0.2745788178418705483 0.31192307437311778129 0.25835855899817988801 0.16725212527325022949 -0.18278735084212158202 0.27189585812225891548 -0.068082383201757523672 0.044080515707601339304;0.56251435372022073889 -0.59056678556745656472 -0.45751939533379387681 -0.12902890762822999404 0.39925311947452651884 0.23683647415480665877 -0.40779455100263667378 0.29313085832659396823 -0.034298786139520510974 0.29900368846505914755 -0.26339160987013354731 0.022916956548180242997 0.052978255080910412189;-0.22953798736623398646 -0.49621843877023247282 0.59124362800430707576 -0.16970226185575140732 0.65686736479025109592 0.49520457935782929981 -0.65528824432364762842 -0.12166573179921884307 -0.11674264588866448134 0.43840061560054865986 0.029272399777647832575 0.097019561372384294229 0.06926966690997213294;-1.4814846910705308236 -0.84323850617212869896 1.4376409550121438397 -0.26413384243926196771 0.58580856907138956213 0.5770156478387391541 -1.1427144018811801196 -0.23364436560496057438 -0.053866032011256143042 0.83427665144292750821 0.11661555660956056391 0.01173929194127445487 0.03372832864661556157;-0.34326088851742214691 0.37244782729140413213 -0.076035935174027943773 -0.11226625642014982642 -0.1758576476867177163 0.095716664810236953831 -0.018045591273297054841 -0.47718624910956886076 -0.049469795567104117573 0.32516070418606829451 -0.63944380426775238035 -0.0014538579639219685255 -0.016132268032210846792;-0.54179041503913849542 -0.10594753237125832668 -0.13988035581084967696 -0.54519459888757015875 -0.2115678202672985897 -0.057522213508150787931 0.044924173286232473024 0.32957425600880158045 -0.70758863639515856558 0.24212676324628162883 -0.2455893767568655961 -0.59124431965545654055 0.28990954917203398677;-0.26029009082372683848 0.36313876625980662238 0.63400131883465182803 -0.32381715117216841593 -0.36595110501204120013 -0.40672677747025726136 0.48414462506255900864 0.85796460744350289129 -0.015824570400271201209 -0.32217475542508150488 0.093568163244627078345 0.032948849467801459567 -0.068150385412722155887;-0.0039642531232257178717 -0.18934839615042955985 -0.94678707197687239638 1.2238487433069338284 0.52524577100961789 0.11766670120349267958 -0.65897332901885452561 -0.19297434674860935999 -0.060467379947746043023 0.25305575212029346455 -0.2214233929364084752 0.044291255973539132851 0.032974578122033762484;-0.74414737884101178622 -0.90878407058021537512 1.5588998994136384901 -1.308015945898366672 0.57721625445482527272 0.45185370801826840736 -0.92422563822200165529 0.97949701025261748377 -0.038587931384463459994 0.52643717573040760271 0.075016661800918552072 0.026814954140494774021 0.042270266153770698347;0.24027432463452530476 0.40509599204988133714 -0.1285668910582154767 -0.2524474611759722209 -0.33611210829906235098 -0.39014080474743456639 0.021835169284958499264 -0.26317866680373708244 0.094159514998943080744 -0.15525050064155032636 0.15604250562659277568 -0.039075424964006927331 -0.012312263581341270635;1.0774480950762601594 0.58674536559571810468 -1.7479201486696800405 0.720130850422798785 -0.38475520906789179021 -0.33771889044344477471 0.44388997264451862668 0.85945811959981111006 -0.11543648370756642851 -0.13357007803199980045 0.070799101143100770517 -0.099455101066322396108 0.027895924017495823261;-0.1314892682162413784 -0.026730968928285671338 0.33344606489212846867 -0.12203638489706418457 0.073178605243872804631 0.18619920690879326886 -0.45249147527130945123 1.084998996480639688 -0.2197075898153857676 0.64042543861632694746 0.0063500072223087507955 0.16883468016483543783 -0.044305303235873817747;0.45483610637324817239 0.64767986286288448117 0.18744017780947905272 -0.27223501675794398169 -0.4026202943441401505 -0.54582258377603776189 0.46360708519336274458 1.1926816178061228069 0.018520234012993644357 -0.24052091038994502514 -0.22659865656384906019 0.023141280910112693725 -0.086717818651350350723;0.37889011759847690541 -0.32783892572729067538 0.048603799135670436304 0.15900952933677517387 0.066493930750054996981 0.1370739053994378398 -0.22439175142844711153 0.40656925629458590121 0.086154118753353381432 0.045540517060364299473 0.0092904594420519549802 -0.031464674781618337529 0.012195227407746088086;-0.41037095085069552614 -0.35849557050641656097 -0.033622718578402821521 0.13232740631336051274 -0.39630236248630679174 0.011660632686226668139 0.23127729520939538377 -0.013266377447723937122 -0.06030676170188269819 0.19511694356105113712 -0.056534464386588614837 -0.009069463013704488763 0.008063933411152721803;1.1688644423528373739 0.31800222713788361961 0.51248815957225402062 -1.8896688638098015911 0.011464415033127020593 -0.18894522481585585005 0.13488946768280582478 -0.21128566031508044798 -0.0061774988399922615284 -0.2122072319364191606 -0.094663928962763307928 0.054678595247554841186 0.01299197483967636825;0.23831461076331977855 -0.14422698273357845156 -0.53872687558435028432 -0.049921174676952888294 0.47764920697220103474 -0.094243024134223155053 -0.088848773595364860522 0.22944611905853518063 -0.00035982413674960980754 -0.29571320829701019939 -0.37710328298184864204 0.11721468182490604737 -0.053780197369039502153;-0.28570685523447986176 -0.29050137824679161946 0.22816115094700317734 -0.0650915204432652994 0.74805061575596454304 0.95209811728689031085 0.35936822545531504902 0.54762721965824245896 0.71604161674643562741 -0.050297279203319146534 0.24883450849231766866 -0.34963626138727188497 0.25355386981147437497;-0.13142440194993340596 -0.29722081132896494005 -0.048575472126668406414 -0.072357881211926669551 0.34331500118666968824 0.089433989706313152257 -0.30886104700935057554 0.45251366335027881638 0.028071043826090248674 0.006012436979134637427 0.0056749720757601190141 0.0052107942607186770456 0.020669380098063502849];

% Layer 2
b2 = [-0.037515248773973483565;0.21939428655942289081;-0.42121283239018836309;0.52807935769123859338;-0.83150262203374292191;0.064164138671028617122;-0.97948947539707464927;0.015080105931219677656];
LW2_1 = [-0.054142337643423792126 0.066423179495828460484 0.4109786055637481561 -0.36466426932752527001 0.3102194490226830581 -0.16535648347277762116 -0.028550594305066602507 0.51895144556525563129 0.16100023471583804757 -0.33049220033912701799 -0.25670346879823713326 -0.097347727944181380866 0.058168845492611580272 0.35909492535229314836 -0.11062771973506686785 0.2485275383398361515 0.14182786250213086365 -0.34044588607812548142 0.077754083540623589177 -0.53463795196943975085;-0.20903022846323024431 0.14693933458077090837 0.098526940762219461512 0.007394704162972104769 0.27737624596127613552 -0.15859075509242559487 -0.033194837016861641898 -0.12585164194912915048 -0.088564385286831970312 -0.1849884962988668502 0.03401855039787916174 -0.0084506910422618396195 0.36579498184107411829 0.2719559016517599237 -0.19180630632889636433 0.082184224915035200554 0.31272138965498907925 -0.023911102021620205677 -0.10316946820910587179 0.26282041784157134101;0.0023093414258457132041 0.24368605567989204408 -0.1396089838682411377 -0.034451320988717726301 0.72616752643880255746 -0.13174142070349831313 0.073564349520650024195 -0.1270668888479631331 -0.0049468199788986564475 -0.2185276133711770985 0.052100381113123775401 -0.25122543332647861991 0.35641208044286959433 0.33940683371985641559 -0.5778436159746067613 0.057645783650324744496 0.18769637013841125595 -0.066693707540726690497 0.1338942450259570649 0.35542976241827978212;0.14526722986804771476 -0.080198661105924218262 0.073799669999334668868 -0.016925553319504314798 0.71706196578168024391 -0.30385138602324079926 0.12534587641448086126 0.29918831192976569344 0.59826652805916358258 -0.19651597064499440326 -0.3908384351815708535 0.26111857875838234699 0.26195276472850137495 -0.20980377251629528379 0.16603646776151578801 -0.63043517453441089149 0.23649361723705594751 0.17023145375437509497 0.14215024762114644719 -0.27185940287561866091;-0.8035644507442686324 -0.43332007695569174643 -0.40734461304443064789 0.40854226963385975591 0.28736487859654358257 0.3285152453594715749 0.52948607977494055454 0.25583220398878492308 -1.1989220389623160834 1.9003048226388403741 0.6868850166734018492 -1.9926244593521635906 -0.80376912452372373252 1.3819324970574504707 -0.49611861852702676678 0.23191712186326504663 -1.4235244603149395104 0.9556168896031196347 0.3920455529941643813 -0.069308962044823077542;-0.088397101958076901296 0.37690776341027087959 0.33088856465220861658 -0.24322650033658338442 0.607867373964806057 -0.29466581492722976332 0.0098340097299122273405 -0.25521417407106056219 0.30043177647516244866 0.025810993756958083845 -0.053665758065407520583 -0.13149465680393360167 0.11124737345485447015 -0.35730249709235789579 0.043010658172948620925 -0.36224856156526569206 0.50336295124710062066 0.16479873415015020011 -0.062324050103028563741 -0.7579643908887918613;0.3185120383350216744 -0.049929778125086768381 -0.45378999931533936518 -0.28229220231789414752 0.63640277292722258196 -0.25278500100625500568 0.50320436963235182226 0.74378319653497748654 0.41279730316170282212 0.33531422722708276174 -0.17938289240786531309 -1.2549484730839459701 0.59132462705074795295 0.26933443702446541179 0.35023234029490868391 0.052486476915138996491 0.40549938701535326313 -0.19853973634879076848 0.33036605832213084 -0.089826175916002476418;0.18108462239356437617 -0.24199534345914661126 -0.072063266844990273019 0.0073651910153962850403 0.24304486216054355108 -0.2220890186209476258 0.052406810708269024879 -0.061399318952418853457 0.019129224866290137075 0.064917163166646391081 -0.15542641286922026511 -0.064639343304211741015 -0.081022053833184629057 0.002517113581728010023 -0.11844259591413404398 0.097096113488136598368 0.043501299626894862627 0.018036349402809223608 0.1159838086956868769 0.14605497339669656909];

% Layer 3
b3 = [-0.45550551703574471141;-0.54838517724636615114];
LW3_2 = [0.88152261800226205946 -0.46302897730260689224 -0.51890125821191379618 0.50826328908289164499 -1.6813970141641032541 0.61792444939007162841 0.8388466356992789752 -0.87189377469851725433;0.93220953807573725403 -0.17488824485447174162 -0.71143931148491756922 0.39690430783365926448 -1.6338391919112047468 0.56253290211712758673 0.74137916531199676839 -0.27166168829282955066];

% Output 1
y1_step1.ymin = -1;
y1_step1.gain = [2;2];
y1_step1.xoffset = [0;0];

% ===== SIMULATION ========

% Dimensions
Q = size(x1,2); % samples

% Input 1
xp1 = mapminmax_apply(x1,x1_step1);

% Layer 1
a1 = tansig_apply(repmat(b1,1,Q) + IW1_1*xp1);

% Layer 2
a2 = tansig_apply(repmat(b2,1,Q) + LW2_1*a1);

% Layer 3
a3 = repmat(b3,1,Q) + LW3_2*a2;

% Output 1
y1 = mapminmax_reverse(a3,y1_step1);
end

% ===== MODULE FUNCTIONS ========

% Map Minimum and Maximum Input Processing Function
function y = mapminmax_apply(x,settings)
  y = bsxfun(@minus,x,settings.xoffset);
  y = bsxfun(@times,y,settings.gain);
  y = bsxfun(@plus,y,settings.ymin);
end

% Sigmoid Symmetric Transfer Function
function a = tansig_apply(n,~)
  a = 2 ./ (1 + exp(-2*n)) - 1;
end

% Map Minimum and Maximum Output Reverse-Processing Function
function x = mapminmax_reverse(y,settings)
  x = bsxfun(@minus,y,settings.ymin);
  x = bsxfun(@rdivide,x,settings.gain);
  x = bsxfun(@plus,x,settings.xoffset);
end
