function [y1] = NN62(x1)
%NN62 neural network simulation function.
%
% Auto-generated by MATLAB, 12-Dec-2024 22:52:29.
% 
% [y1] = NN62(x1) takes these arguments:
%   x = 13xQ matrix, input #1
% and returns:
%   y = 2xQ matrix, output #1
% where Q is the number of samples.

%#ok<*RPMT0>

% ===== NEURAL NETWORK CONSTANTS =====

% Input 1
x1_step1.xoffset = [0;0;0;0;0;0;0;0;0;0;0;0;0];
x1_step1.gain = [1.99922877120228;1.9999069911461;1.99929493838962;2;1.99871146932654;1.99996777565457;1.99894916956151;1.99859280952032;1.99810166928771;1.99931015395489;1.99839614933749;1.99800887449259;1.99875473290939];
x1_step1.ymin = -1;

% Layer 1
b1 = [0.24962277283938757999;0.51896478882350238759;0.01985888146139276958;0.6122245589302881541;0.35345284160659340422;-0.078558236215522367352;0.1322239702172965381;0.82214825094754773183;-0.7881690987345399968;-0.15554341503594062979;-0.13862857313849483165;-0.16647227669142738993;0.19113629099460566207;-0.052337715395764199122;-0.69318976572906665368;-0.40258167126567651062;0.32852214186018108277;1.3472141707801825738;1.1518188154910291576;0.061064359801290331309];
IW1_1 = [-0.35340910850983209279 -0.2519326021755174394 -0.16464798036306618756 0.21276541712571606091 0.26293949391478121935 -0.0064819363057531465336 -0.010723456613566046194 0.22508526177809892732 0.069217971356508159464 -0.29926206519638381964 0.12253905005853943377 -0.04329368676600253707 0.08846505332535169186;-0.12287569710243891052 -0.14461601810232257992 0.40644067258346999738 -0.64681145537975015536 0.26571385795741697677 -0.029924728504801639123 -0.45503039165564518331 0.01691185838310767936 -0.045569522361610367844 0.039930618547793499118 -0.14768303568089413691 0.036949120520673520152 -0.0017389347926827056386;-0.32448008215300505608 0.28464699982750590879 0.50081707457759239155 -0.45337893803928847047 0.082728144526626606892 0.0045532731025170608552 -0.049355306639599277885 0.053308165941267832144 0.07368021513243824816 0.076409088919676682039 -0.071077998842666689772 -0.094376119426701959858 -0.039931294546481616026;0.37641583919624538312 0.47795427855342781376 0.067652114534889937203 -0.27238690928076486619 -0.18284750308173081113 -0.18752707278169963856 0.3962845788253231416 0.19876302638633835951 0.051304409465380007571 -0.13445180853728885828 0.15021564938239662101 -0.13327823967849133924 -0.010199893898367756728;0.58418969247446528303 0.1206631878782818551 0.34698855119756055743 -1.0170328805416186668 0.013735488237612626314 -0.12415432183772869001 -0.052964493339640081326 -0.15919326282439669185 -0.051501721605266725934 0.0020367204913162512483 -0.41150569199327990955 -0.059399820761191449159 -0.03074955269803983024;0.18565671728534702267 0.22493651323112098805 -0.23214809934776778344 0.41216234335154527946 0.4901195689597254157 -0.021448178758187601278 -0.59066427661815923411 0.14867303579215318532 0.10242120983669285306 -0.098417169094617021341 -0.069167601895323393979 -0.014100779433198656551 0.010445615764234392892;0.33248326776378328562 1.3624839804774042662 -0.0015867978962602461747 0.18391846229940952973 -0.64370338612944977275 -0.65722474602972291713 1.1335507850439372479 0.59859245452096876416 0.12818044673522918653 -0.96323440141177862905 -0.078813724573528767814 -0.04531016322831413895 -0.072118254764151484837;-0.33579796859736998904 0.99076048779281389312 0.34058324483088608936 -0.025647358553685609822 -1.0142815000942557724 -0.69869146315652974621 1.257508269896170372 -0.44500137419633978286 -0.02422152628532471888 -0.79478240405537536883 -0.20082749188208801061 -0.021866810982630671689 -0.1518485110948544492;0.16222554196279673211 0.68117532900678823271 0.50464448948117546223 -0.22689451553780445869 -0.61299666558156096219 -0.50041183883047735126 0.7636896557432915067 0.70428723249798386163 -0.049177448061668994905 -0.43511515257157362679 0.16451239757931490626 0.031982887816401725511 -0.081626611213893446317;-0.49536904817185817285 -0.23112722942456007114 0.05054528768384012466 1.1120909344048164336 0.013143656761343332218 -0.2915206975185413163 -0.12786007705821048064 0.14604135422971953329 -0.27518380352549670631 0.0033127995812994893987 -0.0041091128994632433041 -0.066402664081139831098 -0.10746535859423061998;1.09486741095888096 -0.44223551942876887511 -1.0563497434814110854 -0.81471883396602873262 -0.30710322818588803306 -0.041112204706785351882 0.047542961229950705948 0.13645892888166466506 -0.16864104754726558233 0.3017209232860264545 -0.90394622312106076567 -0.07863165408631851705 0.016318171999551659562;0.2056276632229996626 -0.36435443763907388037 -0.44075064057636109682 -0.66562302956207997084 0.092225919181787630041 -0.46314920932854947155 0.0033371413359059298731 0.22116296850910308058 -0.32993177792395200765 -0.22054290446692126348 -0.036358715970843079324 0.49122636950241260756 -0.1450778778065154595;-0.055195459202686023015 -0.055977513522546734626 0.21706127759367613295 0.29585127631749741361 -0.42914449410989347067 0.20419902991854393948 0.38053512787185450605 -0.082145646312885955975 0.10466675511647974273 0.40027409272497888049 0.25985528591418188826 0.026741370154429525141 0.022563561399999494672;0.01008370749481800506 -0.17850927787990167328 0.37677116356669859698 -0.068681148547500736612 0.4308167726435571665 0.53916518751540654097 -0.46920958373355331483 0.45984360258795070608 -0.0062423641274455621622 0.37847594913163118413 0.17232022806340685506 0.077975346283860810792 0.086752598459597887737;0.18257691045660504048 -0.17278645928275354615 -0.18343298033535812563 -0.038450565263769269364 -0.26507593171657256592 0.19526639009065821506 -0.42163096530656124505 0.19916260179290362631 -0.26637111088514947577 1.0361517015360677263 -0.55314792884432617548 0.074581035082650529167 -0.053467831247041679166;-0.33120165487068792265 -0.77217855744823515884 -0.48313146927408434639 -0.22699467591581792836 0.50134075573707581608 0.69465062043861169894 -0.14929211649256646233 -0.71399948698985526985 0.18778434246456748857 0.024027450652258201119 -0.10143245755267414621 -0.064161659645482857495 -0.014554476715800792122;-0.58412534139577265702 -0.26573040953387128127 0.56166966691048181293 -0.033669081556280580636 0.065444508168365791989 0.32436330680618902234 -0.23668768248080346295 -1.6755337266040370992 0.080283097552190624269 -0.0089171209184702032724 -0.15176461806942678767 0.077728123170621971072 0.047679626399756598609;1.2959546217739583707 0.19241264116993106459 -1.159029105908983226 0.040707615457428382444 0.17870341500134467871 -0.089028979282428311048 0.29968017533939467212 -0.39303417194152417968 0.039149634637390122449 -0.47013952115005896992 -0.26734223282125035848 -0.062682805556610599051 0.029725188855435309004;1.1966977870373223247 0.40034764370035508252 -1.2195840025864905787 0.99529919598551164217 0.027272747884865774365 -0.013958429025721129715 0.19646371986561267375 -0.96147667581640028356 0.19888618296697435639 -0.35644794455093836705 0.41077952191870925613 0.2723216299778531968 0.025413280483705946722;-0.32269926983792185382 -0.72780095904757613479 0.45968315743961912778 -0.069708657891213207658 0.40303403282751970593 -0.039574684763560047385 0.15924481260278069983 0.10468794464253206034 0.083117556972629333401 -0.74745542000309406205 -0.19980711384124003049 -0.12263541639099814762 -0.0049220907354817697299];

% Layer 2
b2 = [0.062385593141167761111;0.55043991078614573631;-0.56816648905062028252;0.99997590206072417551;0.087847876747511516315;-0.47217030903147483301;0.47177815143269585807;-0.19979161855198038222];
LW2_1 = [-0.012099103303300015252 0.37569488246306848023 0.36489290977496136037 -0.026059162706270445203 -0.15053992889657405452 0.10145698985122519886 0.048351603154623751246 -0.16734032954313934893 0.12692378682607910467 0.085623549476975202577 0.01418299354606713733 0.029084244318549820618 -0.40440509293326692974 0.13066315789628699107 0.36218571291626516784 -0.1129828291120847511 0.34462025077424790487 -0.12215527899143727164 -0.018382251904815554572 0.15155082412775927603;-0.19169953310164902782 -0.31849243011128763881 0.042215631535524988927 0.17231938332757876231 0.16799033430017398794 0.58815884053352396332 -0.47463693715866966949 -0.17496343285683288449 0.15720053185447566135 -0.005759283665543901698 -0.23284038285464794815 -0.13390353114583342098 -0.47148867130137228632 0.18182534133878044957 0.20634933948889075395 -0.1287229823569901177 0.14926422492209409643 -0.12310632297028809012 -0.12610766134358147861 0.17679128911677871594;-0.32551585571098534677 0.53093161575585412493 0.31207633766010639542 -0.36632480659017957469 -0.38481760037356949056 -0.14847080473173804305 -0.026446148083350877467 0.032649381461797202797 -0.30662414745202720701 -0.020221327539728488343 0.060014860967179409212 -0.096790260192324575894 0.033148541330422540141 -0.01825535765778571462 -0.29591773144910671345 0.34383888850036509188 -0.066165129569002167909 0.25651884010485265231 -0.15732385202212678665 0.015514744141248846404;-0.12886877682899164355 0.69503466581148609649 -0.19922184744020329794 1.0596133346438436629 0.29142252071357327425 -0.23366686644951217833 0.42196252389640448444 0.25017650488847886781 0.16781171673170702796 -0.51904449108397821 0.14234780476176578379 0.040111112441770034598 0.42516748929264336354 -0.018763549399979873034 0.38475572161168353214 -0.14171287637966267781 -0.27796137053537456341 1.4601314304729544613 0.8977069806024617904 -0.29644641850061642652;-0.023244402524348704159 -0.044646551999278763501 0.06357020057962520232 0.10645786546126323469 0.0091384448930266724831 -0.060764019666965624067 0.32534990145368331005 -0.020879910174617509477 0.10954599806241543947 0.0088950528324158867344 0.12003155072552826321 0.15186116463637727714 -0.13583122110640707958 0.27279332314775417423 0.21854532949166549649 -0.029380382355693259594 0.2731215182473350489 0.074943975071234625318 0.02928299681069757715 -0.042811126850473481265;-0.36847176140425014212 -0.16963615802252401954 -0.27732566996136687187 0.13703010067122123328 0.46911016700120317102 -0.026701598705617005797 -0.088872684130970047711 0.074896259861448419293 0.16978419727360033464 -0.40573437820623603489 -0.33740449245353787422 0.063260610072590428565 0.020371881351180093356 0.29005667172330629189 -0.2337492060713696751 0.028013203841060371063 -0.16952744516336065717 -0.18761007271461738188 -0.66589901940768447819 0.32471685637896674503;0.34645115746314814054 -0.22855367676756660478 -1.0111833004608958841 -0.25147642694423527621 0.66543861477070398447 0.41861275142017340123 -0.29006115146319777498 1.5822508504956458442 -1.3519567092322892776 1.0143231185314081078 1.0721263565099568016 -0.4768269034988057431 -0.031149406440807613644 0.0058648322573961299622 -0.52542739795820392334 0.85862692169715970625 -1.7843012637144197718 0.92471291866135629789 1.8213208555032873726 -1.616532223178440919;0.16040275245878904409 0.18122664295851398375 0.37334453095633257647 -0.0072781187576075254131 -0.23095954386634490185 -0.19789194107824709112 -0.30284429405224577714 0.15646807512215149538 -0.035435207147817046613 -0.2219736034841047756 -0.27676458490267347168 -0.10999249972399109676 -0.36978527967476371163 0.082115493579118029044 0.025540134319797354323 -0.36875062727409457786 -0.19273341513478581266 -0.19845105362485737643 -0.20849848046889091213 0.12970060244145636963];

% Layer 3
b3 = [-0.286226134418836764;-0.13886208517705861398];
LW3_2 = [-0.61969115335664559652 0.66850149576991990674 -0.65141163209056085481 -0.95467994601607442107 0.0773443261577089064 0.52169196935034001239 1.268306759039800502 -0.72802234041312818835;-0.20660669407046325374 0.39809731625943689526 -0.76908869490843567718 -0.83277884763900700271 -0.46503116234039781896 0.65796714892440877342 1.2481672815057205383 -0.8773503698637123982];

% Output 1
y1_step1.ymin = -1;
y1_step1.gain = [2;2];
y1_step1.xoffset = [0;0];

% ===== SIMULATION ========

% Dimensions
Q = size(x1,2); % samples

% Input 1
xp1 = mapminmax_apply(x1,x1_step1);

% Layer 1
a1 = tansig_apply(repmat(b1,1,Q) + IW1_1*xp1);

% Layer 2
a2 = tansig_apply(repmat(b2,1,Q) + LW2_1*a1);

% Layer 3
a3 = repmat(b3,1,Q) + LW3_2*a2;

% Output 1
y1 = mapminmax_reverse(a3,y1_step1);
end

% ===== MODULE FUNCTIONS ========

% Map Minimum and Maximum Input Processing Function
function y = mapminmax_apply(x,settings)
  y = bsxfun(@minus,x,settings.xoffset);
  y = bsxfun(@times,y,settings.gain);
  y = bsxfun(@plus,y,settings.ymin);
end

% Sigmoid Symmetric Transfer Function
function a = tansig_apply(n,~)
  a = 2 ./ (1 + exp(-2*n)) - 1;
end

% Map Minimum and Maximum Output Reverse-Processing Function
function x = mapminmax_reverse(y,settings)
  x = bsxfun(@minus,y,settings.ymin);
  x = bsxfun(@rdivide,x,settings.gain);
  x = bsxfun(@plus,x,settings.xoffset);
end
