function [y1] = NN69(x1)
%NN69 neural network simulation function.
%
% Auto-generated by MATLAB, 12-Dec-2024 22:52:29.
% 
% [y1] = NN69(x1) takes these arguments:
%   x = 13xQ matrix, input #1
% and returns:
%   y = 2xQ matrix, output #1
% where Q is the number of samples.

%#ok<*RPMT0>

% ===== NEURAL NETWORK CONSTANTS =====

% Input 1
x1_step1.xoffset = [0;0;0;0;0;0;0;0;0;0;0;0;0];
x1_step1.gain = [1.99844198103516;1.99863096149809;1.9987733229892;1.9999113267082;1.99801710599321;1.99830757126245;2;1.9985582183288;1.99882890638257;1.99818978022182;1.998320732398;1.99855688720498;1.999510673809];
x1_step1.ymin = -1;

% Layer 1
b1 = [-0.25635269850080938392;0.19557787729643349994;-1.0786096397982678496;-0.37417527705586767217;-0.5011815439621294388;-0.87970583670791391295;1.3984106222975125622;-0.1879539159469117704;-0.41528719716730438938;0.38794921989271891061;-0.31519284865004670859;0.42402893931569152208;-0.84262975096464987068;0.41020986120323382762;0.020632494472131654439;-0.039817182270088742613;-0.26247292897889340502;-0.62649088709695710531;0.96849167812111824905;-0.67735377480525349458];
IW1_1 = [1.4020603862700182773 0.20421133761210119584 -0.72291729136288074287 -1.2401846056809442409 -0.010629203960683576355 -0.10282867456016288321 0.01174582996015060242 0.17457247638815001634 -0.12146687567706487831 -0.013503093091410459797 -0.17741439078752901937 -0.035803797668380953068 0.035518979741169597053;0.6215499987992616493 0.31821484514833792145 0.020768531628718264748 -0.53832049584830132805 -0.1549785170272663104 -0.12286146891169681672 0.1618095182143801658 -0.39851291939347116555 0.025118445735298880472 -0.1168780530409445767 -0.08310041907108578485 0.019933326156768588905 0.0092240048733089729377;-0.7531565314062790284 -0.25260538528450304785 1.2437419106825791104 -0.82471459046148498651 0.32092158039694224092 0.14317666174568083326 -0.46168509245833649901 -0.066398624223172039716 0.019190897152361156841 0.097387284937958062958 -0.047764134237317859566 0.033309542247965798212 0.015371665624407296336;-0.73911667587711871175 -0.59024929172855000736 0.53920933430425155297 -0.12020596589555951339 0.0072866807202439281069 0.50320737105039747838 0.19335363361255727965 0.35710843808851500114 -0.54186554297357225618 0.024753769180630838531 -0.2739406263459914781 -0.71355403248660442816 0.24196163883531185412;-0.25496384169458835567 -0.17622514869514463443 -0.27934358092045552535 1.1217659000215887133 0.056503378742071654062 0.0082557526048245254147 -0.15498007170865343851 0.040948305002528696817 0.0074738955819939377825 0.0082453552489464218556 -0.14612591763312685056 -0.030455988567113935483 -0.050226829477046500139;0.10896430023464837022 -0.32883104854241862469 0.056930494320760985372 -0.22202371299167722452 0.21284393631896794674 0.23698516379271233889 -0.08797338859274785039 0.8881036252925068597 -0.010937936216536155859 0.18374964279301309045 -0.012341872733952409524 -0.056284960850465429183 0.043630581052342548576;0.29123677930352959153 0.98087046155145152238 -0.50816136781905885123 0.7550278680285599231 -0.71846134153072038764 -0.60657048912379485373 1.0013003709694823229 -0.87333373658616664237 0.008312273520331493401 -0.71132630266737817415 0.14538861826008428468 -0.0058928170563582338987 -0.11132962714065974819;0.31721533385088274137 0.45463442621171440416 -0.06882528331687494394 -0.70840963878460649905 -0.63685277761230196791 -0.41283149109832734114 0.15291538249218530887 0.18654776698207342633 0.31539242059265037987 0.22343513509273338347 0.18637187456793141704 -0.15149656072913797455 -0.14618291336565170102;-0.19202604913407003706 -0.65174776317037708129 -0.023366083894671783872 0.27431587743589747053 0.80756859935909508508 0.55964035578166115847 -1.4373032050057623632 -0.16232517423242395771 -0.086026860810371738597 1.0149793618971991727 -0.075041380324697148918 -0.12780229961279651607 0.13105810612315701991;0.025842229642783150906 -0.45814095681306959973 0.17638733053752461699 -0.034286453068083949658 0.23975517079850741653 -0.11494570570062129233 0.70681465007987798188 -0.22396498901138617299 0.090755479623294277314 -1.013137120104886213 -0.11005988383503022277 -0.08965047590282701484 0.06709899473544254922;-1.0878206689790663741 0.14881634800684243047 0.062136295870438472411 -0.027443892784739160051 -0.035657358321913516785 0.26556263510594607657 -0.16691631825888689211 0.45924001172973077933 -0.044009583807072406858 0.31850427213628101919 -0.28313036739194280544 -0.31927297379449981474 0.08480213835576996817;0.10290692797595464569 0.00037975576572704195302 -0.22822117300194105782 0.55374948194853035321 -0.073655872716630849117 0.049319688114651732969 0.094062684330748824735 0.095897614652003110303 0.013160780533078515753 0.04568843777918577681 0.13499813085434120286 -0.0021912782522945728828 -0.010259220050094336116;-0.04100286130472181878 0.63756436244026903903 0.32426867140769161102 0.027233678449030220003 -0.34571551259625832309 -0.58933603651311650129 0.34033342515348463664 1.4461794847709974476 -0.10270101314386295699 -0.2166828741205898412 -0.03033839143389058593 0.041583224638676495599 -0.083600327406245053541;0.401085944829956631 -0.43093502881868761545 0.85728710387841033924 0.45800165213432103561 0.52581022079038519657 0.52019248630557168855 0.1478125928534476663 -0.03341396212856585779 0.30655387309954307273 -0.62494508273919580077 0.60275087419187822757 0.6949992234926540835 -0.21481350015548283938;0.27049269960582933425 -0.25515375065538614674 -0.01565509945541368117 0.10280103894386140306 -0.43573687065128202667 0.33119983564238208995 0.062186698720848955502 -0.068127309311385997326 0.34538906003934971567 0.48689030277934219892 -0.13300277405435409483 -0.49995743859306629453 0.16778045668713642558;1.0530386134737172998 0.55984146187816341556 -0.16048409133490285083 0.15233813875977381125 -0.21260831872292196287 -0.10997280920068036592 0.22952150249397607062 0.093371417605916301463 -0.018730219690532286941 -0.034856568530458001409 0.035631826285554120404 0.065492026330683156266 -0.020567917916637635384;0.10043261694973266984 0.23169739174230438716 -0.45978857452876242817 0.084634595218951946816 0.51301188357572102827 0.17263241156867578652 0.031245125353077884967 0.65280702158217795983 0.24797592770458667943 -0.46017565168490631722 0.00033466080138772492242 -0.32104719322899316625 0.14521562065577831024;-1.168122469469063951 -0.40879998437412251588 1.9017621661587242876 -0.75078036483056909134 0.24392526717138443559 0.067988668725542267257 -0.43967595650019253295 -0.55047006244495366722 0.11084471987008664984 -0.0485306808012536256 -0.072600568209572544087 0.04022655268393767608 -0.036388080908893262466;0.54289962394917024024 0.27789446273034151824 0.19269256115946090113 -0.25680334998124998425 0.048464639656793588596 0.45128068392455056301 0.84432058248599972661 -0.39347720813771269732 0.4132715774354537297 -0.16733426854312757892 0.7559861316467219039 0.036358715710909282615 0.01025473855249162819;-0.80741134342331899454 0.038984517240869452637 1.2496725178370557963 -1.0148254596331680588 0.24859277622331663049 0.27901006341592782256 -0.39290428815779332439 -0.1616800941088034349 0.0088244144945530886281 0.15934816081957872691 -0.095053955470360218527 0.042413150285967898823 0.040963913001266630265];

% Layer 2
b2 = [0.25237272049941872343;-0.42602929121238525267;0.17589764861009971053;-0.34760940677137558419;-0.35026138472869405849;-0.29861735275246054089;-0.24778608596098022909;0.19007929427378308929];
LW2_1 = [-0.56674982426733500063 0.2912873446439085412 0.35377670855145731954 0.12461186054404602142 0.16361550989671441725 -0.1868369716045923945 -0.40659227558559285498 -0.27136291238632376244 0.3912638080811313146 0.00034693567985410143917 0.15331939067602798343 -0.34749860255309911183 0.67300957644745929009 0.76283072933311257824 0.024544720252561113422 -0.42773465378931102565 0.03487440160219233698 0.75201252988189870585 0.3246597079314799128 0.20609536447759360667;0.46027642424905507168 -0.18599703895755506644 0.37936560219057879895 0.054187340596526398229 -0.23401121428614973796 -0.020680178679553701954 -0.24257497561184315771 0.12155438414088692856 0.64475205199164153935 -0.089328997920309044511 -0.58015726645013465657 0.15024842483922729031 -0.37743768238386593561 0.043132327776485873683 0.097947058834425032581 -0.33595689266697187358 0.037345373861534553184 -0.54386420036632265873 0.056828703737079898362 -0.20030889395001894027;-0.092389536884040238118 -0.10897702771170517111 -0.52854547870464985149 -0.036313923769170197708 -0.30531831297489259169 -0.4973566125681268546 -0.36498308102087378968 -0.35652537543553591837 -0.33292225084174187355 -0.19319441779443660701 0.34938890824369595034 -0.50771869068872066411 0.37070142630062330458 0.16866306943347841862 0.2438560814896729434 -0.085311653886146143755 -0.13387283295207499934 0.21516313854096696945 0.14263364810781975489 -0.01182474898982532191;-0.023712666732185520846 -0.82212724628032263219 -0.88582020410118156306 -0.017633662118553987408 -0.36800527465209842415 -0.056681186972229784249 0.021750010426257512103 0.12441847478266201965 0.055416269731180689551 0.061724464720722148348 -0.19471501518521613927 -0.7857706217156332773 -0.2089616669012483996 -0.084138927794652970671 0.0028691910521151794619 0.082203377678704503406 0.01985448307410960303 0.031300597362572402105 -0.068437890225710812375 0.21975202237481519796;-0.24137545811793312267 -0.065694103774725787215 0.31383247706548078604 0.04313613521221655589 -0.091339729514366904684 0.34605001044482625039 0.10324444136369798075 0.1546187003325071585 -0.25148531887747571645 0.30342559874747382365 -0.32011930713686542749 -0.52618031896750971921 0.011990024965367253318 -0.066212459565877415657 0.28903941280784106738 -0.15839769656453822622 -0.36678517818241296311 -0.25436384130828454397 -0.076625743608218971348 -0.24355454488046685002;-0.17174540307683633378 0.28597064775600533615 -0.50040191085382401681 0.21422661021122460512 -0.040772125380455187527 -0.16905811111847737771 0.6587604313774926279 0.16464620151906761425 -0.54900817180107108761 0.070838058686454985491 0.078156837599011846907 -0.23467507374823609601 -0.20089949319468508593 0.30034103776708465094 0.27230736647211278845 0.13513834768864085856 0.05466817923590962941 0.17506495473831967802 -0.12965473387820733442 0.36583151963483950819;-0.68686569196458624464 -0.38251487259060856783 0.20490266005595889065 0.0041019735162315584462 -0.091356056939152635588 0.17976704487076036743 -0.0055915589953353921765 -0.26962759427489374486 0.29369376648516981598 0.012904680686117922864 -0.2148735265621179169 -0.55189197275019052924 0.25106332976737183449 0.81682568624708240534 0.25648367765712987154 -0.19844446698044201916 0.051000336774753761426 0.055503279118618145671 0.20451593640404439056 0.6840015126163641046;1.1004514171342365536 0.70125937068220822734 -1.0220801510924795164 -0.55559736856039243502 0.89036902866003764245 -0.18789933717880172304 1.5355458692408261445 -0.67511812777243707107 -0.2383277467868530064 -1.2280584545563661969 -0.46617721041915632929 0.25129221627114550763 -1.928963376240576677 0.12876930860690929959 0.1409058041360445046 -0.094554982109190666151 1.0907959287070552179 -1.5526214250528846961 -0.87490572811780076279 -1.6102657962255657598];

% Layer 3
b3 = [-0.011269814130093022686;0.16612415218672108019];
LW3_2 = [-0.39177975402926706883 0.16702344488299988856 -0.54929149773464225337 -1.8952887216116649505 0.17088715814670674131 -0.11566784421396153482 0.26208178648920404941 0.61759215110789933423;-0.23820218830715980673 0.16420481500049052825 -0.51449972825101841778 -1.6625485003305333631 0.36515420292274691771 -0.13199614308035059751 0.14888411114267918745 0.61167032077314098526];

% Output 1
y1_step1.ymin = -1;
y1_step1.gain = [2;2];
y1_step1.xoffset = [0;0];

% ===== SIMULATION ========

% Dimensions
Q = size(x1,2); % samples

% Input 1
xp1 = mapminmax_apply(x1,x1_step1);

% Layer 1
a1 = tansig_apply(repmat(b1,1,Q) + IW1_1*xp1);

% Layer 2
a2 = tansig_apply(repmat(b2,1,Q) + LW2_1*a1);

% Layer 3
a3 = repmat(b3,1,Q) + LW3_2*a2;

% Output 1
y1 = mapminmax_reverse(a3,y1_step1);
end

% ===== MODULE FUNCTIONS ========

% Map Minimum and Maximum Input Processing Function
function y = mapminmax_apply(x,settings)
  y = bsxfun(@minus,x,settings.xoffset);
  y = bsxfun(@times,y,settings.gain);
  y = bsxfun(@plus,y,settings.ymin);
end

% Sigmoid Symmetric Transfer Function
function a = tansig_apply(n,~)
  a = 2 ./ (1 + exp(-2*n)) - 1;
end

% Map Minimum and Maximum Output Reverse-Processing Function
function x = mapminmax_reverse(y,settings)
  x = bsxfun(@minus,y,settings.ymin);
  x = bsxfun(@rdivide,x,settings.gain);
  x = bsxfun(@plus,x,settings.xoffset);
end
