function [y1] = NN72(x1)
%NN72 neural network simulation function.
%
% Auto-generated by MATLAB, 12-Dec-2024 22:52:29.
% 
% [y1] = NN72(x1) takes these arguments:
%   x = 13xQ matrix, input #1
% and returns:
%   y = 2xQ matrix, output #1
% where Q is the number of samples.

%#ok<*RPMT0>

% ===== NEURAL NETWORK CONSTANTS =====

% Input 1
x1_step1.xoffset = [0;0;0;0;0;0;0;0;0;0;0;0;0];
x1_step1.gain = [1.99859770486017;1.99811502025072;1.99878246675721;2;1.99829100222065;1.99934948129925;2;1.99858097778059;1.99803515871553;2;1.99834300810052;1.99802707461076;1.99889913531229];
x1_step1.ymin = -1;

% Layer 1
b1 = [0.32164309488520964608;-0.24882029538147260039;-0.39989414149991753256;0.95012242081647624303;-0.42878329266536008291;-0.39818844130354646982;-0.42203220848720851555;0.20752511605380688509;-0.45429802977740058045;-0.10946956741072616515;1.0729067378204764083;0.18409645795461870854;0.30462565786061263085;0.30872734885854558051;-0.5221459070179611528;0.41234952663592522315;0.032413135339515876387;0.56205331675377490086;0.14382799272049384687;1.5479251274399703497];
IW1_1 = [-0.21535120076383018617 0.35929587900617709906 0.16957218645807942137 -0.89364772937783976126 -0.040831521126630403173 -0.56054469659142713844 0.24287882089808587871 -0.030723715237531593752 -0.14453111601718796053 -0.21260275510050111181 0.095131180931691830538 0.013874194485803225188 -0.13351520631473737244;0.23409088464892713333 -0.67484349532429976914 -0.069423534384458085444 -0.27503397864950784868 0.32968808646910835458 0.20771547536998832828 -0.24307728902008288174 0.32575682839232839028 -0.037622279796983092159 0.3421397391885802608 -0.13045064471565012698 -0.041393531197762609142 0.036763742329291367039;0.23289578522702358843 -0.66526060344730197915 0.35148521672033045116 -0.38044621547498563841 0.72334593565868388065 0.40499628625467737342 -1.1867373927997433292 0.61506776895417902828 0.044542615930705173333 0.39128769782451422454 0.13052918374869762475 0.23364750508557458053 0.23727428976906295155;1.0633272821012076381 0.56392127100703626219 -0.098791604106454905532 -0.80607673834944104652 -0.76009772175274203931 0.0025456019943164900216 0.90710918451311051136 -0.38130087481961738582 0.13110330956464422147 -0.29479937330348393587 0.10775316855942290717 0.065948438997518107896 0.033370525012731418191;-0.038797122327770140748 -0.95254847613885906821 0.21192344869281345976 0.35540999144043528002 0.68168361599274718277 1.0253243106736711354 -0.34850483756429306847 0.66940636825617538808 -0.0231012124093916138 0.53647570020134571767 -0.10599305178861850862 -0.21140504297363163499 0.046257710296870035993;-0.40546575085437780439 0.77709180103628450187 0.84331535152686132317 0.66900913225283475949 -0.23786081476368037269 -0.34379579616878042092 0.13071966995888548158 1.2830648385896330499 -0.045744626312594183215 -0.22178843437705061947 0.23666790874192111804 0.1737688913353486464 0.12834621440819146687;0.60442237132140808065 0.27293459432670091891 0.095106764216219746855 -0.38077313403684043269 -0.050627679239973334691 -0.10198642277311857629 0.13938875384829588211 -0.095858962430745070504 -0.11965974957132882728 -0.027094881938271149491 -0.19272979733497788701 0.030085603171340624673 0.018273965613087590765;-0.77278113038205709096 0.55246292597712542971 0.2397095923171347065 0.46629785636006887417 -0.34255324114488860943 -0.47748001244745341687 1.0013403933169107152 0.38637478872216951542 0.17024719272097721401 -0.84842865802678590903 0.15429106756158422753 0.129376780761660648 0.077182448808223225178;-1.1538752387612989381 -0.9262508051149711541 0.93961505755357810354 -0.16587051386168685796 0.23538238835712910202 0.38989156433276994651 -0.24820160934228160943 -1.2232290800465586145 0.087990486025881317622 0.13878141950987510356 -0.40073866939150865063 -0.032849446895636340293 0.085689059249472385171;0.50137118735703145589 -0.17268824079232952817 -0.68858168257586682692 0.39667581718106759148 -0.12339925450359555403 -0.010757510758933669023 -0.15733938427150725992 0.19468368396888455218 0.034296434399623702827 0.0022125588136309194687 0.17766659294438141847 0.1520380057832995957 -0.11454852647197612259;-0.2890285026371849364 -0.9751205648109633195 0.27767967006503935234 -0.017417908687098797305 0.58033628782289314874 -0.001079603033681474436 0.41891276884101957823 1.0412603516997349651 0.027078125825683009575 -0.93997564643393727302 0.12960798340597434741 -0.14547667868286504045 0.00056167932429418768181;-0.2586210739592142982 -0.17062698810825158158 0.018276585621263843895 -0.14536946231030153931 0.26736094372197111158 0.16998948726245968754 -0.30424249122189583883 -0.34907544163719994579 -0.0054495521483017188638 0.10429402620721349437 0.19392709437485761148 -0.026703487539656095562 0.02990370339403231395;0.31040843482303237533 0.25034532352514859976 0.24859849979740794579 -0.18441089910822361375 0.033028620390928520312 -0.13273175664078290525 0.055208496232483764143 -0.041834768785199795416 -0.011826761934773043564 -0.22253185407193828982 0.2602759789396490997 0.097744623996953799994 0.0043487056397811252317;1.5575108714910150809 0.025005459577827286732 -0.70452793009527703294 -0.92589285599732007448 -0.18520963266959478144 -0.0053553892197284007348 -0.023191538046118839039 -0.010798055568861063269 -0.14318360636684149267 0.17251486139868879577 -0.61541497351784124614 -0.05103029072642762537 0.099543251304732058293;0.56176445827082654993 0.29242293558152326893 -0.4585407934647100503 -0.45034094425445775345 0.44586837157959857691 -0.0082191236390266805834 0.53471854751704950282 0.447696934729789775 0.38749218520291267565 -0.26888926345137892371 0.20700875764178458538 0.20587666439685831099 0.24235728578383078369;0.56592418509818454009 -0.17444120141596611284 -0.27554203812437116916 0.03067375196380366098 -0.24379029042228633761 0.47304583814222661564 -0.017283193351961545492 -0.022560485457933831394 -0.18718118130588809467 0.61150742418203496431 0.022677403325517327126 -0.015656993566292631836 0.038671783031651987828;0.014811196929981292059 0.052403516634212395087 0.23172042935149680942 -0.27092850943842017308 0.52870697131436272809 0.043050116325897086478 -0.86386944216032623967 0.56103298284105207472 0.040765008457943098519 -0.098120738380116812039 0.11032009430402930916 0.0013625645307940707253 -0.054437280199425307214;-0.23299225328571265825 -0.095896765690047791608 0.51409965259209233768 -0.10686354092402776395 0.11319243877317831937 0.26640339713433053292 -0.2595455847814945316 -0.5669043175571393256 0.16710762331147099857 -0.12349564144035009294 0.45811720981353420967 -0.0091520608136457792803 0.037834986980952008129;0.097300700891531269332 0.21347089002439131877 -0.3844887219673820411 0.20910577678522135336 -0.032292335202245038561 -0.073874427629737837719 0.13799193208497290142 -0.1649376474171518614 0.064867880595038784897 -0.10053901367373022091 -0.02377590282990935458 -0.10520188228336858904 -0.020944986349485675281;1.1585809100220563206 0.83584178005955545032 -1.3096469233272258759 1.0790367678628225434 -0.14620015554978221806 -0.25508756080257194432 0.25475367382414731976 -0.99815484259774434062 0.082114303411284783607 -0.44594911775725898373 0.17032654949966125058 0.079967083770740618465 -0.067438268886232097254];

% Layer 2
b2 = [0.25948797712871068954;-0.55637421652975393993;0.52984465634970057124;0.1381215638154618397;0.39328912011137900917;-0.52641529144876642032;0.41847002698519969455;0.37783146898883268605];
LW2_1 = [0.052637150379219010965 0.068248779609366830301 -0.14597972258121527656 -0.77017285890546738347 0.10393341895707668143 -0.028868230179888758336 -0.15509220110776411605 0.30150194880688546695 0.54173143152079750173 0.28750255925752171704 -0.033820914251459707756 0.32924351601473206275 0.10824816136084416951 0.028317412661698272702 -0.034423129094126730942 0.054624642123865439769 0.25184283288715964 0.17072753970276796642 -0.18855081049032218488 -0.44052992665869122879;-0.11088491268041596183 0.20439873033044494988 0.050462745787154754395 -0.67457687865370807856 0.079147414144972394467 0.9736679138299365599 0.50014557629720501897 0.010568815666021243865 0.86754767397353771408 0.17845722732631280616 -0.51295939964982251169 0.092789452938528957371 -0.52352880031816872997 -0.65140901958648456116 -0.25109486054845459035 0.039049976014728676743 0.021632469956146177514 0.032880415602132506692 0.41230146380123289251 -0.7560981546747470583;-0.87058536548814968725 0.12862242333152423823 -0.69229760666632944588 -0.73585010939971240429 -0.62932140616196419192 -0.88781706146677330516 0.48670426643827419122 0.72964034122757226442 -1.5771231659945494918 0.8028921832092642541 1.0670374714390860049 0.94905942151310718202 -0.47880853204273643442 1.4653776993057696654 0.37058274342944030888 0.93276805592847356063 -0.7271179984783382455 0.41342008529230406255 -0.042213271851743457141 1.8505820558751693294;-0.44997077106220467746 -0.23581079663516008038 -0.23286877277471998426 -0.12954214095925800643 -0.23878677547598109454 -0.32286753167466097914 0.19128210959025745974 -0.059907451022078846148 0.065479638059445274823 0.17278455437962761398 0.19818324135322648583 -0.39563759135190640359 -0.18623285254714203041 0.19637885728316867295 0.33264158998890042129 0.24062123576513277934 0.43485826157984913687 -0.30302620416884057386 -0.15278546837523132584 0.38393269894047193924;0.0014733101297523965717 -0.04157354440858887501 0.59284590357346134137 0.0038978564192853597942 0.21102016434390508115 -0.10085998700578774345 0.62026723343535583588 -0.21584729792578608021 0.47315953231606927565 -0.19093820031052879949 0.12893277802596059267 0.22396175762658673825 0.61244933398211132136 -0.41480024721606190141 -0.26227105325009836267 -0.051950698264575351226 -0.0098980964310805691353 -0.033177111428820786621 0.61494578356654905349 0.12640378301288326957;0.063852857249865474509 -0.33936403988898811157 0.26715911509228074117 0.86508219226056715101 0.040530694200998265697 -0.2646258333455051015 0.069623317256558972521 -0.11608561397583366803 0.12621398044817971895 -0.21677395516880515469 0.15805698419894995133 0.45661773482728079676 -0.31318510177134673 -0.21312131953626298198 -0.071940185200842290958 -0.45766911829059719885 0.25267464551886226198 -0.56260706356191092503 -0.31739589621424191268 0.15734619747333147832;0.25153480145673168256 -0.50517844915666232364 -0.024114463252215254802 -0.15733642180369381003 0.23099659825286583681 0.29050557777352697952 -0.13171140187147542533 0.014510714202650647209 -0.10099378692387650513 -0.035055529040229238547 -0.15697096818555461573 0.56612225818931227739 -0.13081799656907869278 -0.082136888768887264534 0.039953453533560931432 0.12449419641493174316 -0.085049971220576073283 -0.12285998970788572504 -0.011300561788466344931 -0.40696297611524601123;0.31741124250465974077 -0.11408407135435486013 -0.37542812870037084449 0.087902898032525697558 0.1042896087697705032 0.13665325604454028885 -0.15604943977169469238 0.16639955713273926752 -0.20889947346201673262 0.43210661470008293605 -0.3012776130422915033 -0.36668834910010245087 0.2572851345006835766 0.2590744889917305227 0.13556298283847190156 -0.29655708501108851705 -0.06936277277293047272 0.0031781891214529437231 0.22700993331235466699 -0.98246395453236712303];

% Layer 3
b3 = [-0.49059021441721661905;-0.26082024578966689354];
LW3_2 = [-0.52836123289800218661 1.0917142254604019769 1.3580213496474948798 0.33840781906034833604 1.0053810596912677866 -0.76847389023034351485 -0.33914258465300650691 0.66709129620564555641;-0.40614883664074830083 1.0409927487904793164 1.3176528974355403712 0.11332237131098019112 0.81003246421822872048 -0.74468515805046742173 -0.61112271566523845845 0.59892455180013315363];

% Output 1
y1_step1.ymin = -1;
y1_step1.gain = [2;2];
y1_step1.xoffset = [0;0];

% ===== SIMULATION ========

% Dimensions
Q = size(x1,2); % samples

% Input 1
xp1 = mapminmax_apply(x1,x1_step1);

% Layer 1
a1 = tansig_apply(repmat(b1,1,Q) + IW1_1*xp1);

% Layer 2
a2 = tansig_apply(repmat(b2,1,Q) + LW2_1*a1);

% Layer 3
a3 = repmat(b3,1,Q) + LW3_2*a2;

% Output 1
y1 = mapminmax_reverse(a3,y1_step1);
end

% ===== MODULE FUNCTIONS ========

% Map Minimum and Maximum Input Processing Function
function y = mapminmax_apply(x,settings)
  y = bsxfun(@minus,x,settings.xoffset);
  y = bsxfun(@times,y,settings.gain);
  y = bsxfun(@plus,y,settings.ymin);
end

% Sigmoid Symmetric Transfer Function
function a = tansig_apply(n,~)
  a = 2 ./ (1 + exp(-2*n)) - 1;
end

% Map Minimum and Maximum Output Reverse-Processing Function
function x = mapminmax_reverse(y,settings)
  x = bsxfun(@minus,y,settings.ymin);
  x = bsxfun(@rdivide,x,settings.gain);
  x = bsxfun(@plus,x,settings.xoffset);
end
