function [y1] = NN73(x1)
%NN73 neural network simulation function.
%
% Auto-generated by MATLAB, 12-Dec-2024 22:52:29.
% 
% [y1] = NN73(x1) takes these arguments:
%   x = 13xQ matrix, input #1
% and returns:
%   y = 2xQ matrix, output #1
% where Q is the number of samples.

%#ok<*RPMT0>

% ===== NEURAL NETWORK CONSTANTS =====

% Input 1
x1_step1.xoffset = [0;0;0;0;0;0;0;0;0;0;0;0;0];
x1_step1.gain = [1.99801299873638;1.99975224231688;1.99890396327049;2;1.99829361108268;1.99861693153792;2;1.99816607977383;1.99852006994015;1.99874855972469;1.998103563741;1.99938263015931;1.99855642962877];
x1_step1.ymin = -1;

% Layer 1
b1 = [0.17883290533274528999;0.2268305551261187436;0.13426106176688082372;-0.16920528027860837206;0.22950326438634538473;0.62014066644786325355;-1.9036017622450069897;-0.72088132147057770727;-0.41118200104858787514;-0.13827112510554637193;0.42567196884013897007;0.010224783234623065209;-0.17798209617236804281;-0.37615768021873019489;0.47238127494844855958;-0.10398268398200372076;-0.47439465994297724816;0.054151299656715230768;0.35777381836237182045;-0.71379980265105480441];
IW1_1 = [0.058976395987929391973 0.14530920796042329224 0.23729925333858128966 -0.61320073689201426426 0.22421540969047584757 0.00025261323412278024678 -0.26930190849789631402 -0.072328288784580141435 -0.031096134532672844303 0.029875376266746456883 0.16644467199681872716 0.020511117761842296431 -0.018755643345015921009;-0.25981763926080542193 -0.1468356461927783907 -0.015582174368865189112 0.5765291461583628152 -0.12210166930106150507 -0.11772156814226303334 0.11501935017225439761 -0.041641142719088447555 -0.13889835776712958215 -0.23032981991626835794 0.039286159531601548556 -0.092767667563421501997 -0.067004270527968118332;0.32783492372446232377 -0.55832363188677069932 -0.30745912961864080293 0.054649374647298631924 0.4196900854188368446 -0.13261452999679529396 -0.13206130730787754568 0.96167456082261704164 0.075989086964707880378 0.271576245165617014 0.010881750679548152921 -0.053354010741315328892 0.034871371852857477314;0.12352177648631493256 -0.33188678319079967238 0.20662525695754471733 0.093669473951739037898 0.056570040376989372266 0.11362100681815257008 -0.21893647933664403538 -0.27945367050992586666 -0.082228780961839623154 0.26469285446056745048 -0.0071200386977865034663 0.32428552783332525999 -0.1225841380559433702;-0.679517601081970124 -0.63343996798138402227 0.068336244701943715807 0.18354312104930411986 0.3076189777566327721 0.0012572122410577650682 -0.5513512101806398169 0.20603125895669782697 -0.18067890006689021898 0.11640179211221239608 -0.033926940214727488443 0.24925583550539745503 -0.1093985423090308301;2.1776466582438267494 0.3905609283055469505 -0.81883962805977150712 -1.6786435808040878204 -0.085273100612156524369 -0.20233560818810716886 0.44100937672935136558 -0.15509688562298878933 0.015745930458851416928 -0.25744024269656978765 -0.53151707096885070225 0.011548913819401504174 0.044692485338525218819;0.34063359342230092874 0.90193998537381669944 0.10210079807300878607 -0.32613974730017802894 -0.70374576830249102599 -0.68069727499740750876 1.0378224133569760035 2.3084520889972837132 -0.055071928281177323639 -0.61469218145643789164 -0.032148165740286456515 -0.03211759862262345 -0.093308146114413223482;-0.088974147359805383362 -1.140077306385316902 0.26766124403268576337 -0.19088951126085396126 1.2171575850766651605 0.7595248249246827621 -1.5327056666499621063 0.15782737656620107747 0.068151019714320582032 0.95702181378085415808 0.16728178706251084495 0.034174521725966730545 0.2460373909737614273;-0.38351181218264551731 -1.2180955114112230753 -0.73183742001575502467 0.092356470669211529478 0.39676409294233028202 0.67434282860516314706 -0.087883734831690027423 -0.68843717567727491513 0.078627805296009087299 -0.025869881065474765319 -0.47198244914009429563 -0.080243644137178271603 -0.10418040311681021903;-0.00022826811140842437342 0.70610795437230933214 0.44673652716499057114 -0.024752887087555953266 0.56453900598738726568 -0.14710254272412562337 -0.14107451120680505885 -0.16231658198475801269 0.11123973593685804184 -0.19462325932802918005 -0.16678970735297860006 -0.18786166556230993185 0.0040665131516107681092;0.24676561191059626088 -0.38033049205840063767 0.055198283361418347404 0.27706549152454301721 -0.27327082730052076887 0.40079653700241829606 -0.1988369224277760916 -0.86472383456716939154 -0.30391356068047037375 0.85254173948545519668 -0.32775375901817405122 0.27785149441910350632 -0.18114769139486067151;0.64594055718317744397 0.23508395994760980519 0.15936241710750267964 -0.77975485121722176718 0.044027902697457793613 -0.076323815689904622728 -0.13255372713897195514 -0.25395999103721439427 0.021249080808830922429 0.034626842519151650179 -0.1049792401759702537 0.034499238544909612003 -0.014382690213985277472;-0.17980808757850588742 0.061787658872949256794 -0.21974754469617568953 -0.1550948800619932344 0.19726931388382923371 0.0072943539585634924183 -0.1404736129255322874 -0.22352108787742017149 0.013540790071877159204 0.02387645388851938541 -0.28390224418015891361 0.014890296142240706107 -0.017365605594599316935;-0.5461099144004336603 -0.11150526790334276683 -0.06333197974042112377 -0.11508968415657952478 0.37707395998560377937 0.095876613943670030427 -0.36102499136551430281 -0.056120330104675771044 0.1297709222649697236 -0.11266618646565246253 -0.24832739456051494686 0.092036483734994178896 0.020917984294264318351;0.98062895024849228154 0.3581539721651479935 -1.9260286033225846314 1.5375724631737601733 -0.061926547446541593822 -0.24348533856815590681 0.26556697469019135971 -0.41770348167638515768 -0.032181326854954166172 -0.19179638101748655576 0.29527047217738011664 0.1730020266535005069 0.050081231000157142019;-0.36523311583257289659 -0.45413768256431702453 0.34188814280799245671 -0.29520999883255027996 0.17829111807253500421 0.10573660723320184307 0.26094944648137152754 -0.23840623065034713401 0.11930418957211809394 -0.51554028704764520707 -0.27512815269368812165 -0.058448871223033618816 0.0481990229898317038;0.44943003507426726451 -0.23505890886725475108 -0.15485531750535314055 0.26293615144125287442 -0.22254349184744806611 0.11815280255108223662 -0.2036548923185620974 0.80534670873679481407 -0.12797938847046907984 -0.15599868224295124208 -0.24047663481819667175 -0.19687135440270980835 0.0020130683310447951111;0.40936840425641796148 0.24942555109868208563 -0.33983021896180765076 0.22779653232709240473 0.36152614401418436962 0.062231262020953602432 -0.09624424193003612571 -0.16036148289625282159 0.0047661276498860375567 -0.017925693177150519436 0.0014059178959276190032 -0.039869907976318098852 0.0088977006033033514271;-0.25013762377371667744 0.70735646428364595817 0.15668464591577765943 0.33507274745098436508 -0.23307571353909550815 -0.19449377193907807504 -0.46122354699548911983 -0.01704386240487193796 -0.12253080767351676172 0.51933053595747613596 0.22375220329789871632 0.1006979949656866824 -0.037880299383483154174;-0.57388766643675059864 -0.42333374363261877527 0.28654597299815121048 -0.57133290941603009916 -0.45302734131999822242 -0.43141260187291291528 -0.6450994796573025214 0.5786740856232223118 -0.67081555031043904602 0.17773518727181644716 -0.065273890719612329137 0.022872733599648559233 -0.098458847684682812562];

% Layer 2
b2 = [0.34976422605678025857;0.10889708400641330555;-0.10969172230644699817;0.5896193323088707583;0.011668191014771055539;-0.39273734810648064375;0.066118407819842364703;-0.083555842348344011583];
LW2_1 = [0.22012305436956125515 -0.048929418378513660215 0.06051817096712452243 -0.07207643755885509429 -0.18921998001388809496 -0.12447954109113486265 0.28569285276862577128 0.003712038875549981444 -0.22574076130695830411 0.048141198311497108986 0.14521729464983459956 -0.51331309583307116462 0.08557838116374472115 0.20783511277617927604 -0.62806434862150406495 -0.036897429596262798501 -0.14320524883756782786 -0.16373532732430962078 -0.10709121959437396809 -0.010941634174876254532;0.57432155005645113555 -0.23070479686266612274 0.028580247836400136247 -0.028682793501747707449 0.50870278238194555076 -0.14773875023881846702 -0.15269799755745222525 -0.031539841427353623726 0.21697395684739506638 0.40726581711994735979 -0.15216621271285990513 0.022355164749207342284 0.43022659389048717449 -0.095897229675575804131 -0.10919938006292591315 -0.41653069437102646644 0.50580300973483793836 -0.050759918260896312592 -0.47022160827025677454 0.0014489391311024958295;0.78306719134234681334 -0.52675447140617637221 -0.23443327073786981996 0.22574112833566806202 0.041392353552889338264 -0.043491016648741276374 -0.27969263721629888941 0.067835775899878963946 0.22949452026286426554 -0.035135925907550061287 -0.22672898544213493377 -0.24613530787266321709 0.37524664066302154675 0.059479804700426477937 0.76534561592763639126 0.072421490752365466625 0.60897731700322010884 -0.049971774407397633044 0.21228168493579893661 -0.040929917132823540049;0.02436202193430428431 0.36791237929934278439 0.67463034035864144489 0.21691225562594049214 0.24315442388329247536 1.756007061735206598 -2.112453851207643396 -1.6445804088760318518 1.193210850257159894 0.18626900949366875793 -0.78586132320537138707 -0.45648360756032102525 -0.52032901963448041638 -0.056368652033148530789 2.0417625256871074768 -1.8888671083156840513 0.92263852687017156029 0.11123767504843926068 0.82312586807666521249 -0.48991047394205616827;0.19067811808165269216 -0.24773728478459863811 0.025529128239049216076 -0.49866215635881661061 0.64190369107494194001 0.0060187159089439955933 0.12014904793465877586 0.6143525640143213673 0.055623584528188482756 0.19537371233292374906 0.25974172878754664406 0.27381285044691100472 -0.19753443380069232727 0.02654448021781717279 0.01007334424874275873 -0.26358538824570476589 0.12530183110152573467 0.32169766435858682119 -0.17097400467566536975 -0.0059862592053530807451;0.011214577930654215029 0.22725165264572816382 0.29892821404243508088 0.21781611776922951695 -0.26477278233422535392 -0.18226873773791890665 -0.019113521119241826118 0.064399942518945013648 -0.11830884306465848377 -0.2012854101754723013 -0.023625717092825210264 0.46554281594613228235 -0.43919832455264784521 0.77462690146500734478 -0.083249266220019810247 -0.37177560158008898794 0.40467786589158993849 0.28937326781579386648 -0.0763800782899904801 -0.037324640165837578987;0.059925594645432386787 -0.1461177047190598266 0.076025744730976438368 0.046652780354148687403 0.2118658775668799954 -0.062617612944931580476 -0.23169009343374288856 -0.45421104575651305435 0.20663576492786797645 0.10443213491165666273 -0.13795034471472031323 0.17314077917301587406 -0.10929851163743865838 0.047799516881015163827 -0.0845843731638740437 -0.11222322620431031404 0.34113890470982483061 0.6203949310480577628 -0.083129741031079520952 0.045400516737426378777;-0.4938927460109745482 -0.1389566888583529114 -0.41085512414001024162 0.28122024819144764152 -0.18232959053499314672 -0.025989512470523841448 0.10205224392413468626 -0.22035249715166616014 -0.006216017748362822129 0.12799308470289522122 -0.1970986784290024163 0.046396201581780233125 -0.22697990141463397773 -0.10757828068291894197 0.034596038296532675982 -0.26613539617207099264 -0.063048457437373417456 -0.27189262767297683876 -0.43336467432044356585 0.017523161004111737632];

% Layer 3
b3 = [-0.46160457977474955715;-0.30935657943990985119];
LW3_2 = [-0.36899025993209672025 -0.6444635023107470051 -0.32726991223319429336 1.1423052192977587449 0.74806898742099547928 0.61188978287965922753 0.67481944718776010195 0.79992866867928769103;-0.58793616800503112341 -0.26530242309708668147 -0.48046649906383104289 1.1289558921099851485 0.48515259665067439476 0.62329199180586603024 0.25290225084539291744 0.69615926514579851148];

% Output 1
y1_step1.ymin = -1;
y1_step1.gain = [2;2];
y1_step1.xoffset = [0;0];

% ===== SIMULATION ========

% Dimensions
Q = size(x1,2); % samples

% Input 1
xp1 = mapminmax_apply(x1,x1_step1);

% Layer 1
a1 = tansig_apply(repmat(b1,1,Q) + IW1_1*xp1);

% Layer 2
a2 = tansig_apply(repmat(b2,1,Q) + LW2_1*a1);

% Layer 3
a3 = repmat(b3,1,Q) + LW3_2*a2;

% Output 1
y1 = mapminmax_reverse(a3,y1_step1);
end

% ===== MODULE FUNCTIONS ========

% Map Minimum and Maximum Input Processing Function
function y = mapminmax_apply(x,settings)
  y = bsxfun(@minus,x,settings.xoffset);
  y = bsxfun(@times,y,settings.gain);
  y = bsxfun(@plus,y,settings.ymin);
end

% Sigmoid Symmetric Transfer Function
function a = tansig_apply(n,~)
  a = 2 ./ (1 + exp(-2*n)) - 1;
end

% Map Minimum and Maximum Output Reverse-Processing Function
function x = mapminmax_reverse(y,settings)
  x = bsxfun(@minus,y,settings.ymin);
  x = bsxfun(@rdivide,x,settings.gain);
  x = bsxfun(@plus,x,settings.xoffset);
end
