function [y1] = NN76(x1)
%NN76 neural network simulation function.
%
% Auto-generated by MATLAB, 12-Dec-2024 22:52:29.
% 
% [y1] = NN76(x1) takes these arguments:
%   x = 13xQ matrix, input #1
% and returns:
%   y = 2xQ matrix, output #1
% where Q is the number of samples.

%#ok<*RPMT0>

% ===== NEURAL NETWORK CONSTANTS =====

% Input 1
x1_step1.xoffset = [0;0;0;0;0;0;0;0;0;0;0;0;0];
x1_step1.gain = [1.99889652916392;1.99942753983375;1.99980820122686;1.99976921446212;1.99809019767403;1.99831135135136;2;1.99821041291082;1.99984689382476;1.99892749123051;1.99827327335421;2;1.99912748817885];
x1_step1.ymin = -1;

% Layer 1
b1 = [0.058402847465473958777;1.094941986257400135;0.31324522734979398653;-0.33288029878146574436;0.15573794425556100607;0.064582375960867202669;0.20104829578043217908;-0.18218198774642321847;1.3600844119755806094;0.034091471078065337108;0.83365496703429475822;0.10839442865826960649;0.10714703527067018229;-0.18813048223805065029;0.073920023619152619432;0.69371011275922278561;-0.19410295348460676612;-0.28947569230549508035;0.029804914720627267988;-0.62889161501508916707];
IW1_1 = [0.12247386659480427595 0.12683126445325187959 -0.07605488363427322096 0.10613089477343520817 -0.23029221647785944049 -0.21629766700045863215 0.31701130331063998025 0.38333309432286916119 -0.026949211048729555806 -0.31801318421137819703 -0.072363761462686415626 0.017509537151183245107 -0.031437552224298156989;0.093867321840135575783 0.85232927442848560595 -0.54378338728169028915 0.57752402688281123666 -0.058573805319310744133 -0.54867087291069582822 1.2357386592229255839 -1.0338558302794733645 0.14468138853612791395 -0.81214855855598577783 0.62361949330034505135 0.072908288876472673867 0.033616864118879971612;-0.077922961413264171804 0.035903975273132451851 0.47953345083498721824 -0.77320031299414371251 -0.11988090772921929095 -0.09845555121530508158 0.16105035530310340963 -0.081658245011240443434 -0.033219618565152229939 0.089611260177211701783 0.016940528765503535397 0.043137937544223327324 -0.0035019281414060323548;-0.3626584562376605203 -0.65730836222135968772 0.43916132175325583997 -0.45997189370524588226 0.26113977578667507684 -0.36627471039921127849 0.33761858465233596238 -0.43221621909342133883 0.16877680764409172531 -0.76301078841886627036 -0.30870114580135482596 -0.098208288852080855014 -0.083000310395906717886;0.14366221926559857858 -0.029608083910772822062 0.05993249413008525095 0.32790505374811745876 -0.080285207790681573092 0.015080330458196891316 0.22396939221513456619 0.0071776813357519106407 0.68297103204312281655 0.20601902963236903843 -0.12775466901187063073 -0.026406465631250531506 0.13180609922256478206;-0.059405627210425270002 0.13292236039133265013 -0.56074834275126150818 0.13357685704128666182 -0.31408434066442164623 -0.51514665820319072154 0.021856042733399770606 -0.21424379049925404428 -0.32248765743718621479 -0.1070678426545125933 -0.46486478795286251264 -0.022251972607977555524 0.23620049868604689469;1.98644285014919042 0.22887755360845979391 -0.13508623065389319118 -2.0831658865380782153 -0.06499182511884844804 -0.13524640041818916658 0.1970786590526559523 -0.1710615950087467918 0.03311793368263359072 -0.11406564037807223611 -0.22271197690088356813 -0.042755654280013155599 0.00068569915556613799702;-0.34793729840393350372 0.54358100486317617595 0.85937084030122312672 -0.87592547536229292682 -0.076704974074099291359 0.17194105806897400091 0.08914675373172332995 0.15413079360760345571 0.20115275753364753042 0.065381917552582644038 0.034231665971458720421 0.0060952226570639049877 0.069907476253601760763;-0.23683841274877498462 -0.59340092972587710207 -0.13558121239874407205 0.36274312804721969838 0.48423935440726567636 0.608022610366044991 -0.64148318303837925658 -1.7547575821012482145 -0.013730550372444827803 0.28047499437693323987 0.43747722338803252118 0.031687419491904664226 0.13523834845889162737;0.12746147075124666936 0.01492390729368283514 0.39434440336612003319 -0.30277942476317448728 -0.2068202169139540525 0.08475398452217998424 0.052412612956917140061 -0.098349497059231641427 0.026808289378701551792 0.18924442214858253064 0.13626477611735274276 -0.014104159321593102636 0.02875986515174865088;0.39911242772067306861 0.79763685131151107477 -0.71007821179050645277 0.7039074949039481055 -0.88833787371029226954 -0.28752660507129007561 1.2354143452886088284 -0.60232676451490652081 0.078871997431784912624 -0.76684386416330496683 -0.054476644681791593083 0.02890990671707642512 -0.16271594244307083232;-0.55892765143390121807 0.671972699297050724 0.70218037028923063758 -0.25106229162264537269 0.26074705011433413349 -0.040169134097447156684 0.4527905271489854333 0.25474828640967916993 0.10142919829986252189 0.23536164361962161329 0.13067029607521413181 -0.16115913991255984006 0.15718192268284311708;-0.59819603824579004048 0.22244231893040072867 -0.014797318808871614063 0.16966277279447816717 -0.40693898129045780188 -1.1107867948347365239 0.36880455978733855948 -0.35216465988776879392 -0.038786165663530963732 -0.55368742106900259436 0.12176584898808923141 -0.2605783303562648201 -0.40306346912679757999;-0.13158610908495604885 -1.0823613444276494189 0.76108283770555751335 -0.72508911205592307958 0.60596911007033837926 -0.15057203375671079915 -0.11756177300475129099 0.4089569520544043546 0.017007653258366839388 -0.6695744915161679911 -0.0076072060985006738007 -0.063831755325721176164 -0.036140244714336938747;0.29461625839443872366 0.050613499828333546882 -0.20876285167039582147 0.15342286288410381112 0.42194578498804341526 -0.0028979881747096657846 -0.35806496649725222392 -0.29927644241082762555 -0.061005914271265407334 0.036981328255560171059 0.10039071210186191474 0.026372603389619369424 -0.0048858800421120816143;-0.19518012661501271676 0.38626273373213376727 0.15936753021528754504 0.113013809058862158 -0.056505540133253075175 -0.28485183529253665924 -0.32260880914251449658 0.1069067636067906335 -0.035204288459913121723 0.12083255190897022879 0.10125665727291263685 -0.014352719900949568316 0.0070046552777465664538;-0.086621718198346617235 -0.13312427446150837396 -0.10658430192505020939 0.37822124506719018155 0.45189208319278717507 -0.085048443856299865695 -0.44498309683605546949 0.58695320556455898853 -0.068388359242664564785 -0.18566670180127214929 0.12999114268011749407 -0.014343923007322163451 0.012894307015258694299;-0.37207126127606959809 -0.27463911404617785683 0.48120733811787674838 -0.29554132955240153269 0.11411148953891846192 0.39155841194335017086 -0.0065708063739618148558 -0.87370081051592063393 0.06087355113191477568 -0.30638058764313202964 -0.032979025092035207933 0.01675761990475387736 0.0071820242981584150183;0.20340988910239479748 0.25486509563416043234 -0.10170111882638060985 0.16264941127617901784 0.0066925398062378013003 -0.065426746595521514949 0.58556280764200119293 1.5194880299022606174 -0.050180715279433525666 -0.70370843143547789911 0.091883373168435145129 -0.022915857551732452674 0.12288157268468050121;0.070077753025496999917 -1.2017367475643825347 -0.95330358599616904502 0.16678161879691302816 0.59779271032125835816 0.77554360789466236792 -0.24087831410052226722 -0.24931851464293924847 0.11361593131452665806 0.25287492566391861493 -0.50694640551289360531 -0.069745338556812502828 -0.075641641897411682205];

% Layer 2
b2 = [0.017857544006698540529;-0.039100232863197914579;-1.0821456505868716214;0.32769540066777408382;-0.20974840196834820816;0.39510608057502100143;0.068239081621235042618;0.087932020131362642612];
LW2_1 = [0.20638342365961934166 0.14393002358390924456 -0.18405441289494026136 0.012907755525028178842 0.012295309946471056836 0.13198774469075097437 0.08333291390249873698 -0.034835148395642848151 -0.16936945250603319124 0.20800993095412562139 0.37110858410985242406 0.032348705841984896903 -0.096361075702468365622 -0.1580740833492380315 0.18970092411987249381 -0.35081184134578691225 -0.3199024816764842738 -0.16345988260846497364 0.054314122115967929105 -0.097899665677083386184;0.39051526537758940449 0.33894645055232242026 0.1517020684099786576 -0.14712746523156675083 0.20405725041207195547 0.17168520876038040335 0.51231589022878298856 -0.18190956130918795042 0.80733376903152231918 -0.26049541402787551592 0.78785721540642539296 -0.18720996178383803032 0.41820812428707854203 -0.61125493970360911256 -0.32487728506920321436 -0.16814529248737969391 -0.32353620739732330547 -0.28106096989803902586 0.66725133160904914753 0.10666158213900550633;0.2413013265653733419 -1.1390022447700198782 1.2140449701679363326 1.5644232225382699308 -0.79510447764986214025 -0.64747577055813509972 -1.9133241127636642087 1.2918078937375747639 -1.6077914885273474344 0.52968088803283008836 -1.4361437996354937674 0.79812751236615719908 -0.49187850251277337454 1.4909236953619247057 -0.41052503389685873758 -0.30267544866659984448 -0.80790271197031082728 1.1494787755081401492 -1.0744524266802903956 -1.0707864202100210171;0.19339864784021379429 0.21064345277334162176 -0.1588322754252130542 -0.12567569679681903083 -0.10505094269895774717 -0.32931765175977756321 0.20035445034999535552 -0.25984945098639461447 -0.1440563613409205912 0.24129339215525769102 -0.71513393733211472192 -0.29401760297672174804 -0.04960671247351260138 -0.10813995328646103244 -0.18761466133484458463 -0.2126579680544485873 -0.10715199545090992039 -0.30036807959579553406 -0.01005482915756974148 0.15701419891968698694;-0.0052780013327567354073 -0.39977136413025504691 -0.17148513923921621105 0.053819561792716172355 -0.058330303320190388106 -0.21387607518870316303 -0.29670281625213307253 -0.20435109437861570525 -0.35293479938888044911 -0.34416581772149601459 -0.52758428171986548882 0.31140016963037181474 -0.21797882925388539777 0.3375293194282746323 0.086855919595136485412 -0.092618256608631377436 -0.23197753363810219573 0.22588401053546380837 -0.31107990386249456671 -0.39187544745038288552;0.5217328099117469753 -0.080810068788474784252 -0.4508325427492685944 -0.12628861111680084184 -0.062723715568060556258 -0.077396040957725759091 -0.17579690268203188031 0.26543356729107542291 0.056253600553002922058 0.32837939883587091705 -0.16648704287271784419 0.03658823983031587318 0.040309452043201750293 0.31878879558249217929 0.70458773653830120143 0.040169940322151806433 0.14542304434504910171 0.098358059850870344087 -0.048960787028057575765 -0.070451700815679210721;-0.5287629547905695615 -0.021611511411603407523 0.093034785006136613839 -0.068277687232534703399 -0.091419846825956080361 -0.14843575332712394266 -0.019944790357337996434 0.069354821240653605208 -0.041907586005090764758 -0.50271727439232472001 -0.16051651640661998566 -0.005720386924996525603 -0.072133703821098960063 0.018656602123111636765 -0.26806949193053464242 0.35985787227746235395 0.22398464529584527494 0.13010824009458193951 0.014426062892464869281 -0.0034642786609482938143;-0.24714682175949859166 0.094501666711313395131 0.49149671048668974738 -0.062936234420871567385 0.042934963467369573198 0.090806936175900229702 -0.087849205309928110608 -0.20301101392747405994 0.015116884404425793773 -0.23348913788206132613 0.46673579663664649386 0.091196565789254363521 0.018552267944704922686 0.0037676525015617676195 -0.60901794416385779396 -0.5647784935535351547 0.15205326808633429225 -0.06738701955966590329 0.042439428429823601585 -0.31004610814809197006];

% Layer 3
b3 = [-0.72100349507473526778;-0.59424712900289122786];
LW3_2 = [0.86492984370013525908 0.47611078805375933731 -1.2238747155628286745 0.30379748316172194844 0.85268102984661253707 0.63526864307117947295 -0.88888398501919663186 -0.70636429345014484227;0.58391974724073791858 0.34922393471547846788 -1.1923244943173105792 0.33918244719988011049 0.71896479107624611249 0.53752762899870398794 -1.0948923461176216509 -0.5096935456309332757];

% Output 1
y1_step1.ymin = -1;
y1_step1.gain = [2;2];
y1_step1.xoffset = [0;0];

% ===== SIMULATION ========

% Dimensions
Q = size(x1,2); % samples

% Input 1
xp1 = mapminmax_apply(x1,x1_step1);

% Layer 1
a1 = tansig_apply(repmat(b1,1,Q) + IW1_1*xp1);

% Layer 2
a2 = tansig_apply(repmat(b2,1,Q) + LW2_1*a1);

% Layer 3
a3 = repmat(b3,1,Q) + LW3_2*a2;

% Output 1
y1 = mapminmax_reverse(a3,y1_step1);
end

% ===== MODULE FUNCTIONS ========

% Map Minimum and Maximum Input Processing Function
function y = mapminmax_apply(x,settings)
  y = bsxfun(@minus,x,settings.xoffset);
  y = bsxfun(@times,y,settings.gain);
  y = bsxfun(@plus,y,settings.ymin);
end

% Sigmoid Symmetric Transfer Function
function a = tansig_apply(n,~)
  a = 2 ./ (1 + exp(-2*n)) - 1;
end

% Map Minimum and Maximum Output Reverse-Processing Function
function x = mapminmax_reverse(y,settings)
  x = bsxfun(@minus,y,settings.ymin);
  x = bsxfun(@rdivide,x,settings.gain);
  x = bsxfun(@plus,x,settings.xoffset);
end
