function [y1] = NN77(x1)
%NN77 neural network simulation function.
%
% Auto-generated by MATLAB, 12-Dec-2024 22:52:29.
% 
% [y1] = NN77(x1) takes these arguments:
%   x = 13xQ matrix, input #1
% and returns:
%   y = 2xQ matrix, output #1
% where Q is the number of samples.

%#ok<*RPMT0>

% ===== NEURAL NETWORK CONSTANTS =====

% Input 1
x1_step1.xoffset = [0;0;0;0;0;0;0;0;0;0;0;0;0];
x1_step1.gain = [1.99811601264727;1.99875990463962;1.99875318030247;1.99928738709792;1.99817661940644;1.99909691863576;2;1.99847763543131;1.99819809427149;1.99940795104849;1.99832374962454;1.99944309570216;1.99885874204079];
x1_step1.ymin = -1;

% Layer 1
b1 = [0.54827541316680483696;-0.58766949776133847738;-0.14016028844035116618;0.09223327541802138485;-0.66962400421234613557;0.053869304459059560997;1.4683008162310100531;-0.055886014616736576222;0.31363837507407155147;0.13921632907354170028;0.59279437249801802956;-0.13073674208658453422;-0.47335726014012230456;0.40142114659694494438;-0.55546644023662106182;0.58452789621011402854;-0.5338761532463370818;0.74565845957662546528;-0.18612739923196794378;0.22523151376575673011];
IW1_1 = [1.1862319866659052359 1.1710911799005876421 -1.2611159589288545302 0.49468617241769985426 -0.77159568710897963317 -0.62506476167908464614 1.3428753735152390014 0.45743948185217664371 0.14095311253352565961 -0.92442936996203217692 -0.069847657396807150132 0.0060088728649332718776 -0.089968021517900023665;-1.1621345017555546608 -0.44803423182520707435 1.848032206959882684 -0.60848604070116851794 0.35597149343044315328 0.30272786065360735019 -0.48880624186896715067 -0.9406437666951767973 0.073310582920343855817 0.20628737440959055149 0.20114228014966836766 0.086394100295974496362 0.019607298022184822123;-0.73911575085115521766 0.14443195009562309616 -0.15302284731194190637 0.50345416197652015367 -0.20244611995349173772 -0.022537546553943538924 0.02307467236515643727 0.61096079395035685078 0.10828183549568345945 0.035902403571642454994 -0.1728995024063942898 -0.028115834085626147804 0.0080345803966988885159;-0.83265706488691615395 0.0039446476465635482711 0.43755724863319228612 0.11808936122159804927 -0.3888975900280386977 -0.2922142901207333554 0.39403757449250387257 0.3768319319051123828 0.13066886843261274476 -0.34207721143315072965 -0.33391278236140814473 -0.064983330558866542193 -0.046506373565204227327;-1.0967469749949727564 -0.19558446720072328318 0.049332132334367326254 1.8677884447641750487 0.18477811667927099282 0.13965924523181716399 -0.24385666275039932782 -0.23076015466468829951 0.021516051007911696918 0.031504637922821411566 -0.30680298553072776757 0.040019048688570584005 -0.0063845710389452822384;-0.23098962903962913518 0.10004656328515575126 0.16272202488559681099 -0.32267996855335834283 -0.33858758122585236316 -0.12977206026936999317 0.35693518420379116707 -0.30982861345790585483 0.099523513947123873336 -0.0017080432176132236827 0.21030868774023106504 0.069196161562129168687 -0.035569124863843719353;0.92183573274666097408 1.0428201427204384366 -0.95728843285641951333 0.40870495722424715623 -0.62181102801679033476 -0.58066741298961788154 1.1148609820374213442 -0.89597752880330139291 0.066982282866309417191 -0.79138511020972401866 0.076865956188171810637 0.030063924367580052016 -0.099525381207897653524;0.093877240875023831856 0.31184009161773940111 -0.041966558204745492422 0.064049885020926719537 -0.69431904095597185567 -0.081805616936678565709 0.89880875700651208238 -0.24017817743322092405 0.10098925396421523648 -0.088970732700701035678 -0.00094984965021925713176 -0.020105539051506599729 0.050104641307420171026;0.028640845746276802353 -0.17913209867422080768 0.40283492428909040139 -0.37225460650067648816 0.57551005395132337483 1.182205211126869937 0.48143875475631109362 0.50525120682713997589 0.76860612252138382772 -0.065389312408489441708 0.24485045384367856713 -0.077340884141620921954 -0.10293352793626595054;-0.30802435969992980613 0.022170153286162418149 0.20362080070457419523 -0.37445055291298728894 -0.14720393607395049207 0.083858207122693192992 0.36116559207630871686 -0.06326493716992913352 0.041465569322129469665 -0.0086121823215328588419 -0.2250547668332006368 -0.060448917206948261927 0.17943222387816804009;0.20319548221494274087 -0.064976819187250345333 -0.7855775052845851425 -0.26735744127298538553 -0.43427261548889972698 0.059057654508001690419 0.37775691453668580611 -0.18606799600466666922 0.10818268905497246957 0.38358921789489136556 0.12066512571668616682 -0.080490847478686317062 0.071730408148287322367;-0.72716254068242125452 -0.26194080101981304098 -0.079608159171272688259 0.37971029855089449834 -0.50709067085758863236 0.0051654047611892897271 0.34337614475334160558 0.10201521955640903416 -0.14751407788348747108 0.29495398591998567284 -0.047286578820888373886 -0.14103767186947863133 -0.041460237519652692884;-0.22047226112996745617 0.55070161561244623805 0.76050801283480828907 -0.11214944397619093508 -0.087440223271665673543 -0.44226950748260041024 -0.027861017936491962177 1.0525252138011957914 -0.056269122690986307644 0.043003493005119755588 -0.12308102093379096054 0.088288664372620700993 -0.019468029032434618769;0.48223625542854148263 -0.5417231889150521118 -0.18903491302910685468 0.043801702459903266162 -0.092725824621734093123 -0.042182861391546068452 0.69703024273761959861 0.14625123957365604443 0.078548175185034666002 -0.73829583059352266172 -0.20673497589652986561 -0.12044735791880982478 0.010551270425861250524;0.42209476419999392149 -0.23585450339351654581 0.31404418389276378409 0.13413867639752302674 0.20051860980048283323 -0.35750978614679790324 -0.0044610723210249357551 -0.33209911230306088381 -0.22517864791678282588 -0.29421612332790764155 -0.32930411262506847914 -0.076364815273279221253 -0.0030387850511436969268;-0.84239130217716251536 -0.3028750348905860923 -0.20784928000173238938 0.44085030209215919639 0.13953243290007955046 0.059014830331070813885 0.042359676728769543597 0.30866695482237510584 -0.041794835909539446162 -0.071107523603481867513 0.07966850603263590791 -0.0072156447428121141263 -0.021864791794056544216;-0.27649451050246220962 0.11413166008018445219 0.83928342779352838043 0.033288390393476696705 -0.23018137787187933907 0.27640490649421661784 0.055104335016326902452 -0.2738336577560646079 0.19855233988261891676 0.25177349553721728448 -0.5927960670900594975 -0.047554816828308185683 0.1129318370880886685;0.021959682522851086545 0.53712002669336156302 0.0099452199260893648508 0.12759102194784779916 -0.22332169384555167202 -0.23128567340900807459 0.28877417241744179899 -0.90138435623304302702 0.010378156519114077605 -0.28377402441799087773 0.15633565428604073722 0.041200480595146388163 -0.074778464504332398111;0.14617022128582599083 0.10135954810456207498 -0.29094523143300449197 0.14143318931264339811 -0.46000289026868512732 0.067811710753627879589 -0.15121626400275764435 0.48275357116249650868 -0.182610501214310883 0.7281331717651391422 0.22969300984669105414 -0.0050054721076974026048 -0.042055581778843206808;0.9108029958500859502 -0.09349785712637437296 -0.19117817890883548326 0.5153711788916438552 0.17284595711311989685 0.16175486941153038867 -0.035151126205726614116 -0.50110328973966289379 0.63564023013443993193 0.28574648584509659832 0.13990904623694719322 0.21678889555803487754 0.24725774404448069843];

% Layer 2
b2 = [-0.93790802654347182887;-0.16479262041764564106;-0.071961211530168836537;0.15068339732203103742;0.025213717486589973249;0.40373365708193686974;-0.37281339093565135645;-0.11619943133390253642];
LW2_1 = [0.095932187384543093911 1.9876029492534523779 0.88455956789939382823 0.20773457359383620813 -1.3174699311111255362 0.41313025123538293926 -1.8082067679629687529 -0.058558772395173243341 0.52575325922856452898 0.30157761764410101479 0.03676262788729972586 0.75188249983925026232 1.6905735573425499929 0.5254129552415531812 0.66239308670338326035 -0.030409657796701849986 0.47781538442614385209 0.3582537129399636644 -0.75650290422703936333 -0.69478901468732079394;0.033501338205868418096 -0.0026384340800103128766 0.39213941715730321613 0.14519215164297163967 -0.02037029783123145768 0.18865155351477788659 -0.14106613626970476716 -0.16481755997482314124 0.05301700986941220578 0.20005916560377640101 -0.12783525292395564454 -0.21535534623204422022 -0.27772205988928200249 -0.12716906129549573889 0.26112958669828251201 0.142906957534150586 0.12790469848869076563 0.018504884854021536739 -0.10321609474808221552 -0.21156945767089385679;0.14932279039550158672 -0.0017024110416206765517 0.19413991946146050283 -0.27213124977991498543 0.083696023349200801555 -0.16927015642385981331 0.22963439417686842825 0.55083899608734920861 -0.056224586283647806639 -0.35140374897108056507 -0.046548548819407384314 -0.13900942316983719294 0.11737796679612845507 0.12073460774358614478 0.031611123151705874945 -0.08979133885203513521 0.0057084851787960900343 -0.073349687951658429363 -0.12641385480902297966 -0.12563190722461922699;-0.7384460404186758975 -0.57541581036936828575 -0.33956735970190843332 0.048320488328465846517 -0.10682302333806983907 -0.24863222935833634297 -0.079134380561545480948 -0.12380145032096087632 0.11682388230478035762 -0.088985639823809442595 -0.020113300671427948585 -0.22866534729489890188 0.05723680331858362752 -0.41049896830087112543 0.048306227556079814334 -0.21122252769086097279 -0.15408606024983881322 -0.39024094260329506012 -0.18535254087392852296 0.051280155095465546067;-0.034106093584162902599 -0.25132450549604135048 0.10199020164380129261 -0.325982518179309122 -0.15361632357256727044 0.32791193937890439347 0.3872420461002225589 -0.12082098746588890159 -0.054183253117362002726 -0.015627372750259122675 -0.18573258523493835215 -0.025971268136541589278 0.19077110960685417229 0.028413171120935488273 -0.090351533184278784439 0.15516781666152273944 0.0025335529865252344461 0.014726806467646021137 -0.17725802412838945199 -0.095980026310298241499;0.25137685934635695117 -0.20262288698990824076 -0.23280180394038230141 -0.14729975346506299361 0.045509550213655394768 -0.50680501090828977695 0.69761694542502572514 0.39706289146022211156 -0.20343373113080001624 -0.25883630728525836018 0.40652932559867205331 -0.29482628638418317824 -0.24233833472276264387 -0.1333813758528973048 -0.23516665311785708847 -0.19699793747712937564 -0.088150921012249389142 -0.17443286363428789354 0.15659009219875713592 0.13681357624232223791;-0.47702512769746063803 0.81627696576066233192 -0.0052050960981178846787 1.0474143759888285832 0.046761614757463938752 0.027753394663904019241 -0.72367458276494378566 0.31712553900831536025 0.51642997609700347361 0.24937462767709883682 0.25398197404519939901 -0.15094702465789117118 0.83929470961878760438 -0.018070505114364927846 0.41588948350225535266 -0.85925049668467801123 -0.39275067421372578114 -0.40996785145784342408 -0.10862297814515001204 -0.6824624125879154013;-0.28729494164616536933 -0.049295034066169141074 -0.011941293297917833158 -0.15697238495546839143 -0.20234621739524352724 -0.045251612536445690038 -0.29209101449168611842 -0.38260733304466293392 0.11444126953428709892 0.27813231682741607065 0.09475769112356093038 0.016307419210334503368 0.10529872303479533013 -0.24315721637261289434 0.013221897140930622891 0.24468937090316719707 -0.0031790988093337250314 0.18440270855655374604 0.012074490997543211451 0.098462978802917669463];

% Layer 3
b3 = [-0.40495518503299132718;-0.4138302008049606906];
LW3_2 = [-1.4970113400148523652 -0.36265129912456012251 0.83591523129124267744 0.54227041717356017081 -0.65235982032997941182 0.58770927384471283172 1.062524369475749797 -0.28231333735223401726;-1.5059814412745982093 -0.51801657218338292843 0.33768481985054815686 0.5621007385254813693 -0.47035817763536591496 0.40733600126273605824 1.0360526461244092822 -0.64430802360376293603];

% Output 1
y1_step1.ymin = -1;
y1_step1.gain = [2;2];
y1_step1.xoffset = [0;0];

% ===== SIMULATION ========

% Dimensions
Q = size(x1,2); % samples

% Input 1
xp1 = mapminmax_apply(x1,x1_step1);

% Layer 1
a1 = tansig_apply(repmat(b1,1,Q) + IW1_1*xp1);

% Layer 2
a2 = tansig_apply(repmat(b2,1,Q) + LW2_1*a1);

% Layer 3
a3 = repmat(b3,1,Q) + LW3_2*a2;

% Output 1
y1 = mapminmax_reverse(a3,y1_step1);
end

% ===== MODULE FUNCTIONS ========

% Map Minimum and Maximum Input Processing Function
function y = mapminmax_apply(x,settings)
  y = bsxfun(@minus,x,settings.xoffset);
  y = bsxfun(@times,y,settings.gain);
  y = bsxfun(@plus,y,settings.ymin);
end

% Sigmoid Symmetric Transfer Function
function a = tansig_apply(n,~)
  a = 2 ./ (1 + exp(-2*n)) - 1;
end

% Map Minimum and Maximum Output Reverse-Processing Function
function x = mapminmax_reverse(y,settings)
  x = bsxfun(@minus,y,settings.ymin);
  x = bsxfun(@rdivide,x,settings.gain);
  x = bsxfun(@plus,x,settings.xoffset);
end
