function [y1] = NN80(x1)
%NN80 neural network simulation function.
%
% Auto-generated by MATLAB, 12-Dec-2024 22:52:30.
% 
% [y1] = NN80(x1) takes these arguments:
%   x = 13xQ matrix, input #1
% and returns:
%   y = 2xQ matrix, output #1
% where Q is the number of samples.

%#ok<*RPMT0>

% ===== NEURAL NETWORK CONSTANTS =====

% Input 1
x1_step1.xoffset = [0;0;0;0;0;0;0;0;0;0;0;0;0];
x1_step1.gain = [1.99937774465046;1.99910312595631;1.99825327406383;2;1.99819525957929;1.99824825481026;1.99923460664433;1.99825066906733;1.99878971186736;1.99911071713116;1.99852695109602;1.99869504945489;1.99864132929036];
x1_step1.ymin = -1;

% Layer 1
b1 = [0.25865096766303791176;-0.2348792418141470717;0.036647227263154391608;-0.13159501045058996649;-0.041673821532315746818;-0.90711676096310922546;-0.42842934137594584909;-0.28789227923809540544;0.089777659258666958619;-0.60298650945710863258;-0.072218336874364241762;-0.0022786993271917176454;-0.52777830668331127129;0.1398514309812421974;0.4726680044622709187;-1.0467428116626971146;-0.41510289179104820079;-0.29583567780915337453;0.5877654795331060944;0.65483634309195359879];
IW1_1 = [-0.52920117267816213502 -0.2925280173085076374 0.72134931795596957116 -0.10309613032335435134 0.18930053584577624659 -0.19555316450068652157 0.20403675224015102585 -0.48346262561468233976 0.10287071738077889493 -0.58641927388761327933 -0.073504942292701297424 -0.0022069746292510054701 -0.028235146762647277824;-1.8581738402294674106 0.067078284542972932414 0.96316725487273469053 0.94675014926533984649 -0.10842748390496524669 -0.048764248206106995676 0.16448286682638743605 0.16395877147037205002 0.07285093528796542095 0.0079511236656176521864 0.48148195069141502822 0.021420033928304091364 -0.015106800428692827853;-0.31874566281320226846 -0.058736038863067413507 0.13378447973978380148 -0.045485930028669019354 -0.81834359005984769198 -0.019585261388745840716 1.0260265865853575029 -0.010333345142683834222 -0.021987751406160317008 -0.1592296307535748523 0.12331144135884750113 0.0030532741179108893043 -0.031975931616281517977;-0.91133227807774985774 0.18290711383541882751 0.23735857722351094701 -0.40833694517565394255 -0.047969493063097862207 -0.26914880840116800487 -0.19061338247730055806 0.18451948851381422267 -0.61673424435659263132 -0.44286149936158825113 0.083964382328305081638 -0.15445137850841281213 -0.13854107339121329856;0.55771820714491093796 -0.60477052656983154577 -0.06910439056517969636 -0.056253755557539079912 0.06582771620789482081 0.19048538360503888822 0.71295572923029704171 0.67892986690059842214 0.055995615682607011165 -0.7824706974464713527 -0.51309358305555585744 0.0020851311673354723519 0.10167947259718534969;0.35833874683919897386 0.62366533840655635768 0.10999080044613109008 -0.063361178684085736612 -0.48527880395957923021 -0.1550853894708631997 0.61890120788602520641 -0.093776815558462511824 0.0099725540250533480785 -0.20214783109953227136 0.047673384264880006023 -0.014760806891910015909 -0.058129004385990890036;-0.35631570788674515882 -0.36216631349818101393 0.036321654523956282967 -0.024696048510945763088 0.28936445252295034392 0.11106309868393766938 -0.41520963199532823218 0.12978768748197400118 -0.043527124116308740787 0.13943017883003977486 -0.13697902510683976351 0.022778654432283593212 0.032705569643710276362;0.50050113339165558379 -0.71056080253946285463 0.14783233310749346878 -0.68298692752442846654 0.36734642573567838353 0.88909866994858843814 -0.85988253438717554555 0.34730820053446670448 0.42881695257906266017 -0.33129482399729653919 0.067840275345298253762 1.1836593011097225059 0.57619577977841951455;0.16876221410877290108 -0.57286058653744420521 0.14713309385269615626 -0.27637632157902958241 0.19529474451956652103 0.089012586864079201732 -0.28192566388776790776 0.20264476704862610656 0.0011344388125839191886 0.14293932521227570298 -0.048672544800117081842 -0.0023808051982398032061 0.039926795235781381566;-0.1294361882094811067 -1.0215646406925302792 0.53093058779893864685 -0.44341327959465415276 1.0483508913443984056 1.2727738396202432636 -0.40935092121807620247 0.23689784974661576289 0.17739644663536976998 0.5875353622965827638 0.073726135416918983645 0.016197935031508587517 0.25386700350093177603;0.018057599874959130021 -0.57947903803679923218 0.014649827546267554443 -0.58871542907277185641 -0.19323616980365590501 -0.33458361905155103999 0.39270277968514932798 -0.46049765448711871274 -0.67711392057986674597 0.13385593108290744224 0.30271874735339021623 0.5103318026218317538 0.16326982284402946632;-0.045956358387847180691 -0.32804252547298440312 -0.67844812673814969273 1.2980969457775650699 0.024777281443479032969 0.0021410562397600248902 0.093873279871927312046 -0.15490326538301268933 -0.083789784344537598937 -0.081213679311479242129 -0.18324630133399602561 0.035433690203140591479 -0.01366063218697848719;0.032222065768593301238 0.72601702231304776625 -1.1440707553356064263 -0.51101559149698438933 -1.2696814870857251467 -0.71595204900960107697 1.9287898385109132349 -0.45192129109612128035 0.36891714451280033238 -0.10096792422306140324 -0.42962369233104247268 -0.58227377045873163208 0.10067858406465250709;-0.15211831880819906559 -0.25971494222519136974 0.53831832423430026058 -0.38229700003641636785 0.31764237049365540155 0.48321291421486795015 -0.61415276813678609802 -1.6338872494392675527 0.14569964395280893266 0.12506849400324387966 -0.1578965968500403716 -0.026575297617464462702 0.063528391381896934242;-0.24464644100138555061 -0.71490082651131603431 -0.15772723250884979063 -0.028939194428326351499 0.35754887920355460373 0.91762861535405038094 0.30025726150176412776 -0.94221123226274683393 0.1070550483288106175 -0.074819427792995801818 0.006543039109199502365 0.21234664886440482445 0.17906124554886537759;-0.84071541042469033478 -0.69665737178374786964 0.92052698618181838519 -0.48243935268609910993 0.27174909770009625376 0.31838131821423493184 -0.98494192133735403161 0.95428395877341121167 -0.13557442019548357481 0.72042514794535894573 -0.51405453101960008055 -0.12599123358028230246 0.074689524473828983187;-0.049543051151602644777 -0.55805583617413401232 -0.70527077622329847895 -0.40846984162951621711 -0.02585800678879299902 -0.093817474621750593378 0.23052611741333858819 -0.37334340752324501889 0.52210698615779072007 -0.40321838313671215515 -0.11680864816098922299 -0.41711449631172431429 -0.37872218337226026819;-0.18852738151493031449 -0.18552552691973728249 0.33972383678501094639 -0.36392868652105092586 -0.12736350912905855526 0.33004020864027150406 0.34731353332935682721 -0.12251908145491574587 0.19727390289646110078 0.36615289557593783121 -0.19392671929087729188 0.60651694771817865615 -0.1908092925737316925;-0.22445696518915789208 -0.3868183290131365637 -0.49045898769179568921 0.59400435461247313995 0.041839430923030079823 0.14036024813897940433 -0.16171158819343744995 -0.49068022034126074216 -0.22637549591444527941 -0.39810830665692442665 -0.14410052432426184721 0.29027774477136364384 0.087552168655465736902;0.54974372584969366518 0.26008248288074298227 0.69674312535077220776 0.13407574314387959991 -0.076859168282392850702 0.62560636834465888079 -0.45264117699673500628 0.64456437379244335695 -0.60033654250511259143 0.43660017035802201057 0.20962276671555782337 0.62019040536758263116 0.17476859461191318612];

% Layer 2
b2 = [0.99829011585732818634;0.677554750032374975;0.18815672433156271914;-0.2114229577414823702;0.12363056706241370986;0.18933242461492727493;0.088535236787976534512;-0.16736365463427047007];
LW2_1 = [-1.2942410195637699122 -1.6903852327177728565 -0.54048524931584862596 -0.93574020911719135718 -1.0967131321683600831 -0.1338925069937137724 0.25498424588348517217 -0.36835619033419653157 0.54716307916269035783 -0.76139096180231569111 -0.50260326785981734865 1.3826603268891497489 0.59962717777576612921 -1.8667159316689430071 1.0396462566385364923 -1.8314495419255303332 0.45332986805553415754 -0.66533835737526025866 1.5614136760376025048 0.75477811295816932269;-0.17849215150450470357 -0.070924292020809576176 0.755043988318465642 0.10548669124041591683 0.55560872747596345977 -0.36564513420643368624 -0.069127381289046677115 0.81159411880334408895 -0.19627908646340030963 -0.08442893597754463908 0.27529932368032183909 0.27488596610282356458 0.22097073167996705845 -0.86845103727120809278 -0.12073616579768300938 -0.22638702239627958579 0.5727456912024837532 0.22024993064238587714 -0.29068369293713752777 -0.48269904955293319038;-0.081062982221104695757 0.083426829642776229035 -0.12443473018158682231 0.07952699092930763658 0.05421684752101521565 0.10908848862882422615 -0.69877967568000343146 0.021167677103683436163 -0.05634464826182970093 0.15597741554108227047 0.097719727428993125029 0.2078977841003546434 -0.049923494860925787808 -0.029205805792568720336 -0.14359422937808008491 0.080862696130502995095 -0.08113049069563482707 0.011099814267492621317 -0.09142731091270669963 0.070941624499735678189;-0.090163311782572697073 -0.053410942763143245959 -0.28982387362977324319 0.0031620926957372625342 -0.0076321943131020218709 0.27641385112092337062 -0.60681738742896063066 0.0069503639247382289004 0.19537853952092923415 0.019576732816831577538 0.027154583022358159961 0.092254491132743837722 -0.011853296596292969139 -0.016868481050898085499 0.044160256721951472725 0.00095994733472075334177 0.052297696808989005413 -0.046189375924050757316 0.010751337109915505216 -0.033849977849768168869;0.079976281041139810069 0.055001410800561700842 0.22901170025701728106 0.075188583679246787095 0.041913524750378690353 -0.58388369780634252759 0.4291817075105607282 0.028421872314429996731 -0.68786181380060251733 0.081806212363691122036 -0.05562743819753059038 0.018839588877121681704 -0.048499745164498113403 -0.0066071779363624273673 -0.11752534572093693843 0.070908918844931626002 -0.14127116888511501158 0.055357620053408322647 -0.1442791347454450146 0.06554719170523573557;-0.29231728983826288371 -0.24689153511919040285 -0.67265676829459930541 -0.15839798429413784464 -0.26800364378766633466 -0.29734219668443556683 -0.22615002097789627111 -0.20761857158707699988 0.29576742736108335707 0.52772938554733261896 0.48963701942439430415 0.33616839606346893277 -0.9401637914307645616 0.59763046526725149832 -0.082145947171152491895 0.32944137396784450855 0.44522704766084025829 0.042485468679284363325 -0.17550207987145061139 -0.084427134414743504331;0.24756683100710635825 -0.028049901629150355425 0.23559501841932065092 0.12069193932038638217 0.16480229790604428164 -0.051766464755925840902 -0.022925099996577300715 0.12962953069770613568 0.022534540449920387878 -0.036001758375047106242 -0.38013446959714269902 0.34628149555046178198 -0.018286622906231536634 -0.0058510429340056582803 -0.21979991418790165159 0.33622872687838017969 -0.16791953540446785675 0.20810256075432265188 -0.15169267161272032007 -0.10075545740244107318;-0.60690924020857794918 0.14230137493599598342 0.60830611537768075614 -0.13603766474190281954 0.26651383418931279268 0.41465660156942329984 -0.62094766907413068147 -0.042933660254137757939 0.14379458341634634988 -0.20875266384220592109 0.47028462763320488804 -0.10581974131236220049 0.066123455996418167846 0.35495055902304389894 0.15106120067421852093 -0.21658427485942563506 -0.29437724386497299278 0.029681674940235394655 -0.057732509378482899098 0.20517010024847529004];

% Layer 3
b3 = [-0.81148814547538372643;-0.7799810585999621404];
LW3_2 = [1.2627561868871293171 -0.017032505950852653426 0.56225729343520125525 1.086861582077591093 -0.52142996015310327795 0.066179858846371397707 0.38593366977511828209 0.14948047958091459364;1.2348481805946414092 -0.02738068097585684077 0.83746681125967892267 0.22855055929785547675 -1.0849341887492998104 0.053655303274426503768 0.3755586970459581786 0.087860890079730927238];

% Output 1
y1_step1.ymin = -1;
y1_step1.gain = [2;2];
y1_step1.xoffset = [0;0];

% ===== SIMULATION ========

% Dimensions
Q = size(x1,2); % samples

% Input 1
xp1 = mapminmax_apply(x1,x1_step1);

% Layer 1
a1 = tansig_apply(repmat(b1,1,Q) + IW1_1*xp1);

% Layer 2
a2 = tansig_apply(repmat(b2,1,Q) + LW2_1*a1);

% Layer 3
a3 = repmat(b3,1,Q) + LW3_2*a2;

% Output 1
y1 = mapminmax_reverse(a3,y1_step1);
end

% ===== MODULE FUNCTIONS ========

% Map Minimum and Maximum Input Processing Function
function y = mapminmax_apply(x,settings)
  y = bsxfun(@minus,x,settings.xoffset);
  y = bsxfun(@times,y,settings.gain);
  y = bsxfun(@plus,y,settings.ymin);
end

% Sigmoid Symmetric Transfer Function
function a = tansig_apply(n,~)
  a = 2 ./ (1 + exp(-2*n)) - 1;
end

% Map Minimum and Maximum Output Reverse-Processing Function
function x = mapminmax_reverse(y,settings)
  x = bsxfun(@minus,y,settings.ymin);
  x = bsxfun(@rdivide,x,settings.gain);
  x = bsxfun(@plus,x,settings.xoffset);
end
