function [y1] = NN94(x1)
%NN94 neural network simulation function.
%
% Auto-generated by MATLAB, 12-Dec-2024 22:52:30.
% 
% [y1] = NN94(x1) takes these arguments:
%   x = 13xQ matrix, input #1
% and returns:
%   y = 2xQ matrix, output #1
% where Q is the number of samples.

%#ok<*RPMT0>

% ===== NEURAL NETWORK CONSTANTS =====

% Input 1
x1_step1.xoffset = [0;0;0;0;0;0;0;0;0;0;0;0;0];
x1_step1.gain = [1.9991462632134;1.9989693961965;1.99918903007735;2;1.99825206867974;1.99851344899905;1.99836019448848;1.99852752503293;2;1.99854040154385;1.99834833862758;1.99850213407396;1.99849977013863];
x1_step1.ymin = -1;

% Layer 1
b1 = [-0.40141288658295709579;-0.48482800308664825151;1.1914972215249926002;-0.30330208142020875783;-0.41288005887735468313;0.43731996020384683588;-0.61111567042427461516;0.093499743457893885745;-0.23748854689947598851;-0.34611968728075154234;0.12533808640161933634;0.31713816839440855944;0.19840644939578791495;-0.078172660845742730773;0.10137683699922155067;-0.38036360894590842685;-0.94583562084628891586;0.37132163253024247362;0.015967084457646964907;0.10393152849004708149];
IW1_1 = [0.85066492440159824362 0.31546665217594554997 -0.57400089336511606053 -0.48990278721509578075 0.4669953425215297993 0.45157648738724404103 -0.61396248434801359295 0.65258482323287547722 -0.093541571724568284285 0.26530239293930851785 0.14091704886242178985 0.12406239455936711458 -0.0013060949712136058973;0.74027463018806938244 -0.20599107583022335799 0.41021998660316022489 0.34897842922475563743 -0.19127422193830423414 -0.15709931030121954132 0.49586664901809535122 -0.33456229086629596381 0.1277731162944003851 0.21742022247428308135 -0.2680516328209848198 -0.078950968253663392216 0.059017930660942352628;0.33871299971258839179 -1.5890328178841892637 -0.11752700873948597471 -0.17262212960509459858 0.757211381523254623 0.18596881805396550669 0.0093961579891695228006 1.110462000409730754 0.058771181407266163965 -0.48789024777068507044 -0.2010391614425686424 -0.14959414909677054561 -0.064735284539223433842;0.30772915321690591517 0.59537664843271231874 0.54662030719121079692 -0.12104497159466394429 -0.43862903702600830602 -0.43190140486433603595 0.20427701768748046662 0.93818415508335550879 -0.12620063205318310384 -0.0057520564424827632863 -0.0090957020559651376862 0.0058634832153020401482 0.083183754939889983926;-2.1182023855195963868 -0.093454599446681899111 1.1616331682947937942 0.79269112064701507947 -0.091609161579496112271 0.1362706926008644126 0.0010358436252339954867 0.21482542760257572478 0.019863688440330179441 0.1133859649689375193 0.25512955206742132797 -0.018908484007583579306 -0.10254132775655164234;0.48324276503775676073 0.44783103417282588143 0.2149745007417389886 -0.029633641044149158783 -0.10828502389582363163 -0.12205136811226879878 0.15110868993838463825 0.12135056529378070167 0.069863066544694693571 -0.13008093175560883625 0.16451293648452033902 0.037553189815298301801 0.021421644507463921681;0.0034040954821160014122 -1.0889965400584404875 0.12578708361914828218 -0.16642406456969605077 1.1058529201468005887 0.55440959033237546816 -1.4045673570843881794 0.66542724997864954872 -0.087098041296600980932 0.88208714302986312994 0.047020356640696189809 0.089616518477290796341 0.13013619478153451436;-0.21033320085082884976 0.045362585782789725808 -0.096785816166424204487 -0.14008075020270313593 -0.055621848122229887446 -0.032759583838689133872 0.030652029186225164537 -0.115029561856088966 -0.083018954803511943452 -0.046658357033927989888 0.030994334432780063643 0.015345716477763792635 -0.0045301141136492766373;-0.26751729173748189927 -0.28332087730667648851 0.29831447236279967639 0.21805965265999882607 -0.026227526495641698828 0.45913319008824565737 -0.27355861635099831819 0.19627195315434267653 0.506092456841359839 -0.09017793152650530053 -0.017789049139277576805 -0.33088846997902021663 -0.0094780130602349580565;0.18400321563263669078 1.2021647922662599406 -0.43245467139063964446 0.26985617118427707162 -0.9835703648585293335 -0.88902752528543804722 1.6451172384252759073 0.89442168176620107101 0.19021163701809409852 -1.2834428391226064825 -0.31642603413256220612 -0.08635290432444077402 -0.0094561096152286951144;-0.21771732841942836867 -0.20472512906585732528 -0.50496957834654809805 1.0667674090321688229 0.19329541332827410161 -0.1671319724024670772 -0.35549161731643896811 -0.012845225946864925054 -0.3104209075567224696 0.031555455200437905472 -0.2945040117275813385 -0.088552270577540892482 -0.074092946377101925881;0.26431030372649449989 -0.38321990979601344707 -0.1562577251093714148 0.49750919046882580155 0.24669544451864600099 0.075773195339946183835 -0.30222136961388346155 -0.13616445403852431295 -0.1659256890780070326 -0.22151518399128852788 0.11322872510041742666 0.050632856797615949374 0.030033971519261751237;-0.33277537277252605685 -0.16211147409516180051 -0.00075620490229640242863 0.30565772213944036872 0.35027140737189077502 0.12066488460042261444 -0.483769664803475552 0.25211380190307119964 0.01145471877875900088 0.21766467364678224183 -0.054276524016965345398 0.026486962999214845593 0.066789678039803068721;-0.52263434148730103512 0.028720321603262422699 1.1676673213874502189 -1.7501368310309270981 -0.14666376716842891015 -0.071617290396808377939 -0.26671676794280091416 0.53423426600709267298 -0.1053449723503518537 0.20457948719231502932 -0.15250342331632321669 -0.093466614783543344736 0.017054913793531082528;0.7684685386055926104 0.43879004507055952011 -1.2583203817949539793 0.50784111353497773944 -0.45737985350055726519 0.03168818267702801228 0.10058682696836587778 0.23436316593609424208 -0.080038617773863229843 0.50835949694780802055 -0.0077793270501810667106 0.046695163213353818588 0.016203103120182762997;-0.15909997827601943254 0.11165382457346247069 0.082884489146375292523 0.21799227757535596939 0.58499763186782105517 0.15506058890855520249 0.046286480090608345117 -0.27655171723486071667 0.74301499987507135803 0.01082422404926738739 0.33104912414342779758 0.16817770919816130148 0.12137267389650827076;-0.40899430085984900263 -1.145398751840974283 0.19626766863667399754 0.65470668994823455478 0.52694468217457068882 0.38240065597812794573 -1.0005442572118246058 0.81941396430434920717 -0.08632386683884434031 0.37461361349704003221 -0.049868408140097852943 -0.075147575254311455017 0.047749165548429520212;-0.79239431691171668959 0.46554489880330401919 0.25270505406816057281 -0.611483015750663772 0.29616183804413098724 -0.58775328519629899127 0.3093975317004698522 -0.40143117710224074379 -0.104930434051584906 -0.026615342206756022192 0.26921601764008312729 0.29121666905735588138 -0.32124683208714555072;-0.38258729422896864403 1.3378251049390752492 0.44232921164187344321 0.68375940878319652061 -0.39070897765889694986 -1.0304264835201273343 0.050166636689007733374 0.05622732927883758447 -0.020231197875492521604 -0.37521227009146757014 0.075942980046140778905 0.24764846442316046371 0.069381376859283347414;-0.27279114834065976147 -0.59825687539555150174 0.52993116279276963887 -0.081986543837685083025 -0.0090206796380356800424 0.4083838710869636679 0.0059656168953248515582 -1.5209907408406664331 0.095555346690372841567 -0.039353559358664136347 -0.25834816093480345023 -0.036955954344112931786 0.13203543317415059044];

% Layer 2
b2 = [0.4498310453760869243;-0.38452274992986434921;0.46822191844354638102;-0.1914991313362862102;0.18405403515292106942;0.34940020686752110146;-0.29819841934467028466;-0.27087306308314679226];
LW2_1 = [-0.29053752314533842771 -0.276143162551799215 -0.02165255688362923564 0.10093410470400002166 0.12341294248675757639 -0.45850568370045236 -0.20739986332912560552 0.46532269496230366235 -0.24845162965428005397 0.51107339050046651785 -0.0017238619743442026855 0.05248408281886159793 0.31555038410342245436 -0.43650932132981595801 0.54917787475592549917 0.22990742347613524199 0.37695114646591554308 -0.17921462079738578743 -0.26749085138734385314 0.060577994805910320708;0.47951418379415644555 0.18765427878897861236 -0.15841705445694159726 0.25162959959437514179 -0.028394120595654544909 0.093707625987264453471 -0.27731226083057541887 -0.078811434539094421536 -0.021227990720390017138 0.32971303516579364423 0.0027027088393910738556 0.075784514380236561726 -0.42183811414434518872 0.080066902002809470229 -0.091954312722762748811 0.20149959908763434568 0.20122325503895743815 0.11885144794980524729 0.041589714944151243148 0.14582852324967665592;-0.56039580685374101865 -1.1301869604462693175 1.345502194206831037 -1.6589424767378488923 -1.800570087891859794 0.11383701559132275438 -1.5412297286575851185 0.40588707474895741045 0.05080416583052262125 -1.0456244796077318604 1.1012361806097457073 0.72430521568876016225 -0.16767018096787472681 -1.77453745203077351 1.6585997789045014983 0.48004498335391809771 -1.0248084823377920927 -0.757725711569499083 0.68903908632565236125 -1.8932939284920982104;0.40237377578699412561 0.41203342276974569414 0.036499272920348220517 -0.22130987385618824947 -0.17422412721483190867 -0.19337763881827260692 -0.45848523006912494937 0.31820264171478945814 0.26665116644403913382 -0.25182760435683504419 -0.088623457236674987869 0.29876441205113885013 0.61492745179991925575 0.52041110562003922713 -0.5634262254314057472 -0.028385039297090481486 0.43730444147423042089 0.29859456353266672357 0.19069121456864190911 -0.3097188282772778134;-0.096474097256566679337 -0.1643084472119559214 0.15630639615986360869 -0.10750213887109677513 -0.050429986427630552059 -0.14998903572005958806 0.1439294292893110172 0.25692062818386834921 -0.061815908756515991485 -0.15389548440936628992 -0.0015370663242146218562 -0.20288440036827434798 -0.44463929697579107625 -0.13702414760701617236 0.0096364762457280348645 0.061095178894788375323 -0.56670033798472774222 -0.1233544835669912465 0.23843882878311253859 0.22897389184768907056;-0.25085957618925308621 -0.0093075945885829139415 -0.2728374479066946745 0.5088491666279872927 0.25587720264709445939 -0.23822528593862848934 0.18796820821385998301 -0.53279479910622518091 0.012799882540621455862 0.26002268262219579986 -0.35254743772499552712 0.045248485384835696044 -0.398807375731379532 0.26793204412088622579 0.063956685833645790518 -0.10268483723339061342 0.33604516094169822882 0.19615498563343233829 -0.22119429063116927137 -0.010393306608950190345;-0.030363279794408965656 -0.23991109532625207179 0.25791454210641279188 -0.59692889912815705333 -0.32037370614765681154 -0.072917440200949174001 -0.01492196230489837433 -0.41255727867100761008 -0.16068865757725131482 -0.032460347411249680649 0.40927719061967043901 0.35499077794262590135 -0.28249512010853561339 -0.36214411324161976946 0.36996443609039658673 0.23471723751150952442 -0.37542897530663238426 -0.28038887984081389826 0.19512490079580729896 0.0053975282958673770003;-0.14726120320055929858 0.36435714445327016531 0.06944024430974797546 0.083752954047667318993 -0.22064940783789555034 -0.49371726475302157855 -0.66968579568696529059 -0.12687600933273782133 0.30022043958419913912 -0.45768455416419229209 0.63474982367824639429 0.10403117476124509877 -0.023469322870719493829 -0.29761239153437873961 0.064733354355323707852 0.25421413651211421936 0.27688050848325146402 -0.38908381018822013608 0.48474337519239180105 -0.079045900318753678504];

% Layer 3
b3 = [-0.42681901500056518284;-0.42871579745904092595];
LW3_2 = [-0.59956008732384580284 0.43730508197329198694 1.1701679786901924007 -0.47173032540870168949 -0.62425095511022443695 0.25774509211522689256 0.49395374279651943494 0.078075701092646193624;-0.5302354270054981944 0.27449279612461879863 1.1705457236775864693 -0.28651214071248892745 -0.44704554027564508134 0.62174880185466263605 0.69263954849818687443 0.073561391954756485956];

% Output 1
y1_step1.ymin = -1;
y1_step1.gain = [2;2];
y1_step1.xoffset = [0;0];

% ===== SIMULATION ========

% Dimensions
Q = size(x1,2); % samples

% Input 1
xp1 = mapminmax_apply(x1,x1_step1);

% Layer 1
a1 = tansig_apply(repmat(b1,1,Q) + IW1_1*xp1);

% Layer 2
a2 = tansig_apply(repmat(b2,1,Q) + LW2_1*a1);

% Layer 3
a3 = repmat(b3,1,Q) + LW3_2*a2;

% Output 1
y1 = mapminmax_reverse(a3,y1_step1);
end

% ===== MODULE FUNCTIONS ========

% Map Minimum and Maximum Input Processing Function
function y = mapminmax_apply(x,settings)
  y = bsxfun(@minus,x,settings.xoffset);
  y = bsxfun(@times,y,settings.gain);
  y = bsxfun(@plus,y,settings.ymin);
end

% Sigmoid Symmetric Transfer Function
function a = tansig_apply(n,~)
  a = 2 ./ (1 + exp(-2*n)) - 1;
end

% Map Minimum and Maximum Output Reverse-Processing Function
function x = mapminmax_reverse(y,settings)
  x = bsxfun(@minus,y,settings.ymin);
  x = bsxfun(@rdivide,x,settings.gain);
  x = bsxfun(@plus,x,settings.xoffset);
end
